digraph Tree {
node [shape=box, style="filled, rounded", color="black", fontname=helvetica] ;
edge [fontname=helvetica] ;
0 [label=<Impulsividade &le; 0.222<br/>gini = 0.5<br/>samples = 1374<br/>value = [687, 687]<br/>class = Não Usuario>, fillcolor="#ffffff"] ;
1 [label=<Conscienciosidade &le; 0.671<br/>gini = 0.446<br/>samples = 423<br/>value = [281, 142]<br/>class = Não Usuario>, fillcolor="#f2c19d"] ;
0 -> 1 [labeldistance=2.5, labelangle=45, headlabel="True"] ;
2 [label=<Extroversao &le; 0.41<br/>gini = 0.387<br/>samples = 233<br/>value = [172, 61]<br/>class = Não Usuario>, fillcolor="#eeae7f"] ;
1 -> 2 ;
3 [label=<gini = 0.0<br/>samples = 2<br/>value = [0, 2]<br/>class = Usuario>, fillcolor="#399de5"] ;
2 -> 3 ;
4 [label=<BuscaPorExperiencias &le; 0.75<br/>gini = 0.38<br/>samples = 231<br/>value = [172, 59]<br/>class = Não Usuario>, fillcolor="#eeac7d"] ;
2 -> 4 ;
5 [label=<Agradabilidade &le; 0.27<br/>gini = 0.367<br/>samples = 223<br/>value = [169, 54]<br/>class = Não Usuario>, fillcolor="#eda978"] ;
4 -> 5 ;
6 [label=<AberturaExperiencia &le; 0.335<br/>gini = 0.444<br/>samples = 6<br/>value = [2, 4]<br/>class = Usuario>, fillcolor="#9ccef2"] ;
5 -> 6 ;
7 [label=<gini = 0.0<br/>samples = 2<br/>value = [2, 0]<br/>class = Não Usuario>, fillcolor="#e58139"] ;
6 -> 7 ;
8 [label=<gini = 0.0<br/>samples = 4<br/>value = [0, 4]<br/>class = Usuario>, fillcolor="#399de5"] ;
6 -> 8 ;
9 [label=<AberturaExperiencia &le; 0.43<br/>gini = 0.355<br/>samples = 217<br/>value = [167, 50]<br/>class = Não Usuario>, fillcolor="#eda774"] ;
5 -> 9 ;
10 [label=<AberturaExperiencia &le; 0.34<br/>gini = 0.24<br/>samples = 79<br/>value = [68, 11]<br/>class = Não Usuario>, fillcolor="#e99559"] ;
9 -> 10 ;
11 [label=<AberturaExperiencia &le; 0.3<br/>gini = 0.329<br/>samples = 53<br/>value = [42, 11]<br/>class = Não Usuario>, fillcolor="#eca26d"] ;
10 -> 11 ;
12 [label=<Agradabilidade &le; 0.47<br/>gini = 0.224<br/>samples = 39<br/>value = [34, 5]<br/>class = Não Usuario>, fillcolor="#e99456"] ;
11 -> 12 ;
13 [label=<Conscienciosidade &le; 0.47<br/>gini = 0.444<br/>samples = 9<br/>value = [6, 3]<br/>class = Não Usuario>, fillcolor="#f2c09c"] ;
12 -> 13 ;
14 [label=<gini = 0.0<br/>samples = 2<br/>value = [0, 2]<br/>class = Usuario>, fillcolor="#399de5"] ;
13 -> 14 ;
15 [label=<Conscienciosidade &le; 0.635<br/>gini = 0.245<br/>samples = 7<br/>value = [6, 1]<br/>class = Não Usuario>, fillcolor="#e9965a"] ;
13 -> 15 ;
16 [label=<gini = 0.0<br/>samples = 6<br/>value = [6, 0]<br/>class = Não Usuario>, fillcolor="#e58139"] ;
15 -> 16 ;
17 [label=<gini = 0.0<br/>samples = 1<br/>value = [0, 1]<br/>class = Usuario>, fillcolor="#399de5"] ;
15 -> 17 ;
18 [label=<Conscienciosidade &le; 0.59<br/>gini = 0.124<br/>samples = 30<br/>value = [28, 2]<br/>class = Não Usuario>, fillcolor="#e78a47"] ;
12 -> 18 ;
19 [label=<gini = 0.0<br/>samples = 21<br/>value = [21, 0]<br/>class = Não Usuario>, fillcolor="#e58139"] ;
18 -> 19 ;
20 [label=<InstabilidadeEmocional &le; 0.56<br/>gini = 0.346<br/>samples = 9<br/>value = [7, 2]<br/>class = Não Usuario>, fillcolor="#eca572"] ;
18 -> 20 ;
21 [label=<gini = 0.0<br/>samples = 1<br/>value = [0, 1]<br/>class = Usuario>, fillcolor="#399de5"] ;
20 -> 21 ;
22 [label=<Conscienciosidade &le; 0.61<br/>gini = 0.219<br/>samples = 8<br/>value = [7, 1]<br/>class = Não Usuario>, fillcolor="#e99355"] ;
20 -> 22 ;
23 [label=<gini = 0.0<br/>samples = 1<br/>value = [0, 1]<br/>class = Usuario>, fillcolor="#399de5"] ;
22 -> 23 ;
24 [label=<gini = 0.0<br/>samples = 7<br/>value = [7, 0]<br/>class = Não Usuario>, fillcolor="#e58139"] ;
22 -> 24 ;
25 [label=<BuscaPorExperiencias &le; 0.45<br/>gini = 0.49<br/>samples = 14<br/>value = [8, 6]<br/>class = Não Usuario>, fillcolor="#f8e0ce"] ;
11 -> 25 ;
26 [label=<Conscienciosidade &le; 0.57<br/>gini = 0.444<br/>samples = 12<br/>value = [8, 4]<br/>class = Não Usuario>, fillcolor="#f2c09c"] ;
25 -> 26 ;
27 [label=<InstabilidadeEmocional &le; 0.56<br/>gini = 0.245<br/>samples = 7<br/>value = [6, 1]<br/>class = Não Usuario>, fillcolor="#e9965a"] ;
26 -> 27 ;
28 [label=<gini = 0.0<br/>samples = 1<br/>value = [0, 1]<br/>class = Usuario>, fillcolor="#399de5"] ;
27 -> 28 ;
29 [label=<gini = 0.0<br/>samples = 6<br/>value = [6, 0]<br/>class = Não Usuario>, fillcolor="#e58139"] ;
27 -> 29 ;
30 [label=<InstabilidadeEmocional &le; 0.68<br/>gini = 0.48<br/>samples = 5<br/>value = [2, 3]<br/>class = Usuario>, fillcolor="#bddef6"] ;
26 -> 30 ;
31 [label=<gini = 0.0<br/>samples = 2<br/>value = [0, 2]<br/>class = Usuario>, fillcolor="#399de5"] ;
30 -> 31 ;
32 [label=<Conscienciosidade &le; 0.59<br/>gini = 0.444<br/>samples = 3<br/>value = [2, 1]<br/>class = Não Usuario>, fillcolor="#f2c09c"] ;
30 -> 32 ;
33 [label=<gini = 0.0<br/>samples = 2<br/>value = [2, 0]<br/>class = Não Usuario>, fillcolor="#e58139"] ;
32 -> 33 ;
34 [label=<gini = 0.0<br/>samples = 1<br/>value = [0, 1]<br/>class = Usuario>, fillcolor="#399de5"] ;
32 -> 34 ;
35 [label=<gini = 0.0<br/>samples = 2<br/>value = [0, 2]<br/>class = Usuario>, fillcolor="#399de5"] ;
25 -> 35 ;
36 [label=<gini = 0.0<br/>samples = 26<br/>value = [26, 0]<br/>class = Não Usuario>, fillcolor="#e58139"] ;
10 -> 36 ;
37 [label=<Conscienciosidade &le; 0.51<br/>gini = 0.405<br/>samples = 138<br/>value = [99, 39]<br/>class = Não Usuario>, fillcolor="#efb387"] ;
9 -> 37 ;
38 [label=<Extroversao &le; 0.68<br/>gini = 0.223<br/>samples = 47<br/>value = [41, 6]<br/>class = Não Usuario>, fillcolor="#e99356"] ;
37 -> 38 ;
39 [label=<InstabilidadeEmocional &le; 0.845<br/>gini = 0.401<br/>samples = 18<br/>value = [13, 5]<br/>class = Não Usuario>, fillcolor="#efb185"] ;
38 -> 39 ;
40 [label=<BuscaPorExperiencias &le; 0.05<br/>gini = 0.305<br/>samples = 16<br/>value = [13, 3]<br/>class = Não Usuario>, fillcolor="#eb9e67"] ;
39 -> 40 ;
41 [label=<Extroversao &le; 0.53<br/>gini = 0.444<br/>samples = 3<br/>value = [1, 2]<br/>class = Usuario>, fillcolor="#9ccef2"] ;
40 -> 41 ;
42 [label=<gini = 0.0<br/>samples = 1<br/>value = [1, 0]<br/>class = Não Usuario>, fillcolor="#e58139"] ;
41 -> 42 ;
43 [label=<gini = 0.0<br/>samples = 2<br/>value = [0, 2]<br/>class = Usuario>, fillcolor="#399de5"] ;
41 -> 43 ;
44 [label=<AberturaExperiencia &le; 0.49<br/>gini = 0.142<br/>samples = 13<br/>value = [12, 1]<br/>class = Não Usuario>, fillcolor="#e78c49"] ;
40 -> 44 ;
45 [label=<BuscaPorExperiencias &le; 0.3<br/>gini = 0.444<br/>samples = 3<br/>value = [2, 1]<br/>class = Não Usuario>, fillcolor="#f2c09c"] ;
44 -> 45 ;
46 [label=<gini = 0.0<br/>samples = 1<br/>value = [0, 1]<br/>class = Usuario>, fillcolor="#399de5"] ;
45 -> 46 ;
47 [label=<gini = 0.0<br/>samples = 2<br/>value = [2, 0]<br/>class = Não Usuario>, fillcolor="#e58139"] ;
45 -> 47 ;
48 [label=<gini = 0.0<br/>samples = 10<br/>value = [10, 0]<br/>class = Não Usuario>, fillcolor="#e58139"] ;
44 -> 48 ;
49 [label=<gini = 0.0<br/>samples = 2<br/>value = [0, 2]<br/>class = Usuario>, fillcolor="#399de5"] ;
39 -> 49 ;
50 [label=<AberturaExperiencia &le; 0.66<br/>gini = 0.067<br/>samples = 29<br/>value = [28, 1]<br/>class = Não Usuario>, fillcolor="#e68640"] ;
38 -> 50 ;
51 [label=<gini = 0.0<br/>samples = 24<br/>value = [24, 0]<br/>class = Não Usuario>, fillcolor="#e58139"] ;
50 -> 51 ;
52 [label=<AberturaExperiencia &le; 0.69<br/>gini = 0.32<br/>samples = 5<br/>value = [4, 1]<br/>class = Não Usuario>, fillcolor="#eca06a"] ;
50 -> 52 ;
53 [label=<gini = 0.0<br/>samples = 1<br/>value = [0, 1]<br/>class = Usuario>, fillcolor="#399de5"] ;
52 -> 53 ;
54 [label=<gini = 0.0<br/>samples = 4<br/>value = [4, 0]<br/>class = Não Usuario>, fillcolor="#e58139"] ;
52 -> 54 ;
55 [label=<Agradabilidade &le; 0.546<br/>gini = 0.462<br/>samples = 91<br/>value = [58, 33]<br/>class = Não Usuario>, fillcolor="#f4c9aa"] ;
37 -> 55 ;
56 [label=<Extroversao &le; 0.48<br/>gini = 0.386<br/>samples = 46<br/>value = [34, 12]<br/>class = Não Usuario>, fillcolor="#eead7f"] ;
55 -> 56 ;
57 [label=<gini = 0.0<br/>samples = 2<br/>value = [0, 2]<br/>class = Usuario>, fillcolor="#399de5"] ;
56 -> 57 ;
58 [label=<AberturaExperiencia &le; 0.66<br/>gini = 0.351<br/>samples = 44<br/>value = [34, 10]<br/>class = Não Usuario>, fillcolor="#eda673"] ;
56 -> 58 ;
59 [label=<Agradabilidade &le; 0.375<br/>gini = 0.198<br/>samples = 27<br/>value = [24, 3]<br/>class = Não Usuario>, fillcolor="#e89152"] ;
58 -> 59 ;
60 [label=<BuscaPorExperiencias &le; 0.05<br/>gini = 0.444<br/>samples = 3<br/>value = [1, 2]<br/>class = Usuario>, fillcolor="#9ccef2"] ;
59 -> 60 ;
61 [label=<gini = 0.0<br/>samples = 1<br/>value = [1, 0]<br/>class = Não Usuario>, fillcolor="#e58139"] ;
60 -> 61 ;
62 [label=<gini = 0.0<br/>samples = 2<br/>value = [0, 2]<br/>class = Usuario>, fillcolor="#399de5"] ;
60 -> 62 ;
63 [label=<AberturaExperiencia &le; 0.45<br/>gini = 0.08<br/>samples = 24<br/>value = [23, 1]<br/>class = Não Usuario>, fillcolor="#e68642"] ;
59 -> 63 ;
64 [label=<gini = 0.0<br/>samples = 1<br/>value = [0, 1]<br/>class = Usuario>, fillcolor="#399de5"] ;
63 -> 64 ;
65 [label=<gini = 0.0<br/>samples = 23<br/>value = [23, 0]<br/>class = Não Usuario>, fillcolor="#e58139"] ;
63 -> 65 ;
66 [label=<Extroversao &le; 0.68<br/>gini = 0.484<br/>samples = 17<br/>value = [10, 7]<br/>class = Não Usuario>, fillcolor="#f7d9c4"] ;
58 -> 66 ;
67 [label=<InstabilidadeEmocional &le; 0.735<br/>gini = 0.444<br/>samples = 9<br/>value = [3, 6]<br/>class = Usuario>, fillcolor="#9ccef2"] ;
66 -> 67 ;
68 [label=<Extroversao &le; 0.52<br/>gini = 0.245<br/>samples = 7<br/>value = [1, 6]<br/>class = Usuario>, fillcolor="#5aade9"] ;
67 -> 68 ;
69 [label=<gini = 0.0<br/>samples = 1<br/>value = [1, 0]<br/>class = Não Usuario>, fillcolor="#e58139"] ;
68 -> 69 ;
70 [label=<gini = 0.0<br/>samples = 6<br/>value = [0, 6]<br/>class = Usuario>, fillcolor="#399de5"] ;
68 -> 70 ;
71 [label=<gini = 0.0<br/>samples = 2<br/>value = [2, 0]<br/>class = Não Usuario>, fillcolor="#e58139"] ;
67 -> 71 ;
72 [label=<AberturaExperiencia &le; 0.68<br/>gini = 0.219<br/>samples = 8<br/>value = [7, 1]<br/>class = Não Usuario>, fillcolor="#e99355"] ;
66 -> 72 ;
73 [label=<BuscaPorExperiencias &le; 0.15<br/>gini = 0.5<br/>samples = 2<br/>value = [1, 1]<br/>class = Não Usuario>, fillcolor="#ffffff"] ;
72 -> 73 ;
74 [label=<gini = 0.0<br/>samples = 1<br/>value = [0, 1]<br/>class = Usuario>, fillcolor="#399de5"] ;
73 -> 74 ;
75 [label=<gini = 0.0<br/>samples = 1<br/>value = [1, 0]<br/>class = Não Usuario>, fillcolor="#e58139"] ;
73 -> 75 ;
76 [label=<gini = 0.0<br/>samples = 6<br/>value = [6, 0]<br/>class = Não Usuario>, fillcolor="#e58139"] ;
72 -> 76 ;
77 [label=<Agradabilidade &le; 0.57<br/>gini = 0.498<br/>samples = 45<br/>value = [24, 21]<br/>class = Não Usuario>, fillcolor="#fcefe6"] ;
55 -> 77 ;
78 [label=<AberturaExperiencia &le; 0.827<br/>gini = 0.165<br/>samples = 11<br/>value = [1, 10]<br/>class = Usuario>, fillcolor="#4da7e8"] ;
77 -> 78 ;
79 [label=<gini = 0.0<br/>samples = 10<br/>value = [0, 10]<br/>class = Usuario>, fillcolor="#399de5"] ;
78 -> 79 ;
80 [label=<gini = 0.0<br/>samples = 1<br/>value = [1, 0]<br/>class = Não Usuario>, fillcolor="#e58139"] ;
78 -> 80 ;
81 [label=<BuscaPorExperiencias &le; 0.15<br/>gini = 0.438<br/>samples = 34<br/>value = [23, 11]<br/>class = Não Usuario>, fillcolor="#f1bd98"] ;
77 -> 81 ;
82 [label=<Agradabilidade &le; 0.72<br/>gini = 0.375<br/>samples = 8<br/>value = [2, 6]<br/>class = Usuario>, fillcolor="#7bbeee"] ;
81 -> 82 ;
83 [label=<gini = 0.0<br/>samples = 6<br/>value = [0, 6]<br/>class = Usuario>, fillcolor="#399de5"] ;
82 -> 83 ;
84 [label=<gini = 0.0<br/>samples = 2<br/>value = [2, 0]<br/>class = Não Usuario>, fillcolor="#e58139"] ;
82 -> 84 ;
85 [label=<AberturaExperiencia &le; 0.59<br/>gini = 0.311<br/>samples = 26<br/>value = [21, 5]<br/>class = Não Usuario>, fillcolor="#eb9f68"] ;
81 -> 85 ;
86 [label=<Extroversao &le; 0.8<br/>gini = 0.459<br/>samples = 14<br/>value = [9, 5]<br/>class = Não Usuario>, fillcolor="#f3c7a7"] ;
85 -> 86 ;
87 [label=<BuscaPorExperiencias &le; 0.45<br/>gini = 0.32<br/>samples = 10<br/>value = [8, 2]<br/>class = Não Usuario>, fillcolor="#eca06a"] ;
86 -> 87 ;
88 [label=<gini = 0.0<br/>samples = 7<br/>value = [7, 0]<br/>class = Não Usuario>, fillcolor="#e58139"] ;
87 -> 88 ;
89 [label=<AberturaExperiencia &le; 0.52<br/>gini = 0.444<br/>samples = 3<br/>value = [1, 2]<br/>class = Usuario>, fillcolor="#9ccef2"] ;
87 -> 89 ;
90 [label=<gini = 0.0<br/>samples = 1<br/>value = [1, 0]<br/>class = Não Usuario>, fillcolor="#e58139"] ;
89 -> 90 ;
91 [label=<gini = 0.0<br/>samples = 2<br/>value = [0, 2]<br/>class = Usuario>, fillcolor="#399de5"] ;
89 -> 91 ;
92 [label=<Conscienciosidade &le; 0.625<br/>gini = 0.375<br/>samples = 4<br/>value = [1, 3]<br/>class = Usuario>, fillcolor="#7bbeee"] ;
86 -> 92 ;
93 [label=<gini = 0.0<br/>samples = 3<br/>value = [0, 3]<br/>class = Usuario>, fillcolor="#399de5"] ;
92 -> 93 ;
94 [label=<gini = 0.0<br/>samples = 1<br/>value = [1, 0]<br/>class = Não Usuario>, fillcolor="#e58139"] ;
92 -> 94 ;
95 [label=<gini = 0.0<br/>samples = 12<br/>value = [12, 0]<br/>class = Não Usuario>, fillcolor="#e58139"] ;
85 -> 95 ;
96 [label=<Agradabilidade &le; 0.46<br/>gini = 0.469<br/>samples = 8<br/>value = [3, 5]<br/>class = Usuario>, fillcolor="#b0d8f5"] ;
4 -> 96 ;
97 [label=<gini = 0.0<br/>samples = 3<br/>value = [3, 0]<br/>class = Não Usuario>, fillcolor="#e58139"] ;
96 -> 97 ;
98 [label=<gini = 0.0<br/>samples = 5<br/>value = [0, 5]<br/>class = Usuario>, fillcolor="#399de5"] ;
96 -> 98 ;
99 [label=<InstabilidadeEmocional &le; 0.735<br/>gini = 0.489<br/>samples = 190<br/>value = [109, 81]<br/>class = Não Usuario>, fillcolor="#f8dfcc"] ;
1 -> 99 ;
100 [label=<Agradabilidade &le; 0.61<br/>gini = 0.5<br/>samples = 136<br/>value = [69, 67]<br/>class = Não Usuario>, fillcolor="#fefbf9"] ;
99 -> 100 ;
101 [label=<Agradabilidade &le; 0.45<br/>gini = 0.491<br/>samples = 90<br/>value = [39, 51]<br/>class = Usuario>, fillcolor="#d0e8f9"] ;
100 -> 101 ;
102 [label=<Agradabilidade &le; 0.43<br/>gini = 0.482<br/>samples = 32<br/>value = [19, 13]<br/>class = Não Usuario>, fillcolor="#f7d7c0"] ;
101 -> 102 ;
103 [label=<AberturaExperiencia &le; 0.3<br/>gini = 0.497<br/>samples = 24<br/>value = [11, 13]<br/>class = Usuario>, fillcolor="#e1f0fb"] ;
102 -> 103 ;
104 [label=<gini = 0.0<br/>samples = 3<br/>value = [3, 0]<br/>class = Não Usuario>, fillcolor="#e58139"] ;
103 -> 104 ;
105 [label=<Extroversao &le; 0.68<br/>gini = 0.472<br/>samples = 21<br/>value = [8, 13]<br/>class = Usuario>, fillcolor="#b3d9f5"] ;
103 -> 105 ;
106 [label=<AberturaExperiencia &le; 0.34<br/>gini = 0.337<br/>samples = 14<br/>value = [3, 11]<br/>class = Usuario>, fillcolor="#6fb8ec"] ;
105 -> 106 ;
107 [label=<Agradabilidade &le; 0.23<br/>gini = 0.444<br/>samples = 3<br/>value = [2, 1]<br/>class = Não Usuario>, fillcolor="#f2c09c"] ;
106 -> 107 ;
108 [label=<gini = 0.0<br/>samples = 1<br/>value = [0, 1]<br/>class = Usuario>, fillcolor="#399de5"] ;
107 -> 108 ;
109 [label=<gini = 0.0<br/>samples = 2<br/>value = [2, 0]<br/>class = Não Usuario>, fillcolor="#e58139"] ;
107 -> 109 ;
110 [label=<Extroversao &le; 0.47<br/>gini = 0.165<br/>samples = 11<br/>value = [1, 10]<br/>class = Usuario>, fillcolor="#4da7e8"] ;
106 -> 110 ;
111 [label=<gini = 0.0<br/>samples = 1<br/>value = [1, 0]<br/>class = Não Usuario>, fillcolor="#e58139"] ;
110 -> 111 ;
112 [label=<gini = 0.0<br/>samples = 10<br/>value = [0, 10]<br/>class = Usuario>, fillcolor="#399de5"] ;
110 -> 112 ;
113 [label=<AberturaExperiencia &le; 0.34<br/>gini = 0.408<br/>samples = 7<br/>value = [5, 2]<br/>class = Não Usuario>, fillcolor="#efb388"] ;
105 -> 113 ;
114 [label=<gini = 0.0<br/>samples = 2<br/>value = [0, 2]<br/>class = Usuario>, fillcolor="#399de5"] ;
113 -> 114 ;
115 [label=<gini = 0.0<br/>samples = 5<br/>value = [5, 0]<br/>class = Não Usuario>, fillcolor="#e58139"] ;
113 -> 115 ;
116 [label=<gini = 0.0<br/>samples = 8<br/>value = [8, 0]<br/>class = Não Usuario>, fillcolor="#e58139"] ;
102 -> 116 ;
117 [label=<Extroversao &le; 0.49<br/>gini = 0.452<br/>samples = 58<br/>value = [20, 38]<br/>class = Usuario>, fillcolor="#a1d1f3"] ;
101 -> 117 ;
118 [label=<gini = 0.0<br/>samples = 6<br/>value = [0, 6]<br/>class = Usuario>, fillcolor="#399de5"] ;
117 -> 118 ;
119 [label=<AberturaExperiencia &le; 0.74<br/>gini = 0.473<br/>samples = 52<br/>value = [20, 32]<br/>class = Usuario>, fillcolor="#b5daf5"] ;
117 -> 119 ;
120 [label=<Agradabilidade &le; 0.59<br/>gini = 0.449<br/>samples = 44<br/>value = [15, 29]<br/>class = Usuario>, fillcolor="#9fd0f2"] ;
119 -> 120 ;
121 [label=<AberturaExperiencia &le; 0.47<br/>gini = 0.478<br/>samples = 38<br/>value = [15, 23]<br/>class = Usuario>, fillcolor="#baddf6"] ;
120 -> 121 ;
122 [label=<BuscaPorExperiencias &le; 0.35<br/>gini = 0.499<br/>samples = 21<br/>value = [11, 10]<br/>class = Não Usuario>, fillcolor="#fdf4ed"] ;
121 -> 122 ;
123 [label=<Agradabilidade &le; 0.55<br/>gini = 0.375<br/>samples = 8<br/>value = [2, 6]<br/>class = Usuario>, fillcolor="#7bbeee"] ;
122 -> 123 ;
124 [label=<BuscaPorExperiencias &le; 0.1<br/>gini = 0.245<br/>samples = 7<br/>value = [1, 6]<br/>class = Usuario>, fillcolor="#5aade9"] ;
123 -> 124 ;
125 [label=<gini = 0.0<br/>samples = 1<br/>value = [1, 0]<br/>class = Não Usuario>, fillcolor="#e58139"] ;
124 -> 125 ;
126 [label=<gini = 0.0<br/>samples = 6<br/>value = [0, 6]<br/>class = Usuario>, fillcolor="#399de5"] ;
124 -> 126 ;
127 [label=<gini = 0.0<br/>samples = 1<br/>value = [1, 0]<br/>class = Não Usuario>, fillcolor="#e58139"] ;
123 -> 127 ;
128 [label=<Extroversao &le; 0.74<br/>gini = 0.426<br/>samples = 13<br/>value = [9, 4]<br/>class = Não Usuario>, fillcolor="#f1b991"] ;
122 -> 128 ;
129 [label=<gini = 0.0<br/>samples = 6<br/>value = [6, 0]<br/>class = Não Usuario>, fillcolor="#e58139"] ;
128 -> 129 ;
130 [label=<AberturaExperiencia &le; 0.32<br/>gini = 0.49<br/>samples = 7<br/>value = [3, 4]<br/>class = Usuario>, fillcolor="#cee6f8"] ;
128 -> 130 ;
131 [label=<InstabilidadeEmocional &le; 0.535<br/>gini = 0.444<br/>samples = 6<br/>value = [2, 4]<br/>class = Usuario>, fillcolor="#9ccef2"] ;
130 -> 131 ;
132 [label=<gini = 0.0<br/>samples = 3<br/>value = [0, 3]<br/>class = Usuario>, fillcolor="#399de5"] ;
131 -> 132 ;
133 [label=<Conscienciosidade &le; 0.7<br/>gini = 0.444<br/>samples = 3<br/>value = [2, 1]<br/>class = Não Usuario>, fillcolor="#f2c09c"] ;
131 -> 133 ;
134 [label=<gini = 0.0<br/>samples = 1<br/>value = [0, 1]<br/>class = Usuario>, fillcolor="#399de5"] ;
133 -> 134 ;
135 [label=<gini = 0.0<br/>samples = 2<br/>value = [2, 0]<br/>class = Não Usuario>, fillcolor="#e58139"] ;
133 -> 135 ;
136 [label=<gini = 0.0<br/>samples = 1<br/>value = [1, 0]<br/>class = Não Usuario>, fillcolor="#e58139"] ;
130 -> 136 ;
137 [label=<InstabilidadeEmocional &le; 0.585<br/>gini = 0.36<br/>samples = 17<br/>value = [4, 13]<br/>class = Usuario>, fillcolor="#76bbed"] ;
121 -> 137 ;
138 [label=<Agradabilidade &le; 0.53<br/>gini = 0.494<br/>samples = 9<br/>value = [4, 5]<br/>class = Usuario>, fillcolor="#d7ebfa"] ;
137 -> 138 ;
139 [label=<InstabilidadeEmocional &le; 0.535<br/>gini = 0.444<br/>samples = 6<br/>value = [4, 2]<br/>class = Não Usuario>, fillcolor="#f2c09c"] ;
138 -> 139 ;
140 [label=<Agradabilidade &le; 0.5<br/>gini = 0.444<br/>samples = 3<br/>value = [1, 2]<br/>class = Usuario>, fillcolor="#9ccef2"] ;
139 -> 140 ;
141 [label=<gini = 0.0<br/>samples = 2<br/>value = [0, 2]<br/>class = Usuario>, fillcolor="#399de5"] ;
140 -> 141 ;
142 [label=<gini = 0.0<br/>samples = 1<br/>value = [1, 0]<br/>class = Não Usuario>, fillcolor="#e58139"] ;
140 -> 142 ;
143 [label=<gini = 0.0<br/>samples = 3<br/>value = [3, 0]<br/>class = Não Usuario>, fillcolor="#e58139"] ;
139 -> 143 ;
144 [label=<gini = 0.0<br/>samples = 3<br/>value = [0, 3]<br/>class = Usuario>, fillcolor="#399de5"] ;
138 -> 144 ;
145 [label=<gini = 0.0<br/>samples = 8<br/>value = [0, 8]<br/>class = Usuario>, fillcolor="#399de5"] ;
137 -> 145 ;
146 [label=<gini = 0.0<br/>samples = 6<br/>value = [0, 6]<br/>class = Usuario>, fillcolor="#399de5"] ;
120 -> 146 ;
147 [label=<Agradabilidade &le; 0.53<br/>gini = 0.469<br/>samples = 8<br/>value = [5, 3]<br/>class = Não Usuario>, fillcolor="#f5cdb0"] ;
119 -> 147 ;
148 [label=<gini = 0.0<br/>samples = 2<br/>value = [0, 2]<br/>class = Usuario>, fillcolor="#399de5"] ;
147 -> 148 ;
149 [label=<InstabilidadeEmocional &le; 0.535<br/>gini = 0.278<br/>samples = 6<br/>value = [5, 1]<br/>class = Não Usuario>, fillcolor="#ea9a61"] ;
147 -> 149 ;
150 [label=<gini = 0.0<br/>samples = 1<br/>value = [0, 1]<br/>class = Usuario>, fillcolor="#399de5"] ;
149 -> 150 ;
151 [label=<gini = 0.0<br/>samples = 5<br/>value = [5, 0]<br/>class = Não Usuario>, fillcolor="#e58139"] ;
149 -> 151 ;
152 [label=<AberturaExperiencia &le; 0.53<br/>gini = 0.454<br/>samples = 46<br/>value = [30, 16]<br/>class = Não Usuario>, fillcolor="#f3c4a3"] ;
100 -> 152 ;
153 [label=<AberturaExperiencia &le; 0.18<br/>gini = 0.337<br/>samples = 28<br/>value = [22, 6]<br/>class = Não Usuario>, fillcolor="#eca36f"] ;
152 -> 153 ;
154 [label=<gini = 0.0<br/>samples = 1<br/>value = [0, 1]<br/>class = Usuario>, fillcolor="#399de5"] ;
153 -> 154 ;
155 [label=<AberturaExperiencia &le; 0.39<br/>gini = 0.302<br/>samples = 27<br/>value = [22, 5]<br/>class = Não Usuario>, fillcolor="#eb9e66"] ;
153 -> 155 ;
156 [label=<AberturaExperiencia &le; 0.34<br/>gini = 0.444<br/>samples = 9<br/>value = [6, 3]<br/>class = Não Usuario>, fillcolor="#f2c09c"] ;
155 -> 156 ;
157 [label=<gini = 0.0<br/>samples = 6<br/>value = [6, 0]<br/>class = Não Usuario>, fillcolor="#e58139"] ;
156 -> 157 ;
158 [label=<gini = 0.0<br/>samples = 3<br/>value = [0, 3]<br/>class = Usuario>, fillcolor="#399de5"] ;
156 -> 158 ;
159 [label=<AberturaExperiencia &le; 0.49<br/>gini = 0.198<br/>samples = 18<br/>value = [16, 2]<br/>class = Não Usuario>, fillcolor="#e89152"] ;
155 -> 159 ;
160 [label=<gini = 0.0<br/>samples = 12<br/>value = [12, 0]<br/>class = Não Usuario>, fillcolor="#e58139"] ;
159 -> 160 ;
161 [label=<BuscaPorExperiencias &le; 0.25<br/>gini = 0.444<br/>samples = 6<br/>value = [4, 2]<br/>class = Não Usuario>, fillcolor="#f2c09c"] ;
159 -> 161 ;
162 [label=<gini = 0.0<br/>samples = 2<br/>value = [2, 0]<br/>class = Não Usuario>, fillcolor="#e58139"] ;
161 -> 162 ;
163 [label=<BuscaPorExperiencias &le; 0.65<br/>gini = 0.5<br/>samples = 4<br/>value = [2, 2]<br/>class = Não Usuario>, fillcolor="#ffffff"] ;
161 -> 163 ;
164 [label=<gini = 0.0<br/>samples = 2<br/>value = [0, 2]<br/>class = Usuario>, fillcolor="#399de5"] ;
163 -> 164 ;
165 [label=<gini = 0.0<br/>samples = 2<br/>value = [2, 0]<br/>class = Não Usuario>, fillcolor="#e58139"] ;
163 -> 165 ;
166 [label=<Extroversao &le; 0.78<br/>gini = 0.494<br/>samples = 18<br/>value = [8, 10]<br/>class = Usuario>, fillcolor="#d7ebfa"] ;
152 -> 166 ;
167 [label=<InstabilidadeEmocional &le; 0.7<br/>gini = 0.375<br/>samples = 12<br/>value = [3, 9]<br/>class = Usuario>, fillcolor="#7bbeee"] ;
166 -> 167 ;
168 [label=<InstabilidadeEmocional &le; 0.575<br/>gini = 0.198<br/>samples = 9<br/>value = [1, 8]<br/>class = Usuario>, fillcolor="#52a9e8"] ;
167 -> 168 ;
169 [label=<Agradabilidade &le; 0.655<br/>gini = 0.5<br/>samples = 2<br/>value = [1, 1]<br/>class = Não Usuario>, fillcolor="#ffffff"] ;
168 -> 169 ;
170 [label=<gini = 0.0<br/>samples = 1<br/>value = [0, 1]<br/>class = Usuario>, fillcolor="#399de5"] ;
169 -> 170 ;
171 [label=<gini = 0.0<br/>samples = 1<br/>value = [1, 0]<br/>class = Não Usuario>, fillcolor="#e58139"] ;
169 -> 171 ;
172 [label=<gini = 0.0<br/>samples = 7<br/>value = [0, 7]<br/>class = Usuario>, fillcolor="#399de5"] ;
168 -> 172 ;
173 [label=<Conscienciosidade &le; 0.727<br/>gini = 0.444<br/>samples = 3<br/>value = [2, 1]<br/>class = Não Usuario>, fillcolor="#f2c09c"] ;
167 -> 173 ;
174 [label=<gini = 0.0<br/>samples = 1<br/>value = [0, 1]<br/>class = Usuario>, fillcolor="#399de5"] ;
173 -> 174 ;
175 [label=<gini = 0.0<br/>samples = 2<br/>value = [2, 0]<br/>class = Não Usuario>, fillcolor="#e58139"] ;
173 -> 175 ;
176 [label=<InstabilidadeEmocional &le; 0.51<br/>gini = 0.278<br/>samples = 6<br/>value = [5, 1]<br/>class = Não Usuario>, fillcolor="#ea9a61"] ;
166 -> 176 ;
177 [label=<gini = 0.0<br/>samples = 1<br/>value = [0, 1]<br/>class = Usuario>, fillcolor="#399de5"] ;
176 -> 177 ;
178 [label=<gini = 0.0<br/>samples = 5<br/>value = [5, 0]<br/>class = Não Usuario>, fillcolor="#e58139"] ;
176 -> 178 ;
179 [label=<Agradabilidade &le; 0.72<br/>gini = 0.384<br/>samples = 54<br/>value = [40, 14]<br/>class = Não Usuario>, fillcolor="#eead7e"] ;
99 -> 179 ;
180 [label=<AberturaExperiencia &le; 0.28<br/>gini = 0.325<br/>samples = 44<br/>value = [35, 9]<br/>class = Não Usuario>, fillcolor="#eca16c"] ;
179 -> 180 ;
181 [label=<Agradabilidade &le; 0.47<br/>gini = 0.494<br/>samples = 9<br/>value = [5, 4]<br/>class = Não Usuario>, fillcolor="#fae6d7"] ;
180 -> 181 ;
182 [label=<gini = 0.0<br/>samples = 2<br/>value = [0, 2]<br/>class = Usuario>, fillcolor="#399de5"] ;
181 -> 182 ;
183 [label=<AberturaExperiencia &le; 0.26<br/>gini = 0.408<br/>samples = 7<br/>value = [5, 2]<br/>class = Não Usuario>, fillcolor="#efb388"] ;
181 -> 183 ;
184 [label=<InstabilidadeEmocional &le; 0.75<br/>gini = 0.278<br/>samples = 6<br/>value = [5, 1]<br/>class = Não Usuario>, fillcolor="#ea9a61"] ;
183 -> 184 ;
185 [label=<gini = 0.0<br/>samples = 1<br/>value = [0, 1]<br/>class = Usuario>, fillcolor="#399de5"] ;
184 -> 185 ;
186 [label=<gini = 0.0<br/>samples = 5<br/>value = [5, 0]<br/>class = Não Usuario>, fillcolor="#e58139"] ;
184 -> 186 ;
187 [label=<gini = 0.0<br/>samples = 1<br/>value = [0, 1]<br/>class = Usuario>, fillcolor="#399de5"] ;
183 -> 187 ;
188 [label=<AberturaExperiencia &le; 0.55<br/>gini = 0.245<br/>samples = 35<br/>value = [30, 5]<br/>class = Não Usuario>, fillcolor="#e9965a"] ;
180 -> 188 ;
189 [label=<BuscaPorExperiencias &le; 0.15<br/>gini = 0.095<br/>samples = 20<br/>value = [19, 1]<br/>class = Não Usuario>, fillcolor="#e68843"] ;
188 -> 189 ;
190 [label=<Agradabilidade &le; 0.57<br/>gini = 0.375<br/>samples = 4<br/>value = [3, 1]<br/>class = Não Usuario>, fillcolor="#eeab7b"] ;
189 -> 190 ;
191 [label=<gini = 0.0<br/>samples = 1<br/>value = [0, 1]<br/>class = Usuario>, fillcolor="#399de5"] ;
190 -> 191 ;
192 [label=<gini = 0.0<br/>samples = 3<br/>value = [3, 0]<br/>class = Não Usuario>, fillcolor="#e58139"] ;
190 -> 192 ;
193 [label=<gini = 0.0<br/>samples = 16<br/>value = [16, 0]<br/>class = Não Usuario>, fillcolor="#e58139"] ;
189 -> 193 ;
194 [label=<Conscienciosidade &le; 0.72<br/>gini = 0.391<br/>samples = 15<br/>value = [11, 4]<br/>class = Não Usuario>, fillcolor="#eeaf81"] ;
188 -> 194 ;
195 [label=<Agradabilidade &le; 0.68<br/>gini = 0.444<br/>samples = 3<br/>value = [1, 2]<br/>class = Usuario>, fillcolor="#9ccef2"] ;
194 -> 195 ;
196 [label=<gini = 0.0<br/>samples = 2<br/>value = [0, 2]<br/>class = Usuario>, fillcolor="#399de5"] ;
195 -> 196 ;
197 [label=<gini = 0.0<br/>samples = 1<br/>value = [1, 0]<br/>class = Não Usuario>, fillcolor="#e58139"] ;
195 -> 197 ;
198 [label=<Agradabilidade &le; 0.55<br/>gini = 0.278<br/>samples = 12<br/>value = [10, 2]<br/>class = Não Usuario>, fillcolor="#ea9a61"] ;
194 -> 198 ;
199 [label=<InstabilidadeEmocional &le; 0.795<br/>gini = 0.444<br/>samples = 6<br/>value = [4, 2]<br/>class = Não Usuario>, fillcolor="#f2c09c"] ;
198 -> 199 ;
200 [label=<BuscaPorExperiencias &le; 0.1<br/>gini = 0.444<br/>samples = 3<br/>value = [1, 2]<br/>class = Usuario>, fillcolor="#9ccef2"] ;
199 -> 200 ;
201 [label=<gini = 0.0<br/>samples = 1<br/>value = [1, 0]<br/>class = Não Usuario>, fillcolor="#e58139"] ;
200 -> 201 ;
202 [label=<gini = 0.0<br/>samples = 2<br/>value = [0, 2]<br/>class = Usuario>, fillcolor="#399de5"] ;
200 -> 202 ;
203 [label=<gini = 0.0<br/>samples = 3<br/>value = [3, 0]<br/>class = Não Usuario>, fillcolor="#e58139"] ;
199 -> 203 ;
204 [label=<gini = 0.0<br/>samples = 6<br/>value = [6, 0]<br/>class = Não Usuario>, fillcolor="#e58139"] ;
198 -> 204 ;
205 [label=<Conscienciosidade &le; 0.865<br/>gini = 0.5<br/>samples = 10<br/>value = [5, 5]<br/>class = Não Usuario>, fillcolor="#ffffff"] ;
179 -> 205 ;
206 [label=<AberturaExperiencia &le; 0.48<br/>gini = 0.469<br/>samples = 8<br/>value = [5, 3]<br/>class = Não Usuario>, fillcolor="#f5cdb0"] ;
205 -> 206 ;
207 [label=<BuscaPorExperiencias &le; 0.55<br/>gini = 0.48<br/>samples = 5<br/>value = [2, 3]<br/>class = Usuario>, fillcolor="#bddef6"] ;
206 -> 207 ;
208 [label=<gini = 0.0<br/>samples = 2<br/>value = [0, 2]<br/>class = Usuario>, fillcolor="#399de5"] ;
207 -> 208 ;
209 [label=<BuscaPorExperiencias &le; 0.65<br/>gini = 0.444<br/>samples = 3<br/>value = [2, 1]<br/>class = Não Usuario>, fillcolor="#f2c09c"] ;
207 -> 209 ;
210 [label=<gini = 0.0<br/>samples = 2<br/>value = [2, 0]<br/>class = Não Usuario>, fillcolor="#e58139"] ;
209 -> 210 ;
211 [label=<gini = 0.0<br/>samples = 1<br/>value = [0, 1]<br/>class = Usuario>, fillcolor="#399de5"] ;
209 -> 211 ;
212 [label=<gini = 0.0<br/>samples = 3<br/>value = [3, 0]<br/>class = Não Usuario>, fillcolor="#e58139"] ;
206 -> 212 ;
213 [label=<gini = 0.0<br/>samples = 2<br/>value = [0, 2]<br/>class = Usuario>, fillcolor="#399de5"] ;
205 -> 213 ;
214 [label=<InstabilidadeEmocional &le; 0.7<br/>gini = 0.489<br/>samples = 951<br/>value = [406, 545]<br/>class = Usuario>, fillcolor="#cde6f8"] ;
0 -> 214 [labeldistance=2.5, labelangle=-45, headlabel="False"] ;
215 [label=<Conscienciosidade &le; 0.712<br/>gini = 0.473<br/>samples = 787<br/>value = [302, 485]<br/>class = Usuario>, fillcolor="#b4daf5"] ;
214 -> 215 ;
216 [label=<AberturaExperiencia &le; 0.26<br/>gini = 0.497<br/>samples = 361<br/>value = [167, 194]<br/>class = Usuario>, fillcolor="#e3f1fb"] ;
215 -> 216 ;
217 [label=<Impulsividade &le; 0.613<br/>gini = 0.343<br/>samples = 50<br/>value = [11, 39]<br/>class = Usuario>, fillcolor="#71b9ec"] ;
216 -> 217 ;
218 [label=<Conscienciosidade &le; 0.7<br/>gini = 0.452<br/>samples = 29<br/>value = [10, 19]<br/>class = Usuario>, fillcolor="#a1d1f3"] ;
217 -> 218 ;
219 [label=<Conscienciosidade &le; 0.52<br/>gini = 0.365<br/>samples = 25<br/>value = [6, 19]<br/>class = Usuario>, fillcolor="#78bced"] ;
218 -> 219 ;
220 [label=<gini = 0.0<br/>samples = 2<br/>value = [2, 0]<br/>class = Não Usuario>, fillcolor="#e58139"] ;
219 -> 220 ;
221 [label=<Extroversao &le; 0.375<br/>gini = 0.287<br/>samples = 23<br/>value = [4, 19]<br/>class = Usuario>, fillcolor="#63b2ea"] ;
219 -> 221 ;
222 [label=<gini = 0.0<br/>samples = 1<br/>value = [1, 0]<br/>class = Não Usuario>, fillcolor="#e58139"] ;
221 -> 222 ;
223 [label=<Agradabilidade &le; 0.45<br/>gini = 0.236<br/>samples = 22<br/>value = [3, 19]<br/>class = Usuario>, fillcolor="#58ace9"] ;
221 -> 223 ;
224 [label=<InstabilidadeEmocional &le; 0.545<br/>gini = 0.444<br/>samples = 6<br/>value = [2, 4]<br/>class = Usuario>, fillcolor="#9ccef2"] ;
223 -> 224 ;
225 [label=<InstabilidadeEmocional &le; 0.325<br/>gini = 0.444<br/>samples = 3<br/>value = [2, 1]<br/>class = Não Usuario>, fillcolor="#f2c09c"] ;
224 -> 225 ;
226 [label=<gini = 0.0<br/>samples = 1<br/>value = [0, 1]<br/>class = Usuario>, fillcolor="#399de5"] ;
225 -> 226 ;
227 [label=<gini = 0.0<br/>samples = 2<br/>value = [2, 0]<br/>class = Não Usuario>, fillcolor="#e58139"] ;
225 -> 227 ;
228 [label=<gini = 0.0<br/>samples = 3<br/>value = [0, 3]<br/>class = Usuario>, fillcolor="#399de5"] ;
224 -> 228 ;
229 [label=<Conscienciosidade &le; 0.68<br/>gini = 0.117<br/>samples = 16<br/>value = [1, 15]<br/>class = Usuario>, fillcolor="#46a4e7"] ;
223 -> 229 ;
230 [label=<gini = 0.0<br/>samples = 13<br/>value = [0, 13]<br/>class = Usuario>, fillcolor="#399de5"] ;
229 -> 230 ;
231 [label=<Extroversao &le; 0.61<br/>gini = 0.444<br/>samples = 3<br/>value = [1, 2]<br/>class = Usuario>, fillcolor="#9ccef2"] ;
229 -> 231 ;
232 [label=<gini = 0.0<br/>samples = 1<br/>value = [1, 0]<br/>class = Não Usuario>, fillcolor="#e58139"] ;
231 -> 232 ;
233 [label=<gini = 0.0<br/>samples = 2<br/>value = [0, 2]<br/>class = Usuario>, fillcolor="#399de5"] ;
231 -> 233 ;
234 [label=<gini = 0.0<br/>samples = 4<br/>value = [4, 0]<br/>class = Não Usuario>, fillcolor="#e58139"] ;
218 -> 234 ;
235 [label=<Extroversao &le; 0.74<br/>gini = 0.091<br/>samples = 21<br/>value = [1, 20]<br/>class = Usuario>, fillcolor="#43a2e6"] ;
217 -> 235 ;
236 [label=<gini = 0.0<br/>samples = 18<br/>value = [0, 18]<br/>class = Usuario>, fillcolor="#399de5"] ;
235 -> 236 ;
237 [label=<InstabilidadeEmocional &le; 0.545<br/>gini = 0.444<br/>samples = 3<br/>value = [1, 2]<br/>class = Usuario>, fillcolor="#9ccef2"] ;
235 -> 237 ;
238 [label=<gini = 0.0<br/>samples = 2<br/>value = [0, 2]<br/>class = Usuario>, fillcolor="#399de5"] ;
237 -> 238 ;
239 [label=<gini = 0.0<br/>samples = 1<br/>value = [1, 0]<br/>class = Não Usuario>, fillcolor="#e58139"] ;
237 -> 239 ;
240 [label=<Agradabilidade &le; 0.537<br/>gini = 0.5<br/>samples = 311<br/>value = [156, 155]<br/>class = Não Usuario>, fillcolor="#fffefe"] ;
216 -> 240 ;
241 [label=<InstabilidadeEmocional &le; 0.585<br/>gini = 0.472<br/>samples = 136<br/>value = [52, 84]<br/>class = Usuario>, fillcolor="#b4daf5"] ;
240 -> 241 ;
242 [label=<Extroversao &le; 0.74<br/>gini = 0.44<br/>samples = 110<br/>value = [36, 74]<br/>class = Usuario>, fillcolor="#99cdf2"] ;
241 -> 242 ;
243 [label=<Extroversao &le; 0.51<br/>gini = 0.402<br/>samples = 97<br/>value = [27, 70]<br/>class = Usuario>, fillcolor="#85c3ef"] ;
242 -> 243 ;
244 [label=<AberturaExperiencia &le; 0.91<br/>gini = 0.251<br/>samples = 34<br/>value = [5, 29]<br/>class = Usuario>, fillcolor="#5baee9"] ;
243 -> 244 ;
245 [label=<BuscaPorExperiencias &le; 0.2<br/>gini = 0.213<br/>samples = 33<br/>value = [4, 29]<br/>class = Usuario>, fillcolor="#54abe9"] ;
244 -> 245 ;
246 [label=<gini = 0.0<br/>samples = 1<br/>value = [1, 0]<br/>class = Não Usuario>, fillcolor="#e58139"] ;
245 -> 246 ;
247 [label=<AberturaExperiencia &le; 0.28<br/>gini = 0.17<br/>samples = 32<br/>value = [3, 29]<br/>class = Usuario>, fillcolor="#4da7e8"] ;
245 -> 247 ;
248 [label=<Conscienciosidade &le; 0.545<br/>gini = 0.5<br/>samples = 2<br/>value = [1, 1]<br/>class = Não Usuario>, fillcolor="#ffffff"] ;
247 -> 248 ;
249 [label=<gini = 0.0<br/>samples = 1<br/>value = [1, 0]<br/>class = Não Usuario>, fillcolor="#e58139"] ;
248 -> 249 ;
250 [label=<gini = 0.0<br/>samples = 1<br/>value = [0, 1]<br/>class = Usuario>, fillcolor="#399de5"] ;
248 -> 250 ;
251 [label=<InstabilidadeEmocional &le; 0.31<br/>gini = 0.124<br/>samples = 30<br/>value = [2, 28]<br/>class = Usuario>, fillcolor="#47a4e7"] ;
247 -> 251 ;
252 [label=<Extroversao &le; 0.46<br/>gini = 0.298<br/>samples = 11<br/>value = [2, 9]<br/>class = Usuario>, fillcolor="#65b3eb"] ;
251 -> 252 ;
253 [label=<InstabilidadeEmocional &le; 0.275<br/>gini = 0.18<br/>samples = 10<br/>value = [1, 9]<br/>class = Usuario>, fillcolor="#4fa8e8"] ;
252 -> 253 ;
254 [label=<gini = 0.0<br/>samples = 8<br/>value = [0, 8]<br/>class = Usuario>, fillcolor="#399de5"] ;
253 -> 254 ;
255 [label=<Impulsividade &le; 0.78<br/>gini = 0.5<br/>samples = 2<br/>value = [1, 1]<br/>class = Não Usuario>, fillcolor="#ffffff"] ;
253 -> 255 ;
256 [label=<gini = 0.0<br/>samples = 1<br/>value = [1, 0]<br/>class = Não Usuario>, fillcolor="#e58139"] ;
255 -> 256 ;
257 [label=<gini = 0.0<br/>samples = 1<br/>value = [0, 1]<br/>class = Usuario>, fillcolor="#399de5"] ;
255 -> 257 ;
258 [label=<gini = 0.0<br/>samples = 1<br/>value = [1, 0]<br/>class = Não Usuario>, fillcolor="#e58139"] ;
252 -> 258 ;
259 [label=<gini = 0.0<br/>samples = 19<br/>value = [0, 19]<br/>class = Usuario>, fillcolor="#399de5"] ;
251 -> 259 ;
260 [label=<gini = 0.0<br/>samples = 1<br/>value = [1, 0]<br/>class = Não Usuario>, fillcolor="#e58139"] ;
244 -> 260 ;
261 [label=<BuscaPorExperiencias &le; 0.757<br/>gini = 0.455<br/>samples = 63<br/>value = [22, 41]<br/>class = Usuario>, fillcolor="#a3d2f3"] ;
243 -> 261 ;
262 [label=<InstabilidadeEmocional &le; 0.465<br/>gini = 0.38<br/>samples = 47<br/>value = [12, 35]<br/>class = Usuario>, fillcolor="#7dbfee"] ;
261 -> 262 ;
263 [label=<InstabilidadeEmocional &le; 0.44<br/>gini = 0.452<br/>samples = 29<br/>value = [10, 19]<br/>class = Usuario>, fillcolor="#a1d1f3"] ;
262 -> 263 ;
264 [label=<Conscienciosidade &le; 0.56<br/>gini = 0.417<br/>samples = 27<br/>value = [8, 19]<br/>class = Usuario>, fillcolor="#8cc6f0"] ;
263 -> 264 ;
265 [label=<gini = 0.0<br/>samples = 7<br/>value = [0, 7]<br/>class = Usuario>, fillcolor="#399de5"] ;
264 -> 265 ;
266 [label=<Extroversao &le; 0.57<br/>gini = 0.48<br/>samples = 20<br/>value = [8, 12]<br/>class = Usuario>, fillcolor="#bddef6"] ;
264 -> 266 ;
267 [label=<gini = 0.0<br/>samples = 2<br/>value = [2, 0]<br/>class = Não Usuario>, fillcolor="#e58139"] ;
266 -> 267 ;
268 [label=<Conscienciosidade &le; 0.587<br/>gini = 0.444<br/>samples = 18<br/>value = [6, 12]<br/>class = Usuario>, fillcolor="#9ccef2"] ;
266 -> 268 ;
269 [label=<gini = 0.0<br/>samples = 2<br/>value = [2, 0]<br/>class = Não Usuario>, fillcolor="#e58139"] ;
268 -> 269 ;
270 [label=<Conscienciosidade &le; 0.639<br/>gini = 0.375<br/>samples = 16<br/>value = [4, 12]<br/>class = Usuario>, fillcolor="#7bbeee"] ;
268 -> 270 ;
271 [label=<gini = 0.0<br/>samples = 7<br/>value = [0, 7]<br/>class = Usuario>, fillcolor="#399de5"] ;
270 -> 271 ;
272 [label=<InstabilidadeEmocional &le; 0.3<br/>gini = 0.494<br/>samples = 9<br/>value = [4, 5]<br/>class = Usuario>, fillcolor="#d7ebfa"] ;
270 -> 272 ;
273 [label=<gini = 0.0<br/>samples = 4<br/>value = [0, 4]<br/>class = Usuario>, fillcolor="#399de5"] ;
272 -> 273 ;
274 [label=<Conscienciosidade &le; 0.7<br/>gini = 0.32<br/>samples = 5<br/>value = [4, 1]<br/>class = Não Usuario>, fillcolor="#eca06a"] ;
272 -> 274 ;
275 [label=<gini = 0.0<br/>samples = 4<br/>value = [4, 0]<br/>class = Não Usuario>, fillcolor="#e58139"] ;
274 -> 275 ;
276 [label=<gini = 0.0<br/>samples = 1<br/>value = [0, 1]<br/>class = Usuario>, fillcolor="#399de5"] ;
274 -> 276 ;
277 [label=<gini = 0.0<br/>samples = 2<br/>value = [2, 0]<br/>class = Não Usuario>, fillcolor="#e58139"] ;
263 -> 277 ;
278 [label=<Impulsividade &le; 0.385<br/>gini = 0.198<br/>samples = 18<br/>value = [2, 16]<br/>class = Usuario>, fillcolor="#52a9e8"] ;
262 -> 278 ;
279 [label=<gini = 0.0<br/>samples = 10<br/>value = [0, 10]<br/>class = Usuario>, fillcolor="#399de5"] ;
278 -> 279 ;
280 [label=<AberturaExperiencia &le; 0.71<br/>gini = 0.375<br/>samples = 8<br/>value = [2, 6]<br/>class = Usuario>, fillcolor="#7bbeee"] ;
278 -> 280 ;
281 [label=<Impulsividade &le; 0.5<br/>gini = 0.245<br/>samples = 7<br/>value = [1, 6]<br/>class = Usuario>, fillcolor="#5aade9"] ;
280 -> 281 ;
282 [label=<AberturaExperiencia &le; 0.455<br/>gini = 0.5<br/>samples = 2<br/>value = [1, 1]<br/>class = Não Usuario>, fillcolor="#ffffff"] ;
281 -> 282 ;
283 [label=<gini = 0.0<br/>samples = 1<br/>value = [0, 1]<br/>class = Usuario>, fillcolor="#399de5"] ;
282 -> 283 ;
284 [label=<gini = 0.0<br/>samples = 1<br/>value = [1, 0]<br/>class = Não Usuario>, fillcolor="#e58139"] ;
282 -> 284 ;
285 [label=<gini = 0.0<br/>samples = 5<br/>value = [0, 5]<br/>class = Usuario>, fillcolor="#399de5"] ;
281 -> 285 ;
286 [label=<gini = 0.0<br/>samples = 1<br/>value = [1, 0]<br/>class = Não Usuario>, fillcolor="#e58139"] ;
280 -> 286 ;
287 [label=<Impulsividade &le; 0.5<br/>gini = 0.469<br/>samples = 16<br/>value = [10, 6]<br/>class = Não Usuario>, fillcolor="#f5cdb0"] ;
261 -> 287 ;
288 [label=<gini = 0.0<br/>samples = 3<br/>value = [0, 3]<br/>class = Usuario>, fillcolor="#399de5"] ;
287 -> 288 ;
289 [label=<Conscienciosidade &le; 0.49<br/>gini = 0.355<br/>samples = 13<br/>value = [10, 3]<br/>class = Não Usuario>, fillcolor="#eda774"] ;
287 -> 289 ;
290 [label=<Conscienciosidade &le; 0.43<br/>gini = 0.444<br/>samples = 3<br/>value = [1, 2]<br/>class = Usuario>, fillcolor="#9ccef2"] ;
289 -> 290 ;
291 [label=<gini = 0.0<br/>samples = 1<br/>value = [1, 0]<br/>class = Não Usuario>, fillcolor="#e58139"] ;
290 -> 291 ;
292 [label=<gini = 0.0<br/>samples = 2<br/>value = [0, 2]<br/>class = Usuario>, fillcolor="#399de5"] ;
290 -> 292 ;
293 [label=<Agradabilidade &le; 0.47<br/>gini = 0.18<br/>samples = 10<br/>value = [9, 1]<br/>class = Não Usuario>, fillcolor="#e88f4f"] ;
289 -> 293 ;
294 [label=<gini = 0.0<br/>samples = 7<br/>value = [7, 0]<br/>class = Não Usuario>, fillcolor="#e58139"] ;
293 -> 294 ;
295 [label=<AberturaExperiencia &le; 0.51<br/>gini = 0.444<br/>samples = 3<br/>value = [2, 1]<br/>class = Não Usuario>, fillcolor="#f2c09c"] ;
293 -> 295 ;
296 [label=<gini = 0.0<br/>samples = 1<br/>value = [0, 1]<br/>class = Usuario>, fillcolor="#399de5"] ;
295 -> 296 ;
297 [label=<gini = 0.0<br/>samples = 2<br/>value = [2, 0]<br/>class = Não Usuario>, fillcolor="#e58139"] ;
295 -> 297 ;
298 [label=<BuscaPorExperiencias &le; 0.55<br/>gini = 0.426<br/>samples = 13<br/>value = [9, 4]<br/>class = Não Usuario>, fillcolor="#f1b991"] ;
242 -> 298 ;
299 [label=<gini = 0.0<br/>samples = 7<br/>value = [7, 0]<br/>class = Não Usuario>, fillcolor="#e58139"] ;
298 -> 299 ;
300 [label=<Impulsividade &le; 0.725<br/>gini = 0.444<br/>samples = 6<br/>value = [2, 4]<br/>class = Usuario>, fillcolor="#9ccef2"] ;
298 -> 300 ;
301 [label=<gini = 0.0<br/>samples = 4<br/>value = [0, 4]<br/>class = Usuario>, fillcolor="#399de5"] ;
300 -> 301 ;
302 [label=<gini = 0.0<br/>samples = 2<br/>value = [2, 0]<br/>class = Não Usuario>, fillcolor="#e58139"] ;
300 -> 302 ;
303 [label=<Agradabilidade &le; 0.3<br/>gini = 0.473<br/>samples = 26<br/>value = [16, 10]<br/>class = Não Usuario>, fillcolor="#f5d0b5"] ;
241 -> 303 ;
304 [label=<gini = 0.0<br/>samples = 2<br/>value = [0, 2]<br/>class = Usuario>, fillcolor="#399de5"] ;
303 -> 304 ;
305 [label=<Conscienciosidade &le; 0.68<br/>gini = 0.444<br/>samples = 24<br/>value = [16, 8]<br/>class = Não Usuario>, fillcolor="#f2c09c"] ;
303 -> 305 ;
306 [label=<Conscienciosidade &le; 0.55<br/>gini = 0.498<br/>samples = 17<br/>value = [9, 8]<br/>class = Não Usuario>, fillcolor="#fcf1e9"] ;
305 -> 306 ;
307 [label=<Conscienciosidade &le; 0.335<br/>gini = 0.219<br/>samples = 8<br/>value = [7, 1]<br/>class = Não Usuario>, fillcolor="#e99355"] ;
306 -> 307 ;
308 [label=<gini = 0.0<br/>samples = 1<br/>value = [0, 1]<br/>class = Usuario>, fillcolor="#399de5"] ;
307 -> 308 ;
309 [label=<gini = 0.0<br/>samples = 7<br/>value = [7, 0]<br/>class = Não Usuario>, fillcolor="#e58139"] ;
307 -> 309 ;
310 [label=<Extroversao &le; 0.5<br/>gini = 0.346<br/>samples = 9<br/>value = [2, 7]<br/>class = Usuario>, fillcolor="#72b9ec"] ;
306 -> 310 ;
311 [label=<gini = 0.0<br/>samples = 1<br/>value = [1, 0]<br/>class = Não Usuario>, fillcolor="#e58139"] ;
310 -> 311 ;
312 [label=<AberturaExperiencia &le; 0.321<br/>gini = 0.219<br/>samples = 8<br/>value = [1, 7]<br/>class = Usuario>, fillcolor="#55abe9"] ;
310 -> 312 ;
313 [label=<BuscaPorExperiencias &le; 0.4<br/>gini = 0.5<br/>samples = 2<br/>value = [1, 1]<br/>class = Não Usuario>, fillcolor="#ffffff"] ;
312 -> 313 ;
314 [label=<gini = 0.0<br/>samples = 1<br/>value = [1, 0]<br/>class = Não Usuario>, fillcolor="#e58139"] ;
313 -> 314 ;
315 [label=<gini = 0.0<br/>samples = 1<br/>value = [0, 1]<br/>class = Usuario>, fillcolor="#399de5"] ;
313 -> 315 ;
316 [label=<gini = 0.0<br/>samples = 6<br/>value = [0, 6]<br/>class = Usuario>, fillcolor="#399de5"] ;
312 -> 316 ;
317 [label=<gini = 0.0<br/>samples = 7<br/>value = [7, 0]<br/>class = Não Usuario>, fillcolor="#e58139"] ;
305 -> 317 ;
318 [label=<Conscienciosidade &le; 0.623<br/>gini = 0.482<br/>samples = 175<br/>value = [104, 71]<br/>class = Não Usuario>, fillcolor="#f7d7c0"] ;
240 -> 318 ;
319 [label=<Impulsividade &le; 0.299<br/>gini = 0.361<br/>samples = 76<br/>value = [58, 18]<br/>class = Não Usuario>, fillcolor="#eda876"] ;
318 -> 319 ;
320 [label=<gini = 0.0<br/>samples = 3<br/>value = [0, 3]<br/>class = Usuario>, fillcolor="#399de5"] ;
319 -> 320 ;
321 [label=<Extroversao &le; 0.53<br/>gini = 0.327<br/>samples = 73<br/>value = [58, 15]<br/>class = Não Usuario>, fillcolor="#eca26c"] ;
319 -> 321 ;
322 [label=<Agradabilidade &le; 0.59<br/>gini = 0.5<br/>samples = 16<br/>value = [8, 8]<br/>class = Não Usuario>, fillcolor="#ffffff"] ;
321 -> 322 ;
323 [label=<gini = 0.0<br/>samples = 4<br/>value = [4, 0]<br/>class = Não Usuario>, fillcolor="#e58139"] ;
322 -> 323 ;
324 [label=<AberturaExperiencia &le; 0.55<br/>gini = 0.444<br/>samples = 12<br/>value = [4, 8]<br/>class = Usuario>, fillcolor="#9ccef2"] ;
322 -> 324 ;
325 [label=<gini = 0.0<br/>samples = 5<br/>value = [0, 5]<br/>class = Usuario>, fillcolor="#399de5"] ;
324 -> 325 ;
326 [label=<Agradabilidade &le; 0.7<br/>gini = 0.49<br/>samples = 7<br/>value = [4, 3]<br/>class = Não Usuario>, fillcolor="#f8e0ce"] ;
324 -> 326 ;
327 [label=<Conscienciosidade &le; 0.59<br/>gini = 0.48<br/>samples = 5<br/>value = [2, 3]<br/>class = Usuario>, fillcolor="#bddef6"] ;
326 -> 327 ;
328 [label=<Impulsividade &le; 0.61<br/>gini = 0.444<br/>samples = 3<br/>value = [2, 1]<br/>class = Não Usuario>, fillcolor="#f2c09c"] ;
327 -> 328 ;
329 [label=<gini = 0.0<br/>samples = 1<br/>value = [0, 1]<br/>class = Usuario>, fillcolor="#399de5"] ;
328 -> 329 ;
330 [label=<gini = 0.0<br/>samples = 2<br/>value = [2, 0]<br/>class = Não Usuario>, fillcolor="#e58139"] ;
328 -> 330 ;
331 [label=<gini = 0.0<br/>samples = 2<br/>value = [0, 2]<br/>class = Usuario>, fillcolor="#399de5"] ;
327 -> 331 ;
332 [label=<gini = 0.0<br/>samples = 2<br/>value = [2, 0]<br/>class = Não Usuario>, fillcolor="#e58139"] ;
326 -> 332 ;
333 [label=<Conscienciosidade &le; 0.44<br/>gini = 0.215<br/>samples = 57<br/>value = [50, 7]<br/>class = Não Usuario>, fillcolor="#e99355"] ;
321 -> 333 ;
334 [label=<Extroversao &le; 0.635<br/>gini = 0.444<br/>samples = 3<br/>value = [1, 2]<br/>class = Usuario>, fillcolor="#9ccef2"] ;
333 -> 334 ;
335 [label=<gini = 0.0<br/>samples = 2<br/>value = [0, 2]<br/>class = Usuario>, fillcolor="#399de5"] ;
334 -> 335 ;
336 [label=<gini = 0.0<br/>samples = 1<br/>value = [1, 0]<br/>class = Não Usuario>, fillcolor="#e58139"] ;
334 -> 336 ;
337 [label=<AberturaExperiencia &le; 0.835<br/>gini = 0.168<br/>samples = 54<br/>value = [49, 5]<br/>class = Não Usuario>, fillcolor="#e88e4d"] ;
333 -> 337 ;
338 [label=<InstabilidadeEmocional &le; 0.68<br/>gini = 0.142<br/>samples = 52<br/>value = [48, 4]<br/>class = Não Usuario>, fillcolor="#e78c49"] ;
337 -> 338 ;
339 [label=<Agradabilidade &le; 0.635<br/>gini = 0.089<br/>samples = 43<br/>value = [41, 2]<br/>class = Não Usuario>, fillcolor="#e68743"] ;
338 -> 339 ;
340 [label=<gini = 0.0<br/>samples = 27<br/>value = [27, 0]<br/>class = Não Usuario>, fillcolor="#e58139"] ;
339 -> 340 ;
341 [label=<Conscienciosidade &le; 0.57<br/>gini = 0.219<br/>samples = 16<br/>value = [14, 2]<br/>class = Não Usuario>, fillcolor="#e99355"] ;
339 -> 341 ;
342 [label=<Conscienciosidade &le; 0.55<br/>gini = 0.408<br/>samples = 7<br/>value = [5, 2]<br/>class = Não Usuario>, fillcolor="#efb388"] ;
341 -> 342 ;
343 [label=<gini = 0.0<br/>samples = 5<br/>value = [5, 0]<br/>class = Não Usuario>, fillcolor="#e58139"] ;
342 -> 343 ;
344 [label=<gini = 0.0<br/>samples = 2<br/>value = [0, 2]<br/>class = Usuario>, fillcolor="#399de5"] ;
342 -> 344 ;
345 [label=<gini = 0.0<br/>samples = 9<br/>value = [9, 0]<br/>class = Não Usuario>, fillcolor="#e58139"] ;
341 -> 345 ;
346 [label=<Conscienciosidade &le; 0.57<br/>gini = 0.346<br/>samples = 9<br/>value = [7, 2]<br/>class = Não Usuario>, fillcolor="#eca572"] ;
338 -> 346 ;
347 [label=<gini = 0.0<br/>samples = 6<br/>value = [6, 0]<br/>class = Não Usuario>, fillcolor="#e58139"] ;
346 -> 347 ;
348 [label=<Agradabilidade &le; 0.6<br/>gini = 0.444<br/>samples = 3<br/>value = [1, 2]<br/>class = Usuario>, fillcolor="#9ccef2"] ;
346 -> 348 ;
349 [label=<gini = 0.0<br/>samples = 2<br/>value = [0, 2]<br/>class = Usuario>, fillcolor="#399de5"] ;
348 -> 349 ;
350 [label=<gini = 0.0<br/>samples = 1<br/>value = [1, 0]<br/>class = Não Usuario>, fillcolor="#e58139"] ;
348 -> 350 ;
351 [label=<AberturaExperiencia &le; 0.94<br/>gini = 0.5<br/>samples = 2<br/>value = [1, 1]<br/>class = Não Usuario>, fillcolor="#ffffff"] ;
337 -> 351 ;
352 [label=<gini = 0.0<br/>samples = 1<br/>value = [0, 1]<br/>class = Usuario>, fillcolor="#399de5"] ;
351 -> 352 ;
353 [label=<gini = 0.0<br/>samples = 1<br/>value = [1, 0]<br/>class = Não Usuario>, fillcolor="#e58139"] ;
351 -> 353 ;
354 [label=<Agradabilidade &le; 0.592<br/>gini = 0.498<br/>samples = 99<br/>value = [46, 53]<br/>class = Usuario>, fillcolor="#e5f2fc"] ;
318 -> 354 ;
355 [label=<InstabilidadeEmocional &le; 0.345<br/>gini = 0.408<br/>samples = 35<br/>value = [10, 25]<br/>class = Usuario>, fillcolor="#88c4ef"] ;
354 -> 355 ;
356 [label=<gini = 0.0<br/>samples = 3<br/>value = [3, 0]<br/>class = Não Usuario>, fillcolor="#e58139"] ;
355 -> 356 ;
357 [label=<BuscaPorExperiencias &le; 0.95<br/>gini = 0.342<br/>samples = 32<br/>value = [7, 25]<br/>class = Usuario>, fillcolor="#70b8ec"] ;
355 -> 357 ;
358 [label=<AberturaExperiencia &le; 0.408<br/>gini = 0.278<br/>samples = 30<br/>value = [5, 25]<br/>class = Usuario>, fillcolor="#61b1ea"] ;
357 -> 358 ;
359 [label=<BuscaPorExperiencias &le; 0.6<br/>gini = 0.5<br/>samples = 8<br/>value = [4, 4]<br/>class = Não Usuario>, fillcolor="#ffffff"] ;
358 -> 359 ;
360 [label=<Impulsividade &le; 0.5<br/>gini = 0.444<br/>samples = 6<br/>value = [2, 4]<br/>class = Usuario>, fillcolor="#9ccef2"] ;
359 -> 360 ;
361 [label=<AberturaExperiencia &le; 0.29<br/>gini = 0.32<br/>samples = 5<br/>value = [1, 4]<br/>class = Usuario>, fillcolor="#6ab6ec"] ;
360 -> 361 ;
362 [label=<gini = 0.0<br/>samples = 1<br/>value = [1, 0]<br/>class = Não Usuario>, fillcolor="#e58139"] ;
361 -> 362 ;
363 [label=<gini = 0.0<br/>samples = 4<br/>value = [0, 4]<br/>class = Usuario>, fillcolor="#399de5"] ;
361 -> 363 ;
364 [label=<gini = 0.0<br/>samples = 1<br/>value = [1, 0]<br/>class = Não Usuario>, fillcolor="#e58139"] ;
360 -> 364 ;
365 [label=<gini = 0.0<br/>samples = 2<br/>value = [2, 0]<br/>class = Não Usuario>, fillcolor="#e58139"] ;
359 -> 365 ;
366 [label=<BuscaPorExperiencias &le; 0.45<br/>gini = 0.087<br/>samples = 22<br/>value = [1, 21]<br/>class = Usuario>, fillcolor="#42a2e6"] ;
358 -> 366 ;
367 [label=<Agradabilidade &le; 0.55<br/>gini = 0.375<br/>samples = 4<br/>value = [1, 3]<br/>class = Usuario>, fillcolor="#7bbeee"] ;
366 -> 367 ;
368 [label=<gini = 0.0<br/>samples = 1<br/>value = [1, 0]<br/>class = Não Usuario>, fillcolor="#e58139"] ;
367 -> 368 ;
369 [label=<gini = 0.0<br/>samples = 3<br/>value = [0, 3]<br/>class = Usuario>, fillcolor="#399de5"] ;
367 -> 369 ;
370 [label=<gini = 0.0<br/>samples = 18<br/>value = [0, 18]<br/>class = Usuario>, fillcolor="#399de5"] ;
366 -> 370 ;
371 [label=<gini = 0.0<br/>samples = 2<br/>value = [2, 0]<br/>class = Não Usuario>, fillcolor="#e58139"] ;
357 -> 371 ;
372 [label=<Impulsividade &le; 0.615<br/>gini = 0.492<br/>samples = 64<br/>value = [36, 28]<br/>class = Não Usuario>, fillcolor="#f9e3d3"] ;
354 -> 372 ;
373 [label=<Extroversao &le; 0.68<br/>gini = 0.499<br/>samples = 42<br/>value = [20, 22]<br/>class = Usuario>, fillcolor="#edf6fd"] ;
372 -> 373 ;
374 [label=<Extroversao &le; 0.635<br/>gini = 0.444<br/>samples = 27<br/>value = [9, 18]<br/>class = Usuario>, fillcolor="#9ccef2"] ;
373 -> 374 ;
375 [label=<BuscaPorExperiencias &le; 0.732<br/>gini = 0.483<br/>samples = 22<br/>value = [9, 13]<br/>class = Usuario>, fillcolor="#c2e1f7"] ;
374 -> 375 ;
376 [label=<AberturaExperiencia &le; 0.49<br/>gini = 0.48<br/>samples = 10<br/>value = [6, 4]<br/>class = Não Usuario>, fillcolor="#f6d5bd"] ;
375 -> 376 ;
377 [label=<Extroversao &le; 0.58<br/>gini = 0.444<br/>samples = 6<br/>value = [2, 4]<br/>class = Usuario>, fillcolor="#9ccef2"] ;
376 -> 377 ;
378 [label=<gini = 0.0<br/>samples = 3<br/>value = [0, 3]<br/>class = Usuario>, fillcolor="#399de5"] ;
377 -> 378 ;
379 [label=<Impulsividade &le; 0.385<br/>gini = 0.444<br/>samples = 3<br/>value = [2, 1]<br/>class = Não Usuario>, fillcolor="#f2c09c"] ;
377 -> 379 ;
380 [label=<gini = 0.0<br/>samples = 1<br/>value = [0, 1]<br/>class = Usuario>, fillcolor="#399de5"] ;
379 -> 380 ;
381 [label=<gini = 0.0<br/>samples = 2<br/>value = [2, 0]<br/>class = Não Usuario>, fillcolor="#e58139"] ;
379 -> 381 ;
382 [label=<gini = 0.0<br/>samples = 4<br/>value = [4, 0]<br/>class = Não Usuario>, fillcolor="#e58139"] ;
376 -> 382 ;
383 [label=<AberturaExperiencia &le; 0.54<br/>gini = 0.375<br/>samples = 12<br/>value = [3, 9]<br/>class = Usuario>, fillcolor="#7bbeee"] ;
375 -> 383 ;
384 [label=<Agradabilidade &le; 0.686<br/>gini = 0.49<br/>samples = 7<br/>value = [3, 4]<br/>class = Usuario>, fillcolor="#cee6f8"] ;
383 -> 384 ;
385 [label=<AberturaExperiencia &le; 0.49<br/>gini = 0.375<br/>samples = 4<br/>value = [3, 1]<br/>class = Não Usuario>, fillcolor="#eeab7b"] ;
384 -> 385 ;
386 [label=<gini = 0.0<br/>samples = 2<br/>value = [2, 0]<br/>class = Não Usuario>, fillcolor="#e58139"] ;
385 -> 386 ;
387 [label=<InstabilidadeEmocional &le; 0.61<br/>gini = 0.5<br/>samples = 2<br/>value = [1, 1]<br/>class = Não Usuario>, fillcolor="#ffffff"] ;
385 -> 387 ;
388 [label=<gini = 0.0<br/>samples = 1<br/>value = [0, 1]<br/>class = Usuario>, fillcolor="#399de5"] ;
387 -> 388 ;
389 [label=<gini = 0.0<br/>samples = 1<br/>value = [1, 0]<br/>class = Não Usuario>, fillcolor="#e58139"] ;
387 -> 389 ;
390 [label=<gini = 0.0<br/>samples = 3<br/>value = [0, 3]<br/>class = Usuario>, fillcolor="#399de5"] ;
384 -> 390 ;
391 [label=<gini = 0.0<br/>samples = 5<br/>value = [0, 5]<br/>class = Usuario>, fillcolor="#399de5"] ;
383 -> 391 ;
392 [label=<gini = 0.0<br/>samples = 5<br/>value = [0, 5]<br/>class = Usuario>, fillcolor="#399de5"] ;
374 -> 392 ;
393 [label=<InstabilidadeEmocional &le; 0.49<br/>gini = 0.391<br/>samples = 15<br/>value = [11, 4]<br/>class = Não Usuario>, fillcolor="#eeaf81"] ;
373 -> 393 ;
394 [label=<gini = 0.0<br/>samples = 3<br/>value = [0, 3]<br/>class = Usuario>, fillcolor="#399de5"] ;
393 -> 394 ;
395 [label=<Extroversao &le; 0.76<br/>gini = 0.153<br/>samples = 12<br/>value = [11, 1]<br/>class = Não Usuario>, fillcolor="#e78c4b"] ;
393 -> 395 ;
396 [label=<gini = 0.0<br/>samples = 10<br/>value = [10, 0]<br/>class = Não Usuario>, fillcolor="#e58139"] ;
395 -> 396 ;
397 [label=<Impulsividade &le; 0.385<br/>gini = 0.5<br/>samples = 2<br/>value = [1, 1]<br/>class = Não Usuario>, fillcolor="#ffffff"] ;
395 -> 397 ;
398 [label=<gini = 0.0<br/>samples = 1<br/>value = [1, 0]<br/>class = Não Usuario>, fillcolor="#e58139"] ;
397 -> 398 ;
399 [label=<gini = 0.0<br/>samples = 1<br/>value = [0, 1]<br/>class = Usuario>, fillcolor="#399de5"] ;
397 -> 399 ;
400 [label=<Extroversao &le; 0.635<br/>gini = 0.397<br/>samples = 22<br/>value = [16, 6]<br/>class = Não Usuario>, fillcolor="#efb083"] ;
372 -> 400 ;
401 [label=<Extroversao &le; 0.51<br/>gini = 0.153<br/>samples = 12<br/>value = [11, 1]<br/>class = Não Usuario>, fillcolor="#e78c4b"] ;
400 -> 401 ;
402 [label=<Conscienciosidade &le; 0.7<br/>gini = 0.5<br/>samples = 2<br/>value = [1, 1]<br/>class = Não Usuario>, fillcolor="#ffffff"] ;
401 -> 402 ;
403 [label=<gini = 0.0<br/>samples = 1<br/>value = [1, 0]<br/>class = Não Usuario>, fillcolor="#e58139"] ;
402 -> 403 ;
404 [label=<gini = 0.0<br/>samples = 1<br/>value = [0, 1]<br/>class = Usuario>, fillcolor="#399de5"] ;
402 -> 404 ;
405 [label=<gini = 0.0<br/>samples = 10<br/>value = [10, 0]<br/>class = Não Usuario>, fillcolor="#e58139"] ;
401 -> 405 ;
406 [label=<Extroversao &le; 0.72<br/>gini = 0.5<br/>samples = 10<br/>value = [5, 5]<br/>class = Não Usuario>, fillcolor="#ffffff"] ;
400 -> 406 ;
407 [label=<BuscaPorExperiencias &le; 0.75<br/>gini = 0.408<br/>samples = 7<br/>value = [2, 5]<br/>class = Usuario>, fillcolor="#88c4ef"] ;
406 -> 407 ;
408 [label=<Agradabilidade &le; 0.75<br/>gini = 0.444<br/>samples = 3<br/>value = [2, 1]<br/>class = Não Usuario>, fillcolor="#f2c09c"] ;
407 -> 408 ;
409 [label=<gini = 0.0<br/>samples = 2<br/>value = [2, 0]<br/>class = Não Usuario>, fillcolor="#e58139"] ;
408 -> 409 ;
410 [label=<gini = 0.0<br/>samples = 1<br/>value = [0, 1]<br/>class = Usuario>, fillcolor="#399de5"] ;
408 -> 410 ;
411 [label=<gini = 0.0<br/>samples = 4<br/>value = [0, 4]<br/>class = Usuario>, fillcolor="#399de5"] ;
407 -> 411 ;
412 [label=<gini = 0.0<br/>samples = 3<br/>value = [3, 0]<br/>class = Não Usuario>, fillcolor="#e58139"] ;
406 -> 412 ;
413 [label=<Agradabilidade &le; 0.492<br/>gini = 0.433<br/>samples = 426<br/>value = [135, 291]<br/>class = Usuario>, fillcolor="#95caf1"] ;
215 -> 413 ;
414 [label=<InstabilidadeEmocional &le; 0.13<br/>gini = 0.341<br/>samples = 101<br/>value = [22, 79]<br/>class = Usuario>, fillcolor="#70b8ec"] ;
413 -> 414 ;
415 [label=<AberturaExperiencia &le; 0.615<br/>gini = 0.444<br/>samples = 3<br/>value = [2, 1]<br/>class = Não Usuario>, fillcolor="#f2c09c"] ;
414 -> 415 ;
416 [label=<gini = 0.0<br/>samples = 2<br/>value = [2, 0]<br/>class = Não Usuario>, fillcolor="#e58139"] ;
415 -> 416 ;
417 [label=<gini = 0.0<br/>samples = 1<br/>value = [0, 1]<br/>class = Usuario>, fillcolor="#399de5"] ;
415 -> 417 ;
418 [label=<InstabilidadeEmocional &le; 0.396<br/>gini = 0.325<br/>samples = 98<br/>value = [20, 78]<br/>class = Usuario>, fillcolor="#6cb6ec"] ;
414 -> 418 ;
419 [label=<AberturaExperiencia &le; 0.85<br/>gini = 0.172<br/>samples = 42<br/>value = [4, 38]<br/>class = Usuario>, fillcolor="#4ea7e8"] ;
418 -> 419 ;
420 [label=<Extroversao &le; 0.43<br/>gini = 0.136<br/>samples = 41<br/>value = [3, 38]<br/>class = Usuario>, fillcolor="#49a5e7"] ;
419 -> 420 ;
421 [label=<Conscienciosidade &le; 0.79<br/>gini = 0.444<br/>samples = 6<br/>value = [2, 4]<br/>class = Usuario>, fillcolor="#9ccef2"] ;
420 -> 421 ;
422 [label=<gini = 0.0<br/>samples = 3<br/>value = [0, 3]<br/>class = Usuario>, fillcolor="#399de5"] ;
421 -> 422 ;
423 [label=<AberturaExperiencia &le; 0.53<br/>gini = 0.444<br/>samples = 3<br/>value = [2, 1]<br/>class = Não Usuario>, fillcolor="#f2c09c"] ;
421 -> 423 ;
424 [label=<gini = 0.0<br/>samples = 1<br/>value = [0, 1]<br/>class = Usuario>, fillcolor="#399de5"] ;
423 -> 424 ;
425 [label=<gini = 0.0<br/>samples = 2<br/>value = [2, 0]<br/>class = Não Usuario>, fillcolor="#e58139"] ;
423 -> 425 ;
426 [label=<Agradabilidade &le; 0.296<br/>gini = 0.056<br/>samples = 35<br/>value = [1, 34]<br/>class = Usuario>, fillcolor="#3fa0e6"] ;
420 -> 426 ;
427 [label=<Agradabilidade &le; 0.28<br/>gini = 0.219<br/>samples = 8<br/>value = [1, 7]<br/>class = Usuario>, fillcolor="#55abe9"] ;
426 -> 427 ;
428 [label=<gini = 0.0<br/>samples = 6<br/>value = [0, 6]<br/>class = Usuario>, fillcolor="#399de5"] ;
427 -> 428 ;
429 [label=<AberturaExperiencia &le; 0.56<br/>gini = 0.5<br/>samples = 2<br/>value = [1, 1]<br/>class = Não Usuario>, fillcolor="#ffffff"] ;
427 -> 429 ;
430 [label=<gini = 0.0<br/>samples = 1<br/>value = [1, 0]<br/>class = Não Usuario>, fillcolor="#e58139"] ;
429 -> 430 ;
431 [label=<gini = 0.0<br/>samples = 1<br/>value = [0, 1]<br/>class = Usuario>, fillcolor="#399de5"] ;
429 -> 431 ;
432 [label=<gini = 0.0<br/>samples = 27<br/>value = [0, 27]<br/>class = Usuario>, fillcolor="#399de5"] ;
426 -> 432 ;
433 [label=<gini = 0.0<br/>samples = 1<br/>value = [1, 0]<br/>class = Não Usuario>, fillcolor="#e58139"] ;
419 -> 433 ;
434 [label=<Agradabilidade &le; 0.32<br/>gini = 0.408<br/>samples = 56<br/>value = [16, 40]<br/>class = Usuario>, fillcolor="#88c4ef"] ;
418 -> 434 ;
435 [label=<Extroversao &le; 0.53<br/>gini = 0.469<br/>samples = 8<br/>value = [5, 3]<br/>class = Não Usuario>, fillcolor="#f5cdb0"] ;
434 -> 435 ;
436 [label=<gini = 0.0<br/>samples = 3<br/>value = [0, 3]<br/>class = Usuario>, fillcolor="#399de5"] ;
435 -> 436 ;
437 [label=<gini = 0.0<br/>samples = 5<br/>value = [5, 0]<br/>class = Não Usuario>, fillcolor="#e58139"] ;
435 -> 437 ;
438 [label=<Agradabilidade &le; 0.43<br/>gini = 0.353<br/>samples = 48<br/>value = [11, 37]<br/>class = Usuario>, fillcolor="#74baed"] ;
434 -> 438 ;
439 [label=<InstabilidadeEmocional &le; 0.425<br/>gini = 0.111<br/>samples = 17<br/>value = [1, 16]<br/>class = Usuario>, fillcolor="#45a3e7"] ;
438 -> 439 ;
440 [label=<Agradabilidade &le; 0.39<br/>gini = 0.5<br/>samples = 2<br/>value = [1, 1]<br/>class = Não Usuario>, fillcolor="#ffffff"] ;
439 -> 440 ;
441 [label=<gini = 0.0<br/>samples = 1<br/>value = [0, 1]<br/>class = Usuario>, fillcolor="#399de5"] ;
440 -> 441 ;
442 [label=<gini = 0.0<br/>samples = 1<br/>value = [1, 0]<br/>class = Não Usuario>, fillcolor="#e58139"] ;
440 -> 442 ;
443 [label=<gini = 0.0<br/>samples = 15<br/>value = [0, 15]<br/>class = Usuario>, fillcolor="#399de5"] ;
439 -> 443 ;
444 [label=<Impulsividade &le; 0.5<br/>gini = 0.437<br/>samples = 31<br/>value = [10, 21]<br/>class = Usuario>, fillcolor="#97ccf1"] ;
438 -> 444 ;
445 [label=<Conscienciosidade &le; 0.81<br/>gini = 0.498<br/>samples = 15<br/>value = [8, 7]<br/>class = Não Usuario>, fillcolor="#fcefe6"] ;
444 -> 445 ;
446 [label=<InstabilidadeEmocional &le; 0.5<br/>gini = 0.278<br/>samples = 6<br/>value = [5, 1]<br/>class = Não Usuario>, fillcolor="#ea9a61"] ;
445 -> 446 ;
447 [label=<Impulsividade &le; 0.385<br/>gini = 0.5<br/>samples = 2<br/>value = [1, 1]<br/>class = Não Usuario>, fillcolor="#ffffff"] ;
446 -> 447 ;
448 [label=<gini = 0.0<br/>samples = 1<br/>value = [1, 0]<br/>class = Não Usuario>, fillcolor="#e58139"] ;
447 -> 448 ;
449 [label=<gini = 0.0<br/>samples = 1<br/>value = [0, 1]<br/>class = Usuario>, fillcolor="#399de5"] ;
447 -> 449 ;
450 [label=<gini = 0.0<br/>samples = 4<br/>value = [4, 0]<br/>class = Não Usuario>, fillcolor="#e58139"] ;
446 -> 450 ;
451 [label=<InstabilidadeEmocional &le; 0.665<br/>gini = 0.444<br/>samples = 9<br/>value = [3, 6]<br/>class = Usuario>, fillcolor="#9ccef2"] ;
445 -> 451 ;
452 [label=<BuscaPorExperiencias &le; 0.35<br/>gini = 0.375<br/>samples = 8<br/>value = [2, 6]<br/>class = Usuario>, fillcolor="#7bbeee"] ;
451 -> 452 ;
453 [label=<gini = 0.0<br/>samples = 1<br/>value = [1, 0]<br/>class = Não Usuario>, fillcolor="#e58139"] ;
452 -> 453 ;
454 [label=<Conscienciosidade &le; 0.91<br/>gini = 0.245<br/>samples = 7<br/>value = [1, 6]<br/>class = Usuario>, fillcolor="#5aade9"] ;
452 -> 454 ;
455 [label=<gini = 0.0<br/>samples = 6<br/>value = [0, 6]<br/>class = Usuario>, fillcolor="#399de5"] ;
454 -> 455 ;
456 [label=<gini = 0.0<br/>samples = 1<br/>value = [1, 0]<br/>class = Não Usuario>, fillcolor="#e58139"] ;
454 -> 456 ;
457 [label=<gini = 0.0<br/>samples = 1<br/>value = [1, 0]<br/>class = Não Usuario>, fillcolor="#e58139"] ;
451 -> 457 ;
458 [label=<Agradabilidade &le; 0.44<br/>gini = 0.219<br/>samples = 16<br/>value = [2, 14]<br/>class = Usuario>, fillcolor="#55abe9"] ;
444 -> 458 ;
459 [label=<AberturaExperiencia &le; 0.73<br/>gini = 0.408<br/>samples = 7<br/>value = [2, 5]<br/>class = Usuario>, fillcolor="#88c4ef"] ;
458 -> 459 ;
460 [label=<Conscienciosidade &le; 0.83<br/>gini = 0.278<br/>samples = 6<br/>value = [1, 5]<br/>class = Usuario>, fillcolor="#61b1ea"] ;
459 -> 460 ;
461 [label=<gini = 0.0<br/>samples = 4<br/>value = [0, 4]<br/>class = Usuario>, fillcolor="#399de5"] ;
460 -> 461 ;
462 [label=<AberturaExperiencia &le; 0.345<br/>gini = 0.5<br/>samples = 2<br/>value = [1, 1]<br/>class = Não Usuario>, fillcolor="#ffffff"] ;
460 -> 462 ;
463 [label=<gini = 0.0<br/>samples = 1<br/>value = [0, 1]<br/>class = Usuario>, fillcolor="#399de5"] ;
462 -> 463 ;
464 [label=<gini = 0.0<br/>samples = 1<br/>value = [1, 0]<br/>class = Não Usuario>, fillcolor="#e58139"] ;
462 -> 464 ;
465 [label=<gini = 0.0<br/>samples = 1<br/>value = [1, 0]<br/>class = Não Usuario>, fillcolor="#e58139"] ;
459 -> 465 ;
466 [label=<gini = 0.0<br/>samples = 9<br/>value = [0, 9]<br/>class = Usuario>, fillcolor="#399de5"] ;
458 -> 466 ;
467 [label=<Extroversao &le; 0.578<br/>gini = 0.454<br/>samples = 325<br/>value = [113, 212]<br/>class = Usuario>, fillcolor="#a3d1f3"] ;
413 -> 467 ;
468 [label=<BuscaPorExperiencias &le; 0.4<br/>gini = 0.37<br/>samples = 102<br/>value = [25, 77]<br/>class = Usuario>, fillcolor="#79bded"] ;
467 -> 468 ;
469 [label=<gini = 0.0<br/>samples = 2<br/>value = [2, 0]<br/>class = Não Usuario>, fillcolor="#e58139"] ;
468 -> 469 ;
470 [label=<Agradabilidade &le; 0.59<br/>gini = 0.354<br/>samples = 100<br/>value = [23, 77]<br/>class = Usuario>, fillcolor="#74baed"] ;
468 -> 470 ;
471 [label=<InstabilidadeEmocional &le; 0.573<br/>gini = 0.467<br/>samples = 35<br/>value = [13, 22]<br/>class = Usuario>, fillcolor="#aed7f4"] ;
470 -> 471 ;
472 [label=<Conscienciosidade &le; 0.84<br/>gini = 0.499<br/>samples = 27<br/>value = [13, 14]<br/>class = Usuario>, fillcolor="#f1f8fd"] ;
471 -> 472 ;
473 [label=<Conscienciosidade &le; 0.74<br/>gini = 0.472<br/>samples = 21<br/>value = [8, 13]<br/>class = Usuario>, fillcolor="#b3d9f5"] ;
472 -> 473 ;
474 [label=<AberturaExperiencia &le; 0.31<br/>gini = 0.32<br/>samples = 5<br/>value = [4, 1]<br/>class = Não Usuario>, fillcolor="#eca06a"] ;
473 -> 474 ;
475 [label=<gini = 0.0<br/>samples = 1<br/>value = [0, 1]<br/>class = Usuario>, fillcolor="#399de5"] ;
474 -> 475 ;
476 [label=<gini = 0.0<br/>samples = 4<br/>value = [4, 0]<br/>class = Não Usuario>, fillcolor="#e58139"] ;
474 -> 476 ;
477 [label=<InstabilidadeEmocional &le; 0.51<br/>gini = 0.375<br/>samples = 16<br/>value = [4, 12]<br/>class = Usuario>, fillcolor="#7bbeee"] ;
473 -> 477 ;
478 [label=<Impulsividade &le; 0.5<br/>gini = 0.494<br/>samples = 9<br/>value = [4, 5]<br/>class = Usuario>, fillcolor="#d7ebfa"] ;
477 -> 478 ;
479 [label=<gini = 0.0<br/>samples = 2<br/>value = [2, 0]<br/>class = Não Usuario>, fillcolor="#e58139"] ;
478 -> 479 ;
480 [label=<InstabilidadeEmocional &le; 0.49<br/>gini = 0.408<br/>samples = 7<br/>value = [2, 5]<br/>class = Usuario>, fillcolor="#88c4ef"] ;
478 -> 480 ;
481 [label=<Conscienciosidade &le; 0.76<br/>gini = 0.278<br/>samples = 6<br/>value = [1, 5]<br/>class = Usuario>, fillcolor="#61b1ea"] ;
480 -> 481 ;
482 [label=<InstabilidadeEmocional &le; 0.43<br/>gini = 0.5<br/>samples = 2<br/>value = [1, 1]<br/>class = Não Usuario>, fillcolor="#ffffff"] ;
481 -> 482 ;
483 [label=<gini = 0.0<br/>samples = 1<br/>value = [1, 0]<br/>class = Não Usuario>, fillcolor="#e58139"] ;
482 -> 483 ;
484 [label=<gini = 0.0<br/>samples = 1<br/>value = [0, 1]<br/>class = Usuario>, fillcolor="#399de5"] ;
482 -> 484 ;
485 [label=<gini = 0.0<br/>samples = 4<br/>value = [0, 4]<br/>class = Usuario>, fillcolor="#399de5"] ;
481 -> 485 ;
486 [label=<gini = 0.0<br/>samples = 1<br/>value = [1, 0]<br/>class = Não Usuario>, fillcolor="#e58139"] ;
480 -> 486 ;
487 [label=<gini = 0.0<br/>samples = 7<br/>value = [0, 7]<br/>class = Usuario>, fillcolor="#399de5"] ;
477 -> 487 ;
488 [label=<Agradabilidade &le; 0.57<br/>gini = 0.278<br/>samples = 6<br/>value = [5, 1]<br/>class = Não Usuario>, fillcolor="#ea9a61"] ;
472 -> 488 ;
489 [label=<gini = 0.0<br/>samples = 5<br/>value = [5, 0]<br/>class = Não Usuario>, fillcolor="#e58139"] ;
488 -> 489 ;
490 [label=<gini = 0.0<br/>samples = 1<br/>value = [0, 1]<br/>class = Usuario>, fillcolor="#399de5"] ;
488 -> 490 ;
491 [label=<gini = 0.0<br/>samples = 8<br/>value = [0, 8]<br/>class = Usuario>, fillcolor="#399de5"] ;
471 -> 491 ;
492 [label=<AberturaExperiencia &le; 0.61<br/>gini = 0.26<br/>samples = 65<br/>value = [10, 55]<br/>class = Usuario>, fillcolor="#5dafea"] ;
470 -> 492 ;
493 [label=<AberturaExperiencia &le; 0.41<br/>gini = 0.368<br/>samples = 37<br/>value = [9, 28]<br/>class = Usuario>, fillcolor="#79bced"] ;
492 -> 493 ;
494 [label=<Agradabilidade &le; 0.76<br/>gini = 0.111<br/>samples = 17<br/>value = [1, 16]<br/>class = Usuario>, fillcolor="#45a3e7"] ;
493 -> 494 ;
495 [label=<gini = 0.0<br/>samples = 15<br/>value = [0, 15]<br/>class = Usuario>, fillcolor="#399de5"] ;
494 -> 495 ;
496 [label=<Impulsividade &le; 0.835<br/>gini = 0.5<br/>samples = 2<br/>value = [1, 1]<br/>class = Não Usuario>, fillcolor="#ffffff"] ;
494 -> 496 ;
497 [label=<gini = 0.0<br/>samples = 1<br/>value = [1, 0]<br/>class = Não Usuario>, fillcolor="#e58139"] ;
496 -> 497 ;
498 [label=<gini = 0.0<br/>samples = 1<br/>value = [0, 1]<br/>class = Usuario>, fillcolor="#399de5"] ;
496 -> 498 ;
499 [label=<Extroversao &le; 0.355<br/>gini = 0.48<br/>samples = 20<br/>value = [8, 12]<br/>class = Usuario>, fillcolor="#bddef6"] ;
493 -> 499 ;
500 [label=<gini = 0.0<br/>samples = 2<br/>value = [2, 0]<br/>class = Não Usuario>, fillcolor="#e58139"] ;
499 -> 500 ;
501 [label=<InstabilidadeEmocional &le; 0.44<br/>gini = 0.444<br/>samples = 18<br/>value = [6, 12]<br/>class = Usuario>, fillcolor="#9ccef2"] ;
499 -> 501 ;
502 [label=<gini = 0.0<br/>samples = 6<br/>value = [0, 6]<br/>class = Usuario>, fillcolor="#399de5"] ;
501 -> 502 ;
503 [label=<Extroversao &le; 0.51<br/>gini = 0.5<br/>samples = 12<br/>value = [6, 6]<br/>class = Não Usuario>, fillcolor="#ffffff"] ;
501 -> 503 ;
504 [label=<gini = 0.0<br/>samples = 4<br/>value = [4, 0]<br/>class = Não Usuario>, fillcolor="#e58139"] ;
503 -> 504 ;
505 [label=<InstabilidadeEmocional &le; 0.465<br/>gini = 0.375<br/>samples = 8<br/>value = [2, 6]<br/>class = Usuario>, fillcolor="#7bbeee"] ;
503 -> 505 ;
506 [label=<gini = 0.0<br/>samples = 1<br/>value = [1, 0]<br/>class = Não Usuario>, fillcolor="#e58139"] ;
505 -> 506 ;
507 [label=<InstabilidadeEmocional &le; 0.545<br/>gini = 0.245<br/>samples = 7<br/>value = [1, 6]<br/>class = Usuario>, fillcolor="#5aade9"] ;
505 -> 507 ;
508 [label=<BuscaPorExperiencias &le; 0.8<br/>gini = 0.444<br/>samples = 3<br/>value = [1, 2]<br/>class = Usuario>, fillcolor="#9ccef2"] ;
507 -> 508 ;
509 [label=<gini = 0.0<br/>samples = 1<br/>value = [1, 0]<br/>class = Não Usuario>, fillcolor="#e58139"] ;
508 -> 509 ;
510 [label=<gini = 0.0<br/>samples = 2<br/>value = [0, 2]<br/>class = Usuario>, fillcolor="#399de5"] ;
508 -> 510 ;
511 [label=<gini = 0.0<br/>samples = 4<br/>value = [0, 4]<br/>class = Usuario>, fillcolor="#399de5"] ;
507 -> 511 ;
512 [label=<BuscaPorExperiencias &le; 0.972<br/>gini = 0.069<br/>samples = 28<br/>value = [1, 27]<br/>class = Usuario>, fillcolor="#40a1e6"] ;
492 -> 512 ;
513 [label=<gini = 0.0<br/>samples = 24<br/>value = [0, 24]<br/>class = Usuario>, fillcolor="#399de5"] ;
512 -> 513 ;
514 [label=<InstabilidadeEmocional &le; 0.535<br/>gini = 0.375<br/>samples = 4<br/>value = [1, 3]<br/>class = Usuario>, fillcolor="#7bbeee"] ;
512 -> 514 ;
515 [label=<gini = 0.0<br/>samples = 3<br/>value = [0, 3]<br/>class = Usuario>, fillcolor="#399de5"] ;
514 -> 515 ;
516 [label=<gini = 0.0<br/>samples = 1<br/>value = [1, 0]<br/>class = Não Usuario>, fillcolor="#e58139"] ;
514 -> 516 ;
517 [label=<InstabilidadeEmocional &le; 0.44<br/>gini = 0.478<br/>samples = 223<br/>value = [88, 135]<br/>class = Usuario>, fillcolor="#baddf6"] ;
467 -> 517 ;
518 [label=<Conscienciosidade &le; 0.84<br/>gini = 0.482<br/>samples = 47<br/>value = [28, 19]<br/>class = Não Usuario>, fillcolor="#f7d7bf"] ;
517 -> 518 ;
519 [label=<InstabilidadeEmocional &le; 0.275<br/>gini = 0.4<br/>samples = 29<br/>value = [21, 8]<br/>class = Não Usuario>, fillcolor="#efb184"] ;
518 -> 519 ;
520 [label=<gini = 0.0<br/>samples = 6<br/>value = [6, 0]<br/>class = Não Usuario>, fillcolor="#e58139"] ;
519 -> 520 ;
521 [label=<AberturaExperiencia &le; 0.76<br/>gini = 0.454<br/>samples = 23<br/>value = [15, 8]<br/>class = Não Usuario>, fillcolor="#f3c4a3"] ;
519 -> 521 ;
522 [label=<InstabilidadeEmocional &le; 0.37<br/>gini = 0.408<br/>samples = 21<br/>value = [15, 6]<br/>class = Não Usuario>, fillcolor="#efb388"] ;
521 -> 522 ;
523 [label=<Conscienciosidade &le; 0.8<br/>gini = 0.5<br/>samples = 10<br/>value = [5, 5]<br/>class = Não Usuario>, fillcolor="#ffffff"] ;
522 -> 523 ;
524 [label=<Impulsividade &le; 0.5<br/>gini = 0.408<br/>samples = 7<br/>value = [2, 5]<br/>class = Usuario>, fillcolor="#88c4ef"] ;
523 -> 524 ;
525 [label=<gini = 0.0<br/>samples = 1<br/>value = [1, 0]<br/>class = Não Usuario>, fillcolor="#e58139"] ;
524 -> 525 ;
526 [label=<AberturaExperiencia &le; 0.665<br/>gini = 0.278<br/>samples = 6<br/>value = [1, 5]<br/>class = Usuario>, fillcolor="#61b1ea"] ;
524 -> 526 ;
527 [label=<gini = 0.0<br/>samples = 5<br/>value = [0, 5]<br/>class = Usuario>, fillcolor="#399de5"] ;
526 -> 527 ;
528 [label=<gini = 0.0<br/>samples = 1<br/>value = [1, 0]<br/>class = Não Usuario>, fillcolor="#e58139"] ;
526 -> 528 ;
529 [label=<gini = 0.0<br/>samples = 3<br/>value = [3, 0]<br/>class = Não Usuario>, fillcolor="#e58139"] ;
523 -> 529 ;
530 [label=<Conscienciosidade &le; 0.82<br/>gini = 0.165<br/>samples = 11<br/>value = [10, 1]<br/>class = Não Usuario>, fillcolor="#e88e4d"] ;
522 -> 530 ;
531 [label=<gini = 0.0<br/>samples = 10<br/>value = [10, 0]<br/>class = Não Usuario>, fillcolor="#e58139"] ;
530 -> 531 ;
532 [label=<gini = 0.0<br/>samples = 1<br/>value = [0, 1]<br/>class = Usuario>, fillcolor="#399de5"] ;
530 -> 532 ;
533 [label=<gini = 0.0<br/>samples = 2<br/>value = [0, 2]<br/>class = Usuario>, fillcolor="#399de5"] ;
521 -> 533 ;
534 [label=<Extroversao &le; 0.59<br/>gini = 0.475<br/>samples = 18<br/>value = [7, 11]<br/>class = Usuario>, fillcolor="#b7dbf6"] ;
518 -> 534 ;
535 [label=<gini = 0.0<br/>samples = 2<br/>value = [2, 0]<br/>class = Não Usuario>, fillcolor="#e58139"] ;
534 -> 535 ;
536 [label=<AberturaExperiencia &le; 0.73<br/>gini = 0.43<br/>samples = 16<br/>value = [5, 11]<br/>class = Usuario>, fillcolor="#93caf1"] ;
534 -> 536 ;
537 [label=<BuscaPorExperiencias &le; 0.45<br/>gini = 0.278<br/>samples = 12<br/>value = [2, 10]<br/>class = Usuario>, fillcolor="#61b1ea"] ;
536 -> 537 ;
538 [label=<gini = 0.0<br/>samples = 1<br/>value = [1, 0]<br/>class = Não Usuario>, fillcolor="#e58139"] ;
537 -> 538 ;
539 [label=<Agradabilidade &le; 0.57<br/>gini = 0.165<br/>samples = 11<br/>value = [1, 10]<br/>class = Usuario>, fillcolor="#4da7e8"] ;
537 -> 539 ;
540 [label=<Agradabilidade &le; 0.55<br/>gini = 0.444<br/>samples = 3<br/>value = [1, 2]<br/>class = Usuario>, fillcolor="#9ccef2"] ;
539 -> 540 ;
541 [label=<gini = 0.0<br/>samples = 2<br/>value = [0, 2]<br/>class = Usuario>, fillcolor="#399de5"] ;
540 -> 541 ;
542 [label=<gini = 0.0<br/>samples = 1<br/>value = [1, 0]<br/>class = Não Usuario>, fillcolor="#e58139"] ;
540 -> 542 ;
543 [label=<gini = 0.0<br/>samples = 8<br/>value = [0, 8]<br/>class = Usuario>, fillcolor="#399de5"] ;
539 -> 543 ;
544 [label=<AberturaExperiencia &le; 0.865<br/>gini = 0.375<br/>samples = 4<br/>value = [3, 1]<br/>class = Não Usuario>, fillcolor="#eeab7b"] ;
536 -> 544 ;
545 [label=<gini = 0.0<br/>samples = 3<br/>value = [3, 0]<br/>class = Não Usuario>, fillcolor="#e58139"] ;
544 -> 545 ;
546 [label=<gini = 0.0<br/>samples = 1<br/>value = [0, 1]<br/>class = Usuario>, fillcolor="#399de5"] ;
544 -> 546 ;
547 [label=<Extroversao &le; 0.865<br/>gini = 0.449<br/>samples = 176<br/>value = [60, 116]<br/>class = Usuario>, fillcolor="#9fd0f2"] ;
517 -> 547 ;
548 [label=<BuscaPorExperiencias &le; 0.25<br/>gini = 0.439<br/>samples = 169<br/>value = [55, 114]<br/>class = Usuario>, fillcolor="#99ccf2"] ;
547 -> 548 ;
549 [label=<gini = 0.0<br/>samples = 8<br/>value = [0, 8]<br/>class = Usuario>, fillcolor="#399de5"] ;
548 -> 549 ;
550 [label=<AberturaExperiencia &le; 0.685<br/>gini = 0.45<br/>samples = 161<br/>value = [55, 106]<br/>class = Usuario>, fillcolor="#a0d0f2"] ;
548 -> 550 ;
551 [label=<AberturaExperiencia &le; 0.43<br/>gini = 0.425<br/>samples = 134<br/>value = [41, 93]<br/>class = Usuario>, fillcolor="#90c8f0"] ;
550 -> 551 ;
552 [label=<AberturaExperiencia &le; 0.32<br/>gini = 0.468<br/>samples = 67<br/>value = [25, 42]<br/>class = Usuario>, fillcolor="#afd7f4"] ;
551 -> 552 ;
553 [label=<Agradabilidade &le; 0.81<br/>gini = 0.328<br/>samples = 29<br/>value = [6, 23]<br/>class = Usuario>, fillcolor="#6db7ec"] ;
552 -> 553 ;
554 [label=<Impulsividade &le; 0.725<br/>gini = 0.293<br/>samples = 28<br/>value = [5, 23]<br/>class = Usuario>, fillcolor="#64b2eb"] ;
553 -> 554 ;
555 [label=<AberturaExperiencia &le; 0.289<br/>gini = 0.165<br/>samples = 22<br/>value = [2, 20]<br/>class = Usuario>, fillcolor="#4da7e8"] ;
554 -> 555 ;
556 [label=<gini = 0.0<br/>samples = 13<br/>value = [0, 13]<br/>class = Usuario>, fillcolor="#399de5"] ;
555 -> 556 ;
557 [label=<InstabilidadeEmocional &le; 0.575<br/>gini = 0.346<br/>samples = 9<br/>value = [2, 7]<br/>class = Usuario>, fillcolor="#72b9ec"] ;
555 -> 557 ;
558 [label=<gini = 0.0<br/>samples = 5<br/>value = [0, 5]<br/>class = Usuario>, fillcolor="#399de5"] ;
557 -> 558 ;
559 [label=<InstabilidadeEmocional &le; 0.645<br/>gini = 0.5<br/>samples = 4<br/>value = [2, 2]<br/>class = Não Usuario>, fillcolor="#ffffff"] ;
557 -> 559 ;
560 [label=<gini = 0.0<br/>samples = 2<br/>value = [2, 0]<br/>class = Não Usuario>, fillcolor="#e58139"] ;
559 -> 560 ;
561 [label=<gini = 0.0<br/>samples = 2<br/>value = [0, 2]<br/>class = Usuario>, fillcolor="#399de5"] ;
559 -> 561 ;
562 [label=<AberturaExperiencia &le; 0.3<br/>gini = 0.5<br/>samples = 6<br/>value = [3, 3]<br/>class = Não Usuario>, fillcolor="#ffffff"] ;
554 -> 562 ;
563 [label=<AberturaExperiencia &le; 0.19<br/>gini = 0.375<br/>samples = 4<br/>value = [3, 1]<br/>class = Não Usuario>, fillcolor="#eeab7b"] ;
562 -> 563 ;
564 [label=<gini = 0.0<br/>samples = 1<br/>value = [0, 1]<br/>class = Usuario>, fillcolor="#399de5"] ;
563 -> 564 ;
565 [label=<gini = 0.0<br/>samples = 3<br/>value = [3, 0]<br/>class = Não Usuario>, fillcolor="#e58139"] ;
563 -> 565 ;
566 [label=<gini = 0.0<br/>samples = 2<br/>value = [0, 2]<br/>class = Usuario>, fillcolor="#399de5"] ;
562 -> 566 ;
567 [label=<gini = 0.0<br/>samples = 1<br/>value = [1, 0]<br/>class = Não Usuario>, fillcolor="#e58139"] ;
553 -> 567 ;
568 [label=<InstabilidadeEmocional &le; 0.668<br/>gini = 0.5<br/>samples = 38<br/>value = [19, 19]<br/>class = Não Usuario>, fillcolor="#ffffff"] ;
552 -> 568 ;
569 [label=<Extroversao &le; 0.72<br/>gini = 0.471<br/>samples = 29<br/>value = [11, 18]<br/>class = Usuario>, fillcolor="#b2d9f5"] ;
568 -> 569 ;
570 [label=<Agradabilidade &le; 0.68<br/>gini = 0.499<br/>samples = 19<br/>value = [10, 9]<br/>class = Não Usuario>, fillcolor="#fcf2eb"] ;
569 -> 570 ;
571 [label=<Conscienciosidade &le; 0.74<br/>gini = 0.444<br/>samples = 12<br/>value = [4, 8]<br/>class = Usuario>, fillcolor="#9ccef2"] ;
570 -> 571 ;
572 [label=<gini = 0.0<br/>samples = 2<br/>value = [2, 0]<br/>class = Não Usuario>, fillcolor="#e58139"] ;
571 -> 572 ;
573 [label=<Extroversao &le; 0.69<br/>gini = 0.32<br/>samples = 10<br/>value = [2, 8]<br/>class = Usuario>, fillcolor="#6ab6ec"] ;
571 -> 573 ;
574 [label=<gini = 0.0<br/>samples = 7<br/>value = [0, 7]<br/>class = Usuario>, fillcolor="#399de5"] ;
573 -> 574 ;
575 [label=<Agradabilidade &le; 0.595<br/>gini = 0.444<br/>samples = 3<br/>value = [2, 1]<br/>class = Não Usuario>, fillcolor="#f2c09c"] ;
573 -> 575 ;
576 [label=<gini = 0.0<br/>samples = 2<br/>value = [2, 0]<br/>class = Não Usuario>, fillcolor="#e58139"] ;
575 -> 576 ;
577 [label=<gini = 0.0<br/>samples = 1<br/>value = [0, 1]<br/>class = Usuario>, fillcolor="#399de5"] ;
575 -> 577 ;
578 [label=<BuscaPorExperiencias &le; 0.95<br/>gini = 0.245<br/>samples = 7<br/>value = [6, 1]<br/>class = Não Usuario>, fillcolor="#e9965a"] ;
570 -> 578 ;
579 [label=<gini = 0.0<br/>samples = 6<br/>value = [6, 0]<br/>class = Não Usuario>, fillcolor="#e58139"] ;
578 -> 579 ;
580 [label=<gini = 0.0<br/>samples = 1<br/>value = [0, 1]<br/>class = Usuario>, fillcolor="#399de5"] ;
578 -> 580 ;
581 [label=<Conscienciosidade &le; 0.76<br/>gini = 0.18<br/>samples = 10<br/>value = [1, 9]<br/>class = Usuario>, fillcolor="#4fa8e8"] ;
569 -> 581 ;
582 [label=<BuscaPorExperiencias &le; 0.75<br/>gini = 0.444<br/>samples = 3<br/>value = [1, 2]<br/>class = Usuario>, fillcolor="#9ccef2"] ;
581 -> 582 ;
583 [label=<gini = 0.0<br/>samples = 2<br/>value = [0, 2]<br/>class = Usuario>, fillcolor="#399de5"] ;
582 -> 583 ;
584 [label=<gini = 0.0<br/>samples = 1<br/>value = [1, 0]<br/>class = Não Usuario>, fillcolor="#e58139"] ;
582 -> 584 ;
585 [label=<gini = 0.0<br/>samples = 7<br/>value = [0, 7]<br/>class = Usuario>, fillcolor="#399de5"] ;
581 -> 585 ;
586 [label=<Conscienciosidade &le; 0.76<br/>gini = 0.198<br/>samples = 9<br/>value = [8, 1]<br/>class = Não Usuario>, fillcolor="#e89152"] ;
568 -> 586 ;
587 [label=<Extroversao &le; 0.665<br/>gini = 0.444<br/>samples = 3<br/>value = [2, 1]<br/>class = Não Usuario>, fillcolor="#f2c09c"] ;
586 -> 587 ;
588 [label=<gini = 0.0<br/>samples = 1<br/>value = [0, 1]<br/>class = Usuario>, fillcolor="#399de5"] ;
587 -> 588 ;
589 [label=<gini = 0.0<br/>samples = 2<br/>value = [2, 0]<br/>class = Não Usuario>, fillcolor="#e58139"] ;
587 -> 589 ;
590 [label=<gini = 0.0<br/>samples = 6<br/>value = [6, 0]<br/>class = Não Usuario>, fillcolor="#e58139"] ;
586 -> 590 ;
591 [label=<AberturaExperiencia &le; 0.519<br/>gini = 0.364<br/>samples = 67<br/>value = [16, 51]<br/>class = Usuario>, fillcolor="#77bced"] ;
551 -> 591 ;
592 [label=<Extroversao &le; 0.766<br/>gini = 0.204<br/>samples = 26<br/>value = [3, 23]<br/>class = Usuario>, fillcolor="#53aae8"] ;
591 -> 592 ;
593 [label=<Agradabilidade &le; 0.761<br/>gini = 0.091<br/>samples = 21<br/>value = [1, 20]<br/>class = Usuario>, fillcolor="#43a2e6"] ;
592 -> 593 ;
594 [label=<gini = 0.0<br/>samples = 18<br/>value = [0, 18]<br/>class = Usuario>, fillcolor="#399de5"] ;
593 -> 594 ;
595 [label=<Agradabilidade &le; 0.78<br/>gini = 0.444<br/>samples = 3<br/>value = [1, 2]<br/>class = Usuario>, fillcolor="#9ccef2"] ;
593 -> 595 ;
596 [label=<gini = 0.0<br/>samples = 1<br/>value = [1, 0]<br/>class = Não Usuario>, fillcolor="#e58139"] ;
595 -> 596 ;
597 [label=<gini = 0.0<br/>samples = 2<br/>value = [0, 2]<br/>class = Usuario>, fillcolor="#399de5"] ;
595 -> 597 ;
598 [label=<Impulsividade &le; 0.615<br/>gini = 0.48<br/>samples = 5<br/>value = [2, 3]<br/>class = Usuario>, fillcolor="#bddef6"] ;
592 -> 598 ;
599 [label=<gini = 0.0<br/>samples = 2<br/>value = [2, 0]<br/>class = Não Usuario>, fillcolor="#e58139"] ;
598 -> 599 ;
600 [label=<gini = 0.0<br/>samples = 3<br/>value = [0, 3]<br/>class = Usuario>, fillcolor="#399de5"] ;
598 -> 600 ;
601 [label=<BuscaPorExperiencias &le; 0.65<br/>gini = 0.433<br/>samples = 41<br/>value = [13, 28]<br/>class = Usuario>, fillcolor="#95caf1"] ;
591 -> 601 ;
602 [label=<AberturaExperiencia &le; 0.6<br/>gini = 0.48<br/>samples = 10<br/>value = [6, 4]<br/>class = Não Usuario>, fillcolor="#f6d5bd"] ;
601 -> 602 ;
603 [label=<InstabilidadeEmocional &le; 0.465<br/>gini = 0.444<br/>samples = 6<br/>value = [2, 4]<br/>class = Usuario>, fillcolor="#9ccef2"] ;
602 -> 603 ;
604 [label=<gini = 0.0<br/>samples = 1<br/>value = [1, 0]<br/>class = Não Usuario>, fillcolor="#e58139"] ;
603 -> 604 ;
605 [label=<Conscienciosidade &le; 0.75<br/>gini = 0.32<br/>samples = 5<br/>value = [1, 4]<br/>class = Usuario>, fillcolor="#6ab6ec"] ;
603 -> 605 ;
606 [label=<gini = 0.0<br/>samples = 1<br/>value = [1, 0]<br/>class = Não Usuario>, fillcolor="#e58139"] ;
605 -> 606 ;
607 [label=<gini = 0.0<br/>samples = 4<br/>value = [0, 4]<br/>class = Usuario>, fillcolor="#399de5"] ;
605 -> 607 ;
608 [label=<gini = 0.0<br/>samples = 4<br/>value = [4, 0]<br/>class = Não Usuario>, fillcolor="#e58139"] ;
602 -> 608 ;
609 [label=<InstabilidadeEmocional &le; 0.583<br/>gini = 0.35<br/>samples = 31<br/>value = [7, 24]<br/>class = Usuario>, fillcolor="#73baed"] ;
601 -> 609 ;
610 [label=<AberturaExperiencia &le; 0.627<br/>gini = 0.486<br/>samples = 12<br/>value = [5, 7]<br/>class = Usuario>, fillcolor="#c6e3f8"] ;
609 -> 610 ;
611 [label=<Agradabilidade &le; 0.57<br/>gini = 0.494<br/>samples = 9<br/>value = [5, 4]<br/>class = Não Usuario>, fillcolor="#fae6d7"] ;
610 -> 611 ;
612 [label=<gini = 0.0<br/>samples = 2<br/>value = [0, 2]<br/>class = Usuario>, fillcolor="#399de5"] ;
611 -> 612 ;
613 [label=<Impulsividade &le; 0.555<br/>gini = 0.408<br/>samples = 7<br/>value = [5, 2]<br/>class = Não Usuario>, fillcolor="#efb388"] ;
611 -> 613 ;
614 [label=<Extroversao &le; 0.77<br/>gini = 0.444<br/>samples = 3<br/>value = [1, 2]<br/>class = Usuario>, fillcolor="#9ccef2"] ;
613 -> 614 ;
615 [label=<gini = 0.0<br/>samples = 2<br/>value = [0, 2]<br/>class = Usuario>, fillcolor="#399de5"] ;
614 -> 615 ;
616 [label=<gini = 0.0<br/>samples = 1<br/>value = [1, 0]<br/>class = Não Usuario>, fillcolor="#e58139"] ;
614 -> 616 ;
617 [label=<gini = 0.0<br/>samples = 4<br/>value = [4, 0]<br/>class = Não Usuario>, fillcolor="#e58139"] ;
613 -> 617 ;
618 [label=<gini = 0.0<br/>samples = 3<br/>value = [0, 3]<br/>class = Usuario>, fillcolor="#399de5"] ;
610 -> 618 ;
619 [label=<Agradabilidade &le; 0.68<br/>gini = 0.188<br/>samples = 19<br/>value = [2, 17]<br/>class = Usuario>, fillcolor="#50a9e8"] ;
609 -> 619 ;
620 [label=<gini = 0.0<br/>samples = 12<br/>value = [0, 12]<br/>class = Usuario>, fillcolor="#399de5"] ;
619 -> 620 ;
621 [label=<InstabilidadeEmocional &le; 0.655<br/>gini = 0.408<br/>samples = 7<br/>value = [2, 5]<br/>class = Usuario>, fillcolor="#88c4ef"] ;
619 -> 621 ;
622 [label=<Agradabilidade &le; 0.8<br/>gini = 0.278<br/>samples = 6<br/>value = [1, 5]<br/>class = Usuario>, fillcolor="#61b1ea"] ;
621 -> 622 ;
623 [label=<gini = 0.0<br/>samples = 4<br/>value = [0, 4]<br/>class = Usuario>, fillcolor="#399de5"] ;
622 -> 623 ;
624 [label=<Conscienciosidade &le; 0.835<br/>gini = 0.5<br/>samples = 2<br/>value = [1, 1]<br/>class = Não Usuario>, fillcolor="#ffffff"] ;
622 -> 624 ;
625 [label=<gini = 0.0<br/>samples = 1<br/>value = [0, 1]<br/>class = Usuario>, fillcolor="#399de5"] ;
624 -> 625 ;
626 [label=<gini = 0.0<br/>samples = 1<br/>value = [1, 0]<br/>class = Não Usuario>, fillcolor="#e58139"] ;
624 -> 626 ;
627 [label=<gini = 0.0<br/>samples = 1<br/>value = [1, 0]<br/>class = Não Usuario>, fillcolor="#e58139"] ;
621 -> 627 ;
628 [label=<Agradabilidade &le; 0.84<br/>gini = 0.499<br/>samples = 27<br/>value = [14, 13]<br/>class = Não Usuario>, fillcolor="#fdf6f1"] ;
550 -> 628 ;
629 [label=<AberturaExperiencia &le; 0.754<br/>gini = 0.486<br/>samples = 24<br/>value = [14, 10]<br/>class = Não Usuario>, fillcolor="#f8dbc6"] ;
628 -> 629 ;
630 [label=<InstabilidadeEmocional &le; 0.63<br/>gini = 0.32<br/>samples = 10<br/>value = [8, 2]<br/>class = Não Usuario>, fillcolor="#eca06a"] ;
629 -> 630 ;
631 [label=<gini = 0.0<br/>samples = 8<br/>value = [8, 0]<br/>class = Não Usuario>, fillcolor="#e58139"] ;
630 -> 631 ;
632 [label=<gini = 0.0<br/>samples = 2<br/>value = [0, 2]<br/>class = Usuario>, fillcolor="#399de5"] ;
630 -> 632 ;
633 [label=<Conscienciosidade &le; 0.865<br/>gini = 0.49<br/>samples = 14<br/>value = [6, 8]<br/>class = Usuario>, fillcolor="#cee6f8"] ;
629 -> 633 ;
634 [label=<InstabilidadeEmocional &le; 0.535<br/>gini = 0.42<br/>samples = 10<br/>value = [3, 7]<br/>class = Usuario>, fillcolor="#8ec7f0"] ;
633 -> 634 ;
635 [label=<gini = 0.0<br/>samples = 4<br/>value = [0, 4]<br/>class = Usuario>, fillcolor="#399de5"] ;
634 -> 635 ;
636 [label=<Impulsividade &le; 0.615<br/>gini = 0.5<br/>samples = 6<br/>value = [3, 3]<br/>class = Não Usuario>, fillcolor="#ffffff"] ;
634 -> 636 ;
637 [label=<BuscaPorExperiencias &le; 0.65<br/>gini = 0.375<br/>samples = 4<br/>value = [1, 3]<br/>class = Usuario>, fillcolor="#7bbeee"] ;
636 -> 637 ;
638 [label=<gini = 0.0<br/>samples = 1<br/>value = [1, 0]<br/>class = Não Usuario>, fillcolor="#e58139"] ;
637 -> 638 ;
639 [label=<gini = 0.0<br/>samples = 3<br/>value = [0, 3]<br/>class = Usuario>, fillcolor="#399de5"] ;
637 -> 639 ;
640 [label=<gini = 0.0<br/>samples = 2<br/>value = [2, 0]<br/>class = Não Usuario>, fillcolor="#e58139"] ;
636 -> 640 ;
641 [label=<BuscaPorExperiencias &le; 0.65<br/>gini = 0.375<br/>samples = 4<br/>value = [3, 1]<br/>class = Não Usuario>, fillcolor="#eeab7b"] ;
633 -> 641 ;
642 [label=<gini = 0.0<br/>samples = 1<br/>value = [0, 1]<br/>class = Usuario>, fillcolor="#399de5"] ;
641 -> 642 ;
643 [label=<gini = 0.0<br/>samples = 3<br/>value = [3, 0]<br/>class = Não Usuario>, fillcolor="#e58139"] ;
641 -> 643 ;
644 [label=<gini = 0.0<br/>samples = 3<br/>value = [0, 3]<br/>class = Usuario>, fillcolor="#399de5"] ;
628 -> 644 ;
645 [label=<InstabilidadeEmocional &le; 0.63<br/>gini = 0.408<br/>samples = 7<br/>value = [5, 2]<br/>class = Não Usuario>, fillcolor="#efb388"] ;
547 -> 645 ;
646 [label=<gini = 0.0<br/>samples = 5<br/>value = [5, 0]<br/>class = Não Usuario>, fillcolor="#e58139"] ;
645 -> 646 ;
647 [label=<gini = 0.0<br/>samples = 2<br/>value = [0, 2]<br/>class = Usuario>, fillcolor="#399de5"] ;
645 -> 647 ;
648 [label=<Conscienciosidade &le; 0.8<br/>gini = 0.464<br/>samples = 164<br/>value = [104, 60]<br/>class = Não Usuario>, fillcolor="#f4caab"] ;
214 -> 648 ;
649 [label=<Impulsividade &le; 0.615<br/>gini = 0.377<br/>samples = 115<br/>value = [86, 29]<br/>class = Não Usuario>, fillcolor="#eeab7c"] ;
648 -> 649 ;
650 [label=<BuscaPorExperiencias &le; 0.85<br/>gini = 0.32<br/>samples = 95<br/>value = [76, 19]<br/>class = Não Usuario>, fillcolor="#eca06a"] ;
649 -> 650 ;
651 [label=<Agradabilidade &le; 0.68<br/>gini = 0.285<br/>samples = 87<br/>value = [72, 15]<br/>class = Não Usuario>, fillcolor="#ea9b62"] ;
650 -> 651 ;
652 [label=<Conscienciosidade &le; 0.74<br/>gini = 0.398<br/>samples = 51<br/>value = [37, 14]<br/>class = Não Usuario>, fillcolor="#efb184"] ;
651 -> 652 ;
653 [label=<InstabilidadeEmocional &le; 0.72<br/>gini = 0.339<br/>samples = 37<br/>value = [29, 8]<br/>class = Não Usuario>, fillcolor="#eca470"] ;
652 -> 653 ;
654 [label=<gini = 0.0<br/>samples = 9<br/>value = [9, 0]<br/>class = Não Usuario>, fillcolor="#e58139"] ;
653 -> 654 ;
655 [label=<Agradabilidade &le; 0.49<br/>gini = 0.408<br/>samples = 28<br/>value = [20, 8]<br/>class = Não Usuario>, fillcolor="#efb388"] ;
653 -> 655 ;
656 [label=<gini = 0.0<br/>samples = 6<br/>value = [6, 0]<br/>class = Não Usuario>, fillcolor="#e58139"] ;
655 -> 656 ;
657 [label=<BuscaPorExperiencias &le; 0.55<br/>gini = 0.463<br/>samples = 22<br/>value = [14, 8]<br/>class = Não Usuario>, fillcolor="#f4c9aa"] ;
655 -> 657 ;
658 [label=<BuscaPorExperiencias &le; 0.35<br/>gini = 0.355<br/>samples = 13<br/>value = [10, 3]<br/>class = Não Usuario>, fillcolor="#eda774"] ;
657 -> 658 ;
659 [label=<Extroversao &le; 0.75<br/>gini = 0.5<br/>samples = 6<br/>value = [3, 3]<br/>class = Não Usuario>, fillcolor="#ffffff"] ;
658 -> 659 ;
660 [label=<Agradabilidade &le; 0.625<br/>gini = 0.375<br/>samples = 4<br/>value = [3, 1]<br/>class = Não Usuario>, fillcolor="#eeab7b"] ;
659 -> 660 ;
661 [label=<gini = 0.0<br/>samples = 3<br/>value = [3, 0]<br/>class = Não Usuario>, fillcolor="#e58139"] ;
660 -> 661 ;
662 [label=<gini = 0.0<br/>samples = 1<br/>value = [0, 1]<br/>class = Usuario>, fillcolor="#399de5"] ;
660 -> 662 ;
663 [label=<gini = 0.0<br/>samples = 2<br/>value = [0, 2]<br/>class = Usuario>, fillcolor="#399de5"] ;
659 -> 663 ;
664 [label=<gini = 0.0<br/>samples = 7<br/>value = [7, 0]<br/>class = Não Usuario>, fillcolor="#e58139"] ;
658 -> 664 ;
665 [label=<Impulsividade &le; 0.385<br/>gini = 0.494<br/>samples = 9<br/>value = [4, 5]<br/>class = Usuario>, fillcolor="#d7ebfa"] ;
657 -> 665 ;
666 [label=<AberturaExperiencia &le; 0.43<br/>gini = 0.408<br/>samples = 7<br/>value = [2, 5]<br/>class = Usuario>, fillcolor="#88c4ef"] ;
665 -> 666 ;
667 [label=<gini = 0.0<br/>samples = 1<br/>value = [1, 0]<br/>class = Não Usuario>, fillcolor="#e58139"] ;
666 -> 667 ;
668 [label=<Conscienciosidade &le; 0.68<br/>gini = 0.278<br/>samples = 6<br/>value = [1, 5]<br/>class = Usuario>, fillcolor="#61b1ea"] ;
666 -> 668 ;
669 [label=<gini = 0.0<br/>samples = 4<br/>value = [0, 4]<br/>class = Usuario>, fillcolor="#399de5"] ;
668 -> 669 ;
670 [label=<Conscienciosidade &le; 0.71<br/>gini = 0.5<br/>samples = 2<br/>value = [1, 1]<br/>class = Não Usuario>, fillcolor="#ffffff"] ;
668 -> 670 ;
671 [label=<gini = 0.0<br/>samples = 1<br/>value = [1, 0]<br/>class = Não Usuario>, fillcolor="#e58139"] ;
670 -> 671 ;
672 [label=<gini = 0.0<br/>samples = 1<br/>value = [0, 1]<br/>class = Usuario>, fillcolor="#399de5"] ;
670 -> 672 ;
673 [label=<gini = 0.0<br/>samples = 2<br/>value = [2, 0]<br/>class = Não Usuario>, fillcolor="#e58139"] ;
665 -> 673 ;
674 [label=<Conscienciosidade &le; 0.76<br/>gini = 0.49<br/>samples = 14<br/>value = [8, 6]<br/>class = Não Usuario>, fillcolor="#f8e0ce"] ;
652 -> 674 ;
675 [label=<InstabilidadeEmocional &le; 0.8<br/>gini = 0.408<br/>samples = 7<br/>value = [2, 5]<br/>class = Usuario>, fillcolor="#88c4ef"] ;
674 -> 675 ;
676 [label=<gini = 0.0<br/>samples = 5<br/>value = [0, 5]<br/>class = Usuario>, fillcolor="#399de5"] ;
675 -> 676 ;
677 [label=<gini = 0.0<br/>samples = 2<br/>value = [2, 0]<br/>class = Não Usuario>, fillcolor="#e58139"] ;
675 -> 677 ;
678 [label=<InstabilidadeEmocional &le; 0.785<br/>gini = 0.245<br/>samples = 7<br/>value = [6, 1]<br/>class = Não Usuario>, fillcolor="#e9965a"] ;
674 -> 678 ;
679 [label=<gini = 0.0<br/>samples = 5<br/>value = [5, 0]<br/>class = Não Usuario>, fillcolor="#e58139"] ;
678 -> 679 ;
680 [label=<Extroversao &le; 0.53<br/>gini = 0.5<br/>samples = 2<br/>value = [1, 1]<br/>class = Não Usuario>, fillcolor="#ffffff"] ;
678 -> 680 ;
681 [label=<gini = 0.0<br/>samples = 1<br/>value = [1, 0]<br/>class = Não Usuario>, fillcolor="#e58139"] ;
680 -> 681 ;
682 [label=<gini = 0.0<br/>samples = 1<br/>value = [0, 1]<br/>class = Usuario>, fillcolor="#399de5"] ;
680 -> 682 ;
683 [label=<AberturaExperiencia &le; 0.68<br/>gini = 0.054<br/>samples = 36<br/>value = [35, 1]<br/>class = Não Usuario>, fillcolor="#e6853f"] ;
651 -> 683 ;
684 [label=<gini = 0.0<br/>samples = 27<br/>value = [27, 0]<br/>class = Não Usuario>, fillcolor="#e58139"] ;
683 -> 684 ;
685 [label=<InstabilidadeEmocional &le; 0.775<br/>gini = 0.198<br/>samples = 9<br/>value = [8, 1]<br/>class = Não Usuario>, fillcolor="#e89152"] ;
683 -> 685 ;
686 [label=<Extroversao &le; 0.79<br/>gini = 0.444<br/>samples = 3<br/>value = [2, 1]<br/>class = Não Usuario>, fillcolor="#f2c09c"] ;
685 -> 686 ;
687 [label=<gini = 0.0<br/>samples = 1<br/>value = [0, 1]<br/>class = Usuario>, fillcolor="#399de5"] ;
686 -> 687 ;
688 [label=<gini = 0.0<br/>samples = 2<br/>value = [2, 0]<br/>class = Não Usuario>, fillcolor="#e58139"] ;
686 -> 688 ;
689 [label=<gini = 0.0<br/>samples = 6<br/>value = [6, 0]<br/>class = Não Usuario>, fillcolor="#e58139"] ;
685 -> 689 ;
690 [label=<AberturaExperiencia &le; 0.53<br/>gini = 0.5<br/>samples = 8<br/>value = [4, 4]<br/>class = Não Usuario>, fillcolor="#ffffff"] ;
650 -> 690 ;
691 [label=<gini = 0.0<br/>samples = 4<br/>value = [4, 0]<br/>class = Não Usuario>, fillcolor="#e58139"] ;
690 -> 691 ;
692 [label=<gini = 0.0<br/>samples = 4<br/>value = [0, 4]<br/>class = Usuario>, fillcolor="#399de5"] ;
690 -> 692 ;
693 [label=<Agradabilidade &le; 0.76<br/>gini = 0.5<br/>samples = 20<br/>value = [10, 10]<br/>class = Não Usuario>, fillcolor="#ffffff"] ;
649 -> 693 ;
694 [label=<Extroversao &le; 0.53<br/>gini = 0.469<br/>samples = 16<br/>value = [6, 10]<br/>class = Usuario>, fillcolor="#b0d8f5"] ;
693 -> 694 ;
695 [label=<Conscienciosidade &le; 0.625<br/>gini = 0.32<br/>samples = 5<br/>value = [4, 1]<br/>class = Não Usuario>, fillcolor="#eca06a"] ;
694 -> 695 ;
696 [label=<gini = 0.0<br/>samples = 1<br/>value = [0, 1]<br/>class = Usuario>, fillcolor="#399de5"] ;
695 -> 696 ;
697 [label=<gini = 0.0<br/>samples = 4<br/>value = [4, 0]<br/>class = Não Usuario>, fillcolor="#e58139"] ;
695 -> 697 ;
698 [label=<Agradabilidade &le; 0.51<br/>gini = 0.298<br/>samples = 11<br/>value = [2, 9]<br/>class = Usuario>, fillcolor="#65b3eb"] ;
694 -> 698 ;
699 [label=<Conscienciosidade &le; 0.73<br/>gini = 0.5<br/>samples = 4<br/>value = [2, 2]<br/>class = Não Usuario>, fillcolor="#ffffff"] ;
698 -> 699 ;
700 [label=<gini = 0.0<br/>samples = 2<br/>value = [2, 0]<br/>class = Não Usuario>, fillcolor="#e58139"] ;
699 -> 700 ;
701 [label=<gini = 0.0<br/>samples = 2<br/>value = [0, 2]<br/>class = Usuario>, fillcolor="#399de5"] ;
699 -> 701 ;
702 [label=<gini = 0.0<br/>samples = 7<br/>value = [0, 7]<br/>class = Usuario>, fillcolor="#399de5"] ;
698 -> 702 ;
703 [label=<gini = 0.0<br/>samples = 4<br/>value = [4, 0]<br/>class = Não Usuario>, fillcolor="#e58139"] ;
693 -> 703 ;
704 [label=<Agradabilidade &le; 0.57<br/>gini = 0.465<br/>samples = 49<br/>value = [18, 31]<br/>class = Usuario>, fillcolor="#acd6f4"] ;
648 -> 704 ;
705 [label=<Agradabilidade &le; 0.385<br/>gini = 0.245<br/>samples = 14<br/>value = [2, 12]<br/>class = Usuario>, fillcolor="#5aade9"] ;
704 -> 705 ;
706 [label=<gini = 0.0<br/>samples = 1<br/>value = [1, 0]<br/>class = Não Usuario>, fillcolor="#e58139"] ;
705 -> 706 ;
707 [label=<Conscienciosidade &le; 0.97<br/>gini = 0.142<br/>samples = 13<br/>value = [1, 12]<br/>class = Usuario>, fillcolor="#49a5e7"] ;
705 -> 707 ;
708 [label=<gini = 0.0<br/>samples = 12<br/>value = [0, 12]<br/>class = Usuario>, fillcolor="#399de5"] ;
707 -> 708 ;
709 [label=<gini = 0.0<br/>samples = 1<br/>value = [1, 0]<br/>class = Não Usuario>, fillcolor="#e58139"] ;
707 -> 709 ;
710 [label=<Agradabilidade &le; 0.865<br/>gini = 0.496<br/>samples = 35<br/>value = [16, 19]<br/>class = Usuario>, fillcolor="#e0f0fb"] ;
704 -> 710 ;
711 [label=<Agradabilidade &le; 0.7<br/>gini = 0.495<br/>samples = 29<br/>value = [16, 13]<br/>class = Não Usuario>, fillcolor="#fae7da"] ;
710 -> 711 ;
712 [label=<Conscienciosidade &le; 0.89<br/>gini = 0.459<br/>samples = 14<br/>value = [5, 9]<br/>class = Usuario>, fillcolor="#a7d3f3"] ;
711 -> 712 ;
713 [label=<BuscaPorExperiencias &le; 0.65<br/>gini = 0.375<br/>samples = 12<br/>value = [3, 9]<br/>class = Usuario>, fillcolor="#7bbeee"] ;
712 -> 713 ;
714 [label=<gini = 0.0<br/>samples = 6<br/>value = [0, 6]<br/>class = Usuario>, fillcolor="#399de5"] ;
713 -> 714 ;
715 [label=<Conscienciosidade &le; 0.82<br/>gini = 0.5<br/>samples = 6<br/>value = [3, 3]<br/>class = Não Usuario>, fillcolor="#ffffff"] ;
713 -> 715 ;
716 [label=<gini = 0.0<br/>samples = 2<br/>value = [2, 0]<br/>class = Não Usuario>, fillcolor="#e58139"] ;
715 -> 716 ;
717 [label=<InstabilidadeEmocional &le; 0.81<br/>gini = 0.375<br/>samples = 4<br/>value = [1, 3]<br/>class = Usuario>, fillcolor="#7bbeee"] ;
715 -> 717 ;
718 [label=<gini = 0.0<br/>samples = 3<br/>value = [0, 3]<br/>class = Usuario>, fillcolor="#399de5"] ;
717 -> 718 ;
719 [label=<gini = 0.0<br/>samples = 1<br/>value = [1, 0]<br/>class = Não Usuario>, fillcolor="#e58139"] ;
717 -> 719 ;
720 [label=<gini = 0.0<br/>samples = 2<br/>value = [2, 0]<br/>class = Não Usuario>, fillcolor="#e58139"] ;
712 -> 720 ;
721 [label=<BuscaPorExperiencias &le; 0.85<br/>gini = 0.391<br/>samples = 15<br/>value = [11, 4]<br/>class = Não Usuario>, fillcolor="#eeaf81"] ;
711 -> 721 ;
722 [label=<Agradabilidade &le; 0.83<br/>gini = 0.153<br/>samples = 12<br/>value = [11, 1]<br/>class = Não Usuario>, fillcolor="#e78c4b"] ;
721 -> 722 ;
723 [label=<gini = 0.0<br/>samples = 10<br/>value = [10, 0]<br/>class = Não Usuario>, fillcolor="#e58139"] ;
722 -> 723 ;
724 [label=<Conscienciosidade &le; 0.875<br/>gini = 0.5<br/>samples = 2<br/>value = [1, 1]<br/>class = Não Usuario>, fillcolor="#ffffff"] ;
722 -> 724 ;
725 [label=<gini = 0.0<br/>samples = 1<br/>value = [0, 1]<br/>class = Usuario>, fillcolor="#399de5"] ;
724 -> 725 ;
726 [label=<gini = 0.0<br/>samples = 1<br/>value = [1, 0]<br/>class = Não Usuario>, fillcolor="#e58139"] ;
724 -> 726 ;
727 [label=<gini = 0.0<br/>samples = 3<br/>value = [0, 3]<br/>class = Usuario>, fillcolor="#399de5"] ;
721 -> 727 ;
728 [label=<gini = 0.0<br/>samples = 6<br/>value = [0, 6]<br/>class = Usuario>, fillcolor="#399de5"] ;
710 -> 728 ;
}