digraph Tree {
node [shape=box, style="filled, rounded", color="black", fontname=helvetica] ;
edge [fontname=helvetica] ;
0 [label=<BuscaPorExperiencias &le; 0.6<br/>gini = 0.5<br/>samples = 2056<br/>value = [1028, 1028]<br/>class = Não Usuario>, fillcolor="#ffffff"] ;
1 [label=<InstabilidadeEmocional &le; 0.401<br/>gini = 0.432<br/>samples = 1260<br/>value = [862, 398]<br/>class = Não Usuario>, fillcolor="#f1bb94"] ;
0 -> 1 [labeldistance=2.5, labelangle=45, headlabel="True"] ;
2 [label=<BuscaPorExperiencias &le; 0.507<br/>gini = 0.264<br/>samples = 83<br/>value = [13, 70]<br/>class = Usuario>, fillcolor="#5eafea"] ;
1 -> 2 ;
3 [label=<AberturaExperiencia &le; 0.303<br/>gini = 0.235<br/>samples = 81<br/>value = [11, 70]<br/>class = Usuario>, fillcolor="#58ace9"] ;
2 -> 3 ;
4 [label=<Impulsividade &le; 0.41<br/>gini = 0.444<br/>samples = 15<br/>value = [5, 10]<br/>class = Usuario>, fillcolor="#9ccef2"] ;
3 -> 4 ;
5 [label=<Extroversao &le; 0.76<br/>gini = 0.408<br/>samples = 7<br/>value = [5, 2]<br/>class = Não Usuario>, fillcolor="#efb388"] ;
4 -> 5 ;
6 [label=<Agradabilidade &le; 0.17<br/>gini = 0.278<br/>samples = 6<br/>value = [5, 1]<br/>class = Não Usuario>, fillcolor="#ea9a61"] ;
5 -> 6 ;
7 [label=<gini = 0.0<br/>samples = 1<br/>value = [0, 1]<br/>class = Usuario>, fillcolor="#399de5"] ;
6 -> 7 ;
8 [label=<gini = 0.0<br/>samples = 5<br/>value = [5, 0]<br/>class = Não Usuario>, fillcolor="#e58139"] ;
6 -> 8 ;
9 [label=<gini = 0.0<br/>samples = 1<br/>value = [0, 1]<br/>class = Usuario>, fillcolor="#399de5"] ;
5 -> 9 ;
10 [label=<gini = 0.0<br/>samples = 8<br/>value = [0, 8]<br/>class = Usuario>, fillcolor="#399de5"] ;
4 -> 10 ;
11 [label=<Extroversao &le; 0.635<br/>gini = 0.165<br/>samples = 66<br/>value = [6, 60]<br/>class = Usuario>, fillcolor="#4da7e8"] ;
3 -> 11 ;
12 [label=<gini = 0.0<br/>samples = 31<br/>value = [0, 31]<br/>class = Usuario>, fillcolor="#399de5"] ;
11 -> 12 ;
13 [label=<AberturaExperiencia &le; 0.777<br/>gini = 0.284<br/>samples = 35<br/>value = [6, 29]<br/>class = Usuario>, fillcolor="#62b1ea"] ;
11 -> 13 ;
14 [label=<Impulsividade &le; 0.725<br/>gini = 0.213<br/>samples = 33<br/>value = [4, 29]<br/>class = Usuario>, fillcolor="#54abe9"] ;
13 -> 14 ;
15 [label=<BuscaPorExperiencias &le; 0.05<br/>gini = 0.17<br/>samples = 32<br/>value = [3, 29]<br/>class = Usuario>, fillcolor="#4da7e8"] ;
14 -> 15 ;
16 [label=<InstabilidadeEmocional &le; 0.305<br/>gini = 0.5<br/>samples = 2<br/>value = [1, 1]<br/>class = Não Usuario>, fillcolor="#ffffff"] ;
15 -> 16 ;
17 [label=<gini = 0.0<br/>samples = 1<br/>value = [0, 1]<br/>class = Usuario>, fillcolor="#399de5"] ;
16 -> 17 ;
18 [label=<gini = 0.0<br/>samples = 1<br/>value = [1, 0]<br/>class = Não Usuario>, fillcolor="#e58139"] ;
16 -> 18 ;
19 [label=<BuscaPorExperiencias &le; 0.45<br/>gini = 0.124<br/>samples = 30<br/>value = [2, 28]<br/>class = Usuario>, fillcolor="#47a4e7"] ;
15 -> 19 ;
20 [label=<gini = 0.0<br/>samples = 22<br/>value = [0, 22]<br/>class = Usuario>, fillcolor="#399de5"] ;
19 -> 20 ;
21 [label=<Impulsividade &le; 0.385<br/>gini = 0.375<br/>samples = 8<br/>value = [2, 6]<br/>class = Usuario>, fillcolor="#7bbeee"] ;
19 -> 21 ;
22 [label=<Conscienciosidade &le; 0.785<br/>gini = 0.444<br/>samples = 3<br/>value = [2, 1]<br/>class = Não Usuario>, fillcolor="#f2c09c"] ;
21 -> 22 ;
23 [label=<gini = 0.0<br/>samples = 2<br/>value = [2, 0]<br/>class = Não Usuario>, fillcolor="#e58139"] ;
22 -> 23 ;
24 [label=<gini = 0.0<br/>samples = 1<br/>value = [0, 1]<br/>class = Usuario>, fillcolor="#399de5"] ;
22 -> 24 ;
25 [label=<gini = 0.0<br/>samples = 5<br/>value = [0, 5]<br/>class = Usuario>, fillcolor="#399de5"] ;
21 -> 25 ;
26 [label=<gini = 0.0<br/>samples = 1<br/>value = [1, 0]<br/>class = Não Usuario>, fillcolor="#e58139"] ;
14 -> 26 ;
27 [label=<gini = 0.0<br/>samples = 2<br/>value = [2, 0]<br/>class = Não Usuario>, fillcolor="#e58139"] ;
13 -> 27 ;
28 [label=<gini = 0.0<br/>samples = 2<br/>value = [2, 0]<br/>class = Não Usuario>, fillcolor="#e58139"] ;
2 -> 28 ;
29 [label=<Conscienciosidade &le; 0.71<br/>gini = 0.402<br/>samples = 1177<br/>value = [849, 328]<br/>class = Não Usuario>, fillcolor="#efb285"] ;
1 -> 29 ;
30 [label=<Extroversao &le; 0.71<br/>gini = 0.332<br/>samples = 834<br/>value = [659, 175]<br/>class = Não Usuario>, fillcolor="#eca26e"] ;
29 -> 30 ;
31 [label=<InstabilidadeEmocional &le; 0.52<br/>gini = 0.402<br/>samples = 445<br/>value = [321, 124]<br/>class = Não Usuario>, fillcolor="#efb285"] ;
30 -> 31 ;
32 [label=<Impulsividade &le; 0.324<br/>gini = 0.5<br/>samples = 70<br/>value = [35, 35]<br/>class = Não Usuario>, fillcolor="#ffffff"] ;
31 -> 32 ;
33 [label=<InstabilidadeEmocional &le; 0.447<br/>gini = 0.451<br/>samples = 35<br/>value = [23, 12]<br/>class = Não Usuario>, fillcolor="#f3c3a0"] ;
32 -> 33 ;
34 [label=<gini = 0.0<br/>samples = 8<br/>value = [8, 0]<br/>class = Não Usuario>, fillcolor="#e58139"] ;
33 -> 34 ;
35 [label=<Conscienciosidade &le; 0.647<br/>gini = 0.494<br/>samples = 27<br/>value = [15, 12]<br/>class = Não Usuario>, fillcolor="#fae6d7"] ;
33 -> 35 ;
36 [label=<Agradabilidade &le; 0.366<br/>gini = 0.36<br/>samples = 17<br/>value = [13, 4]<br/>class = Não Usuario>, fillcolor="#eda876"] ;
35 -> 36 ;
37 [label=<Extroversao &le; 0.53<br/>gini = 0.444<br/>samples = 3<br/>value = [1, 2]<br/>class = Usuario>, fillcolor="#9ccef2"] ;
36 -> 37 ;
38 [label=<gini = 0.0<br/>samples = 1<br/>value = [1, 0]<br/>class = Não Usuario>, fillcolor="#e58139"] ;
37 -> 38 ;
39 [label=<gini = 0.0<br/>samples = 2<br/>value = [0, 2]<br/>class = Usuario>, fillcolor="#399de5"] ;
37 -> 39 ;
40 [label=<Conscienciosidade &le; 0.479<br/>gini = 0.245<br/>samples = 14<br/>value = [12, 2]<br/>class = Não Usuario>, fillcolor="#e9965a"] ;
36 -> 40 ;
41 [label=<Impulsividade &le; 0.165<br/>gini = 0.5<br/>samples = 4<br/>value = [2, 2]<br/>class = Não Usuario>, fillcolor="#ffffff"] ;
40 -> 41 ;
42 [label=<gini = 0.0<br/>samples = 2<br/>value = [2, 0]<br/>class = Não Usuario>, fillcolor="#e58139"] ;
41 -> 42 ;
43 [label=<gini = 0.0<br/>samples = 2<br/>value = [0, 2]<br/>class = Usuario>, fillcolor="#399de5"] ;
41 -> 43 ;
44 [label=<gini = 0.0<br/>samples = 10<br/>value = [10, 0]<br/>class = Não Usuario>, fillcolor="#e58139"] ;
40 -> 44 ;
45 [label=<Agradabilidade &le; 0.296<br/>gini = 0.32<br/>samples = 10<br/>value = [2, 8]<br/>class = Usuario>, fillcolor="#6ab6ec"] ;
35 -> 45 ;
46 [label=<gini = 0.0<br/>samples = 2<br/>value = [2, 0]<br/>class = Não Usuario>, fillcolor="#e58139"] ;
45 -> 46 ;
47 [label=<gini = 0.0<br/>samples = 8<br/>value = [0, 8]<br/>class = Usuario>, fillcolor="#399de5"] ;
45 -> 47 ;
48 [label=<InstabilidadeEmocional &le; 0.518<br/>gini = 0.451<br/>samples = 35<br/>value = [12, 23]<br/>class = Usuario>, fillcolor="#a0d0f3"] ;
32 -> 48 ;
49 [label=<AberturaExperiencia &le; 0.305<br/>gini = 0.497<br/>samples = 26<br/>value = [12, 14]<br/>class = Usuario>, fillcolor="#e3f1fb"] ;
48 -> 49 ;
50 [label=<gini = 0.0<br/>samples = 5<br/>value = [5, 0]<br/>class = Não Usuario>, fillcolor="#e58139"] ;
49 -> 50 ;
51 [label=<InstabilidadeEmocional &le; 0.502<br/>gini = 0.444<br/>samples = 21<br/>value = [7, 14]<br/>class = Usuario>, fillcolor="#9ccef2"] ;
49 -> 51 ;
52 [label=<AberturaExperiencia &le; 0.76<br/>gini = 0.346<br/>samples = 18<br/>value = [4, 14]<br/>class = Usuario>, fillcolor="#72b9ec"] ;
51 -> 52 ;
53 [label=<BuscaPorExperiencias &le; 0.548<br/>gini = 0.219<br/>samples = 16<br/>value = [2, 14]<br/>class = Usuario>, fillcolor="#55abe9"] ;
52 -> 53 ;
54 [label=<AberturaExperiencia &le; 0.345<br/>gini = 0.124<br/>samples = 15<br/>value = [1, 14]<br/>class = Usuario>, fillcolor="#47a4e7"] ;
53 -> 54 ;
55 [label=<Extroversao &le; 0.58<br/>gini = 0.5<br/>samples = 2<br/>value = [1, 1]<br/>class = Não Usuario>, fillcolor="#ffffff"] ;
54 -> 55 ;
56 [label=<gini = 0.0<br/>samples = 1<br/>value = [0, 1]<br/>class = Usuario>, fillcolor="#399de5"] ;
55 -> 56 ;
57 [label=<gini = 0.0<br/>samples = 1<br/>value = [1, 0]<br/>class = Não Usuario>, fillcolor="#e58139"] ;
55 -> 57 ;
58 [label=<gini = 0.0<br/>samples = 13<br/>value = [0, 13]<br/>class = Usuario>, fillcolor="#399de5"] ;
54 -> 58 ;
59 [label=<gini = 0.0<br/>samples = 1<br/>value = [1, 0]<br/>class = Não Usuario>, fillcolor="#e58139"] ;
53 -> 59 ;
60 [label=<gini = 0.0<br/>samples = 2<br/>value = [2, 0]<br/>class = Não Usuario>, fillcolor="#e58139"] ;
52 -> 60 ;
61 [label=<gini = 0.0<br/>samples = 3<br/>value = [3, 0]<br/>class = Não Usuario>, fillcolor="#e58139"] ;
51 -> 61 ;
62 [label=<gini = 0.0<br/>samples = 9<br/>value = [0, 9]<br/>class = Usuario>, fillcolor="#399de5"] ;
48 -> 62 ;
63 [label=<Agradabilidade &le; 0.402<br/>gini = 0.362<br/>samples = 375<br/>value = [286, 89]<br/>class = Não Usuario>, fillcolor="#eda877"] ;
31 -> 63 ;
64 [label=<InstabilidadeEmocional &le; 0.596<br/>gini = 0.469<br/>samples = 24<br/>value = [9, 15]<br/>class = Usuario>, fillcolor="#b0d8f5"] ;
63 -> 64 ;
65 [label=<Agradabilidade &le; 0.396<br/>gini = 0.32<br/>samples = 10<br/>value = [8, 2]<br/>class = Não Usuario>, fillcolor="#eca06a"] ;
64 -> 65 ;
66 [label=<gini = 0.0<br/>samples = 7<br/>value = [7, 0]<br/>class = Não Usuario>, fillcolor="#e58139"] ;
65 -> 66 ;
67 [label=<AberturaExperiencia &le; 0.32<br/>gini = 0.444<br/>samples = 3<br/>value = [1, 2]<br/>class = Usuario>, fillcolor="#9ccef2"] ;
65 -> 67 ;
68 [label=<gini = 0.0<br/>samples = 1<br/>value = [1, 0]<br/>class = Não Usuario>, fillcolor="#e58139"] ;
67 -> 68 ;
69 [label=<gini = 0.0<br/>samples = 2<br/>value = [0, 2]<br/>class = Usuario>, fillcolor="#399de5"] ;
67 -> 69 ;
70 [label=<AberturaExperiencia &le; 0.26<br/>gini = 0.133<br/>samples = 14<br/>value = [1, 13]<br/>class = Usuario>, fillcolor="#48a5e7"] ;
64 -> 70 ;
71 [label=<AberturaExperiencia &le; 0.23<br/>gini = 0.5<br/>samples = 2<br/>value = [1, 1]<br/>class = Não Usuario>, fillcolor="#ffffff"] ;
70 -> 71 ;
72 [label=<gini = 0.0<br/>samples = 1<br/>value = [0, 1]<br/>class = Usuario>, fillcolor="#399de5"] ;
71 -> 72 ;
73 [label=<gini = 0.0<br/>samples = 1<br/>value = [1, 0]<br/>class = Não Usuario>, fillcolor="#e58139"] ;
71 -> 73 ;
74 [label=<gini = 0.0<br/>samples = 12<br/>value = [0, 12]<br/>class = Usuario>, fillcolor="#399de5"] ;
70 -> 74 ;
75 [label=<Conscienciosidade &le; 0.56<br/>gini = 0.333<br/>samples = 351<br/>value = [277, 74]<br/>class = Não Usuario>, fillcolor="#eca36e"] ;
63 -> 75 ;
76 [label=<BuscaPorExperiencias &le; 0.002<br/>gini = 0.215<br/>samples = 114<br/>value = [100, 14]<br/>class = Não Usuario>, fillcolor="#e99355"] ;
75 -> 76 ;
77 [label=<AberturaExperiencia &le; 0.55<br/>gini = 0.463<br/>samples = 11<br/>value = [7, 4]<br/>class = Não Usuario>, fillcolor="#f4c9aa"] ;
76 -> 77 ;
78 [label=<Extroversao &le; 0.54<br/>gini = 0.346<br/>samples = 9<br/>value = [7, 2]<br/>class = Não Usuario>, fillcolor="#eca572"] ;
77 -> 78 ;
79 [label=<gini = 0.0<br/>samples = 1<br/>value = [0, 1]<br/>class = Usuario>, fillcolor="#399de5"] ;
78 -> 79 ;
80 [label=<AberturaExperiencia &le; 0.232<br/>gini = 0.219<br/>samples = 8<br/>value = [7, 1]<br/>class = Não Usuario>, fillcolor="#e99355"] ;
78 -> 80 ;
81 [label=<gini = 0.0<br/>samples = 1<br/>value = [0, 1]<br/>class = Usuario>, fillcolor="#399de5"] ;
80 -> 81 ;
82 [label=<gini = 0.0<br/>samples = 7<br/>value = [7, 0]<br/>class = Não Usuario>, fillcolor="#e58139"] ;
80 -> 82 ;
83 [label=<gini = 0.0<br/>samples = 2<br/>value = [0, 2]<br/>class = Usuario>, fillcolor="#399de5"] ;
77 -> 83 ;
84 [label=<BuscaPorExperiencias &le; 0.298<br/>gini = 0.175<br/>samples = 103<br/>value = [93, 10]<br/>class = Não Usuario>, fillcolor="#e88f4e"] ;
76 -> 84 ;
85 [label=<InstabilidadeEmocional &le; 0.737<br/>gini = 0.044<br/>samples = 44<br/>value = [43, 1]<br/>class = Não Usuario>, fillcolor="#e6843e"] ;
84 -> 85 ;
86 [label=<gini = 0.0<br/>samples = 34<br/>value = [34, 0]<br/>class = Não Usuario>, fillcolor="#e58139"] ;
85 -> 86 ;
87 [label=<InstabilidadeEmocional &le; 0.743<br/>gini = 0.18<br/>samples = 10<br/>value = [9, 1]<br/>class = Não Usuario>, fillcolor="#e88f4f"] ;
85 -> 87 ;
88 [label=<Conscienciosidade &le; 0.51<br/>gini = 0.5<br/>samples = 2<br/>value = [1, 1]<br/>class = Não Usuario>, fillcolor="#ffffff"] ;
87 -> 88 ;
89 [label=<gini = 0.0<br/>samples = 1<br/>value = [0, 1]<br/>class = Usuario>, fillcolor="#399de5"] ;
88 -> 89 ;
90 [label=<gini = 0.0<br/>samples = 1<br/>value = [1, 0]<br/>class = Não Usuario>, fillcolor="#e58139"] ;
88 -> 90 ;
91 [label=<gini = 0.0<br/>samples = 8<br/>value = [8, 0]<br/>class = Não Usuario>, fillcolor="#e58139"] ;
87 -> 91 ;
92 [label=<InstabilidadeEmocional &le; 0.8<br/>gini = 0.259<br/>samples = 59<br/>value = [50, 9]<br/>class = Não Usuario>, fillcolor="#ea985d"] ;
84 -> 92 ;
93 [label=<Agradabilidade &le; 0.45<br/>gini = 0.215<br/>samples = 57<br/>value = [50, 7]<br/>class = Não Usuario>, fillcolor="#e99355"] ;
92 -> 93 ;
94 [label=<InstabilidadeEmocional &le; 0.629<br/>gini = 0.49<br/>samples = 7<br/>value = [4, 3]<br/>class = Não Usuario>, fillcolor="#f8e0ce"] ;
93 -> 94 ;
95 [label=<gini = 0.0<br/>samples = 4<br/>value = [4, 0]<br/>class = Não Usuario>, fillcolor="#e58139"] ;
94 -> 95 ;
96 [label=<gini = 0.0<br/>samples = 3<br/>value = [0, 3]<br/>class = Usuario>, fillcolor="#399de5"] ;
94 -> 96 ;
97 [label=<InstabilidadeEmocional &le; 0.671<br/>gini = 0.147<br/>samples = 50<br/>value = [46, 4]<br/>class = Não Usuario>, fillcolor="#e78c4a"] ;
93 -> 97 ;
98 [label=<Extroversao &le; 0.641<br/>gini = 0.32<br/>samples = 20<br/>value = [16, 4]<br/>class = Não Usuario>, fillcolor="#eca06a"] ;
97 -> 98 ;
99 [label=<InstabilidadeEmocional &le; 0.667<br/>gini = 0.124<br/>samples = 15<br/>value = [14, 1]<br/>class = Não Usuario>, fillcolor="#e78a47"] ;
98 -> 99 ;
100 [label=<gini = 0.0<br/>samples = 14<br/>value = [14, 0]<br/>class = Não Usuario>, fillcolor="#e58139"] ;
99 -> 100 ;
101 [label=<gini = 0.0<br/>samples = 1<br/>value = [0, 1]<br/>class = Usuario>, fillcolor="#399de5"] ;
99 -> 101 ;
102 [label=<Extroversao &le; 0.658<br/>gini = 0.48<br/>samples = 5<br/>value = [2, 3]<br/>class = Usuario>, fillcolor="#bddef6"] ;
98 -> 102 ;
103 [label=<gini = 0.0<br/>samples = 2<br/>value = [0, 2]<br/>class = Usuario>, fillcolor="#399de5"] ;
102 -> 103 ;
104 [label=<Agradabilidade &le; 0.551<br/>gini = 0.444<br/>samples = 3<br/>value = [2, 1]<br/>class = Não Usuario>, fillcolor="#f2c09c"] ;
102 -> 104 ;
105 [label=<gini = 0.0<br/>samples = 2<br/>value = [2, 0]<br/>class = Não Usuario>, fillcolor="#e58139"] ;
104 -> 105 ;
106 [label=<gini = 0.0<br/>samples = 1<br/>value = [0, 1]<br/>class = Usuario>, fillcolor="#399de5"] ;
104 -> 106 ;
107 [label=<gini = 0.0<br/>samples = 30<br/>value = [30, 0]<br/>class = Não Usuario>, fillcolor="#e58139"] ;
97 -> 107 ;
108 [label=<gini = 0.0<br/>samples = 2<br/>value = [0, 2]<br/>class = Usuario>, fillcolor="#399de5"] ;
92 -> 108 ;
109 [label=<Conscienciosidade &le; 0.561<br/>gini = 0.378<br/>samples = 237<br/>value = [177, 60]<br/>class = Não Usuario>, fillcolor="#eeac7c"] ;
75 -> 109 ;
110 [label=<Extroversao &le; 0.57<br/>gini = 0.472<br/>samples = 21<br/>value = [8, 13]<br/>class = Usuario>, fillcolor="#b3d9f5"] ;
109 -> 110 ;
111 [label=<gini = 0.0<br/>samples = 5<br/>value = [0, 5]<br/>class = Usuario>, fillcolor="#399de5"] ;
110 -> 111 ;
112 [label=<InstabilidadeEmocional &le; 0.61<br/>gini = 0.5<br/>samples = 16<br/>value = [8, 8]<br/>class = Não Usuario>, fillcolor="#ffffff"] ;
110 -> 112 ;
113 [label=<Impulsividade &le; 0.385<br/>gini = 0.375<br/>samples = 8<br/>value = [2, 6]<br/>class = Usuario>, fillcolor="#7bbeee"] ;
112 -> 113 ;
114 [label=<gini = 0.0<br/>samples = 5<br/>value = [0, 5]<br/>class = Usuario>, fillcolor="#399de5"] ;
113 -> 114 ;
115 [label=<Impulsividade &le; 0.5<br/>gini = 0.444<br/>samples = 3<br/>value = [2, 1]<br/>class = Não Usuario>, fillcolor="#f2c09c"] ;
113 -> 115 ;
116 [label=<gini = 0.0<br/>samples = 2<br/>value = [2, 0]<br/>class = Não Usuario>, fillcolor="#e58139"] ;
115 -> 116 ;
117 [label=<gini = 0.0<br/>samples = 1<br/>value = [0, 1]<br/>class = Usuario>, fillcolor="#399de5"] ;
115 -> 117 ;
118 [label=<Agradabilidade &le; 0.76<br/>gini = 0.375<br/>samples = 8<br/>value = [6, 2]<br/>class = Não Usuario>, fillcolor="#eeab7b"] ;
112 -> 118 ;
119 [label=<AberturaExperiencia &le; 0.73<br/>gini = 0.245<br/>samples = 7<br/>value = [6, 1]<br/>class = Não Usuario>, fillcolor="#e9965a"] ;
118 -> 119 ;
120 [label=<gini = 0.0<br/>samples = 6<br/>value = [6, 0]<br/>class = Não Usuario>, fillcolor="#e58139"] ;
119 -> 120 ;
121 [label=<gini = 0.0<br/>samples = 1<br/>value = [0, 1]<br/>class = Usuario>, fillcolor="#399de5"] ;
119 -> 121 ;
122 [label=<gini = 0.0<br/>samples = 1<br/>value = [0, 1]<br/>class = Usuario>, fillcolor="#399de5"] ;
118 -> 122 ;
123 [label=<Extroversao &le; 0.522<br/>gini = 0.34<br/>samples = 216<br/>value = [169, 47]<br/>class = Não Usuario>, fillcolor="#eca470"] ;
109 -> 123 ;
124 [label=<Extroversao &le; 0.5<br/>gini = 0.5<br/>samples = 26<br/>value = [13, 13]<br/>class = Não Usuario>, fillcolor="#ffffff"] ;
123 -> 124 ;
125 [label=<Agradabilidade &le; 0.483<br/>gini = 0.355<br/>samples = 13<br/>value = [10, 3]<br/>class = Não Usuario>, fillcolor="#eda774"] ;
124 -> 125 ;
126 [label=<gini = 0.0<br/>samples = 2<br/>value = [0, 2]<br/>class = Usuario>, fillcolor="#399de5"] ;
125 -> 126 ;
127 [label=<AberturaExperiencia &le; 0.24<br/>gini = 0.165<br/>samples = 11<br/>value = [10, 1]<br/>class = Não Usuario>, fillcolor="#e88e4d"] ;
125 -> 127 ;
128 [label=<gini = 0.0<br/>samples = 1<br/>value = [0, 1]<br/>class = Usuario>, fillcolor="#399de5"] ;
127 -> 128 ;
129 [label=<gini = 0.0<br/>samples = 10<br/>value = [10, 0]<br/>class = Não Usuario>, fillcolor="#e58139"] ;
127 -> 129 ;
130 [label=<Conscienciosidade &le; 0.575<br/>gini = 0.355<br/>samples = 13<br/>value = [3, 10]<br/>class = Usuario>, fillcolor="#74baed"] ;
124 -> 130 ;
131 [label=<gini = 0.0<br/>samples = 2<br/>value = [2, 0]<br/>class = Não Usuario>, fillcolor="#e58139"] ;
130 -> 131 ;
132 [label=<AberturaExperiencia &le; 0.43<br/>gini = 0.165<br/>samples = 11<br/>value = [1, 10]<br/>class = Usuario>, fillcolor="#4da7e8"] ;
130 -> 132 ;
133 [label=<Conscienciosidade &le; 0.645<br/>gini = 0.375<br/>samples = 4<br/>value = [1, 3]<br/>class = Usuario>, fillcolor="#7bbeee"] ;
132 -> 133 ;
134 [label=<BuscaPorExperiencias &le; 0.25<br/>gini = 0.5<br/>samples = 2<br/>value = [1, 1]<br/>class = Não Usuario>, fillcolor="#ffffff"] ;
133 -> 134 ;
135 [label=<gini = 0.0<br/>samples = 1<br/>value = [1, 0]<br/>class = Não Usuario>, fillcolor="#e58139"] ;
134 -> 135 ;
136 [label=<gini = 0.0<br/>samples = 1<br/>value = [0, 1]<br/>class = Usuario>, fillcolor="#399de5"] ;
134 -> 136 ;
137 [label=<gini = 0.0<br/>samples = 2<br/>value = [0, 2]<br/>class = Usuario>, fillcolor="#399de5"] ;
133 -> 137 ;
138 [label=<gini = 0.0<br/>samples = 7<br/>value = [0, 7]<br/>class = Usuario>, fillcolor="#399de5"] ;
132 -> 138 ;
139 [label=<Extroversao &le; 0.69<br/>gini = 0.294<br/>samples = 190<br/>value = [156, 34]<br/>class = Não Usuario>, fillcolor="#eb9c64"] ;
123 -> 139 ;
140 [label=<Conscienciosidade &le; 0.67<br/>gini = 0.24<br/>samples = 158<br/>value = [136, 22]<br/>class = Não Usuario>, fillcolor="#e99559"] ;
139 -> 140 ;
141 [label=<Impulsividade &le; 0.219<br/>gini = 0.152<br/>samples = 121<br/>value = [111, 10]<br/>class = Não Usuario>, fillcolor="#e78c4b"] ;
140 -> 141 ;
142 [label=<gini = 0.0<br/>samples = 48<br/>value = [48, 0]<br/>class = Não Usuario>, fillcolor="#e58139"] ;
141 -> 142 ;
143 [label=<Impulsividade &le; 0.223<br/>gini = 0.236<br/>samples = 73<br/>value = [63, 10]<br/>class = Não Usuario>, fillcolor="#e99558"] ;
141 -> 143 ;
144 [label=<AberturaExperiencia &le; 0.53<br/>gini = 0.415<br/>samples = 17<br/>value = [12, 5]<br/>class = Não Usuario>, fillcolor="#f0b58b"] ;
143 -> 144 ;
145 [label=<Agradabilidade &le; 0.547<br/>gini = 0.245<br/>samples = 14<br/>value = [12, 2]<br/>class = Não Usuario>, fillcolor="#e9965a"] ;
144 -> 145 ;
146 [label=<InstabilidadeEmocional &le; 0.712<br/>gini = 0.48<br/>samples = 5<br/>value = [3, 2]<br/>class = Não Usuario>, fillcolor="#f6d5bd"] ;
145 -> 146 ;
147 [label=<Extroversao &le; 0.547<br/>gini = 0.444<br/>samples = 3<br/>value = [1, 2]<br/>class = Usuario>, fillcolor="#9ccef2"] ;
146 -> 147 ;
148 [label=<gini = 0.0<br/>samples = 1<br/>value = [1, 0]<br/>class = Não Usuario>, fillcolor="#e58139"] ;
147 -> 148 ;
149 [label=<gini = 0.0<br/>samples = 2<br/>value = [0, 2]<br/>class = Usuario>, fillcolor="#399de5"] ;
147 -> 149 ;
150 [label=<gini = 0.0<br/>samples = 2<br/>value = [2, 0]<br/>class = Não Usuario>, fillcolor="#e58139"] ;
146 -> 150 ;
151 [label=<gini = 0.0<br/>samples = 9<br/>value = [9, 0]<br/>class = Não Usuario>, fillcolor="#e58139"] ;
145 -> 151 ;
152 [label=<gini = 0.0<br/>samples = 3<br/>value = [0, 3]<br/>class = Usuario>, fillcolor="#399de5"] ;
144 -> 152 ;
153 [label=<InstabilidadeEmocional &le; 0.559<br/>gini = 0.163<br/>samples = 56<br/>value = [51, 5]<br/>class = Não Usuario>, fillcolor="#e88d4c"] ;
143 -> 153 ;
154 [label=<InstabilidadeEmocional &le; 0.547<br/>gini = 0.48<br/>samples = 5<br/>value = [3, 2]<br/>class = Não Usuario>, fillcolor="#f6d5bd"] ;
153 -> 154 ;
155 [label=<gini = 0.0<br/>samples = 3<br/>value = [3, 0]<br/>class = Não Usuario>, fillcolor="#e58139"] ;
154 -> 155 ;
156 [label=<gini = 0.0<br/>samples = 2<br/>value = [0, 2]<br/>class = Usuario>, fillcolor="#399de5"] ;
154 -> 156 ;
157 [label=<Agradabilidade &le; 0.687<br/>gini = 0.111<br/>samples = 51<br/>value = [48, 3]<br/>class = Não Usuario>, fillcolor="#e78945"] ;
153 -> 157 ;
158 [label=<AberturaExperiencia &le; 0.231<br/>gini = 0.046<br/>samples = 42<br/>value = [41, 1]<br/>class = Não Usuario>, fillcolor="#e6843e"] ;
157 -> 158 ;
159 [label=<AberturaExperiencia &le; 0.19<br/>gini = 0.245<br/>samples = 7<br/>value = [6, 1]<br/>class = Não Usuario>, fillcolor="#e9965a"] ;
158 -> 159 ;
160 [label=<gini = 0.0<br/>samples = 6<br/>value = [6, 0]<br/>class = Não Usuario>, fillcolor="#e58139"] ;
159 -> 160 ;
161 [label=<gini = 0.0<br/>samples = 1<br/>value = [0, 1]<br/>class = Usuario>, fillcolor="#399de5"] ;
159 -> 161 ;
162 [label=<gini = 0.0<br/>samples = 35<br/>value = [35, 0]<br/>class = Não Usuario>, fillcolor="#e58139"] ;
158 -> 162 ;
163 [label=<Agradabilidade &le; 0.756<br/>gini = 0.346<br/>samples = 9<br/>value = [7, 2]<br/>class = Não Usuario>, fillcolor="#eca572"] ;
157 -> 163 ;
164 [label=<gini = 0.0<br/>samples = 2<br/>value = [0, 2]<br/>class = Usuario>, fillcolor="#399de5"] ;
163 -> 164 ;
165 [label=<gini = 0.0<br/>samples = 7<br/>value = [7, 0]<br/>class = Não Usuario>, fillcolor="#e58139"] ;
163 -> 165 ;
166 [label=<BuscaPorExperiencias &le; 0.483<br/>gini = 0.438<br/>samples = 37<br/>value = [25, 12]<br/>class = Não Usuario>, fillcolor="#f1bd98"] ;
140 -> 166 ;
167 [label=<BuscaPorExperiencias &le; 0.211<br/>gini = 0.367<br/>samples = 33<br/>value = [25, 8]<br/>class = Não Usuario>, fillcolor="#eda978"] ;
166 -> 167 ;
168 [label=<gini = 0.0<br/>samples = 3<br/>value = [0, 3]<br/>class = Usuario>, fillcolor="#399de5"] ;
167 -> 168 ;
169 [label=<Conscienciosidade &le; 0.67<br/>gini = 0.278<br/>samples = 30<br/>value = [25, 5]<br/>class = Não Usuario>, fillcolor="#ea9a61"] ;
167 -> 169 ;
170 [label=<AberturaExperiencia &le; 0.31<br/>gini = 0.48<br/>samples = 5<br/>value = [2, 3]<br/>class = Usuario>, fillcolor="#bddef6"] ;
169 -> 170 ;
171 [label=<gini = 0.0<br/>samples = 2<br/>value = [2, 0]<br/>class = Não Usuario>, fillcolor="#e58139"] ;
170 -> 171 ;
172 [label=<gini = 0.0<br/>samples = 3<br/>value = [0, 3]<br/>class = Usuario>, fillcolor="#399de5"] ;
170 -> 172 ;
173 [label=<InstabilidadeEmocional &le; 0.56<br/>gini = 0.147<br/>samples = 25<br/>value = [23, 2]<br/>class = Não Usuario>, fillcolor="#e78c4a"] ;
169 -> 173 ;
174 [label=<gini = 0.0<br/>samples = 1<br/>value = [0, 1]<br/>class = Usuario>, fillcolor="#399de5"] ;
173 -> 174 ;
175 [label=<Extroversao &le; 0.648<br/>gini = 0.08<br/>samples = 24<br/>value = [23, 1]<br/>class = Não Usuario>, fillcolor="#e68642"] ;
173 -> 175 ;
176 [label=<gini = 0.0<br/>samples = 17<br/>value = [17, 0]<br/>class = Não Usuario>, fillcolor="#e58139"] ;
175 -> 176 ;
177 [label=<Extroversao &le; 0.651<br/>gini = 0.245<br/>samples = 7<br/>value = [6, 1]<br/>class = Não Usuario>, fillcolor="#e9965a"] ;
175 -> 177 ;
178 [label=<AberturaExperiencia &le; 0.47<br/>gini = 0.5<br/>samples = 2<br/>value = [1, 1]<br/>class = Não Usuario>, fillcolor="#ffffff"] ;
177 -> 178 ;
179 [label=<gini = 0.0<br/>samples = 1<br/>value = [0, 1]<br/>class = Usuario>, fillcolor="#399de5"] ;
178 -> 179 ;
180 [label=<gini = 0.0<br/>samples = 1<br/>value = [1, 0]<br/>class = Não Usuario>, fillcolor="#e58139"] ;
178 -> 180 ;
181 [label=<gini = 0.0<br/>samples = 5<br/>value = [5, 0]<br/>class = Não Usuario>, fillcolor="#e58139"] ;
177 -> 181 ;
182 [label=<gini = 0.0<br/>samples = 4<br/>value = [0, 4]<br/>class = Usuario>, fillcolor="#399de5"] ;
166 -> 182 ;
183 [label=<Extroversao &le; 0.69<br/>gini = 0.469<br/>samples = 32<br/>value = [20, 12]<br/>class = Não Usuario>, fillcolor="#f5cdb0"] ;
139 -> 183 ;
184 [label=<Conscienciosidade &le; 0.66<br/>gini = 0.397<br/>samples = 11<br/>value = [3, 8]<br/>class = Usuario>, fillcolor="#83c2ef"] ;
183 -> 184 ;
185 [label=<AberturaExperiencia &le; 0.665<br/>gini = 0.219<br/>samples = 8<br/>value = [1, 7]<br/>class = Usuario>, fillcolor="#55abe9"] ;
184 -> 185 ;
186 [label=<gini = 0.0<br/>samples = 7<br/>value = [0, 7]<br/>class = Usuario>, fillcolor="#399de5"] ;
185 -> 186 ;
187 [label=<gini = 0.0<br/>samples = 1<br/>value = [1, 0]<br/>class = Não Usuario>, fillcolor="#e58139"] ;
185 -> 187 ;
188 [label=<BuscaPorExperiencias &le; 0.25<br/>gini = 0.444<br/>samples = 3<br/>value = [2, 1]<br/>class = Não Usuario>, fillcolor="#f2c09c"] ;
184 -> 188 ;
189 [label=<gini = 0.0<br/>samples = 1<br/>value = [0, 1]<br/>class = Usuario>, fillcolor="#399de5"] ;
188 -> 189 ;
190 [label=<gini = 0.0<br/>samples = 2<br/>value = [2, 0]<br/>class = Não Usuario>, fillcolor="#e58139"] ;
188 -> 190 ;
191 [label=<Extroversao &le; 0.709<br/>gini = 0.308<br/>samples = 21<br/>value = [17, 4]<br/>class = Não Usuario>, fillcolor="#eb9f68"] ;
183 -> 191 ;
192 [label=<gini = 0.0<br/>samples = 11<br/>value = [11, 0]<br/>class = Não Usuario>, fillcolor="#e58139"] ;
191 -> 192 ;
193 [label=<AberturaExperiencia &le; 0.28<br/>gini = 0.48<br/>samples = 10<br/>value = [6, 4]<br/>class = Não Usuario>, fillcolor="#f6d5bd"] ;
191 -> 193 ;
194 [label=<gini = 0.0<br/>samples = 2<br/>value = [0, 2]<br/>class = Usuario>, fillcolor="#399de5"] ;
193 -> 194 ;
195 [label=<Conscienciosidade &le; 0.67<br/>gini = 0.375<br/>samples = 8<br/>value = [6, 2]<br/>class = Não Usuario>, fillcolor="#eeab7b"] ;
193 -> 195 ;
196 [label=<AberturaExperiencia &le; 0.635<br/>gini = 0.444<br/>samples = 3<br/>value = [1, 2]<br/>class = Usuario>, fillcolor="#9ccef2"] ;
195 -> 196 ;
197 [label=<gini = 0.0<br/>samples = 2<br/>value = [0, 2]<br/>class = Usuario>, fillcolor="#399de5"] ;
196 -> 197 ;
198 [label=<gini = 0.0<br/>samples = 1<br/>value = [1, 0]<br/>class = Não Usuario>, fillcolor="#e58139"] ;
196 -> 198 ;
199 [label=<gini = 0.0<br/>samples = 5<br/>value = [5, 0]<br/>class = Não Usuario>, fillcolor="#e58139"] ;
195 -> 199 ;
200 [label=<BuscaPorExperiencias &le; 0.298<br/>gini = 0.228<br/>samples = 389<br/>value = [338, 51]<br/>class = Não Usuario>, fillcolor="#e99457"] ;
30 -> 200 ;
201 [label=<AberturaExperiencia &le; 0.2<br/>gini = 0.134<br/>samples = 207<br/>value = [192, 15]<br/>class = Não Usuario>, fillcolor="#e78b48"] ;
200 -> 201 ;
202 [label=<gini = 0.0<br/>samples = 1<br/>value = [0, 1]<br/>class = Usuario>, fillcolor="#399de5"] ;
201 -> 202 ;
203 [label=<AberturaExperiencia &le; 0.877<br/>gini = 0.127<br/>samples = 206<br/>value = [192, 14]<br/>class = Não Usuario>, fillcolor="#e78a47"] ;
201 -> 203 ;
204 [label=<Conscienciosidade &le; 0.441<br/>gini = 0.112<br/>samples = 202<br/>value = [190, 12]<br/>class = Não Usuario>, fillcolor="#e78946"] ;
203 -> 204 ;
205 [label=<Agradabilidade &le; 0.32<br/>gini = 0.42<br/>samples = 10<br/>value = [7, 3]<br/>class = Não Usuario>, fillcolor="#f0b78e"] ;
204 -> 205 ;
206 [label=<gini = 0.0<br/>samples = 1<br/>value = [0, 1]<br/>class = Usuario>, fillcolor="#399de5"] ;
205 -> 206 ;
207 [label=<InstabilidadeEmocional &le; 0.738<br/>gini = 0.346<br/>samples = 9<br/>value = [7, 2]<br/>class = Não Usuario>, fillcolor="#eca572"] ;
205 -> 207 ;
208 [label=<Extroversao &le; 0.786<br/>gini = 0.219<br/>samples = 8<br/>value = [7, 1]<br/>class = Não Usuario>, fillcolor="#e99355"] ;
207 -> 208 ;
209 [label=<gini = 0.0<br/>samples = 5<br/>value = [5, 0]<br/>class = Não Usuario>, fillcolor="#e58139"] ;
208 -> 209 ;
210 [label=<Extroversao &le; 0.835<br/>gini = 0.444<br/>samples = 3<br/>value = [2, 1]<br/>class = Não Usuario>, fillcolor="#f2c09c"] ;
208 -> 210 ;
211 [label=<gini = 0.0<br/>samples = 1<br/>value = [0, 1]<br/>class = Usuario>, fillcolor="#399de5"] ;
210 -> 211 ;
212 [label=<gini = 0.0<br/>samples = 2<br/>value = [2, 0]<br/>class = Não Usuario>, fillcolor="#e58139"] ;
210 -> 212 ;
213 [label=<gini = 0.0<br/>samples = 1<br/>value = [0, 1]<br/>class = Usuario>, fillcolor="#399de5"] ;
207 -> 213 ;
214 [label=<Extroversao &le; 0.847<br/>gini = 0.089<br/>samples = 192<br/>value = [183, 9]<br/>class = Não Usuario>, fillcolor="#e68743"] ;
204 -> 214 ;
215 [label=<AberturaExperiencia &le; 0.233<br/>gini = 0.06<br/>samples = 161<br/>value = [156, 5]<br/>class = Não Usuario>, fillcolor="#e6853f"] ;
214 -> 215 ;
216 [label=<BuscaPorExperiencias &le; 0.15<br/>gini = 0.444<br/>samples = 3<br/>value = [2, 1]<br/>class = Não Usuario>, fillcolor="#f2c09c"] ;
215 -> 216 ;
217 [label=<gini = 0.0<br/>samples = 1<br/>value = [0, 1]<br/>class = Usuario>, fillcolor="#399de5"] ;
216 -> 217 ;
218 [label=<gini = 0.0<br/>samples = 2<br/>value = [2, 0]<br/>class = Não Usuario>, fillcolor="#e58139"] ;
216 -> 218 ;
219 [label=<InstabilidadeEmocional &le; 0.557<br/>gini = 0.049<br/>samples = 158<br/>value = [154, 4]<br/>class = Não Usuario>, fillcolor="#e6843e"] ;
215 -> 219 ;
220 [label=<Agradabilidade &le; 0.69<br/>gini = 0.219<br/>samples = 24<br/>value = [21, 3]<br/>class = Não Usuario>, fillcolor="#e99355"] ;
219 -> 220 ;
221 [label=<BuscaPorExperiencias &le; 0.003<br/>gini = 0.159<br/>samples = 23<br/>value = [21, 2]<br/>class = Não Usuario>, fillcolor="#e78d4c"] ;
220 -> 221 ;
222 [label=<Conscienciosidade &le; 0.539<br/>gini = 0.5<br/>samples = 4<br/>value = [2, 2]<br/>class = Não Usuario>, fillcolor="#ffffff"] ;
221 -> 222 ;
223 [label=<gini = 0.0<br/>samples = 2<br/>value = [0, 2]<br/>class = Usuario>, fillcolor="#399de5"] ;
222 -> 223 ;
224 [label=<gini = 0.0<br/>samples = 2<br/>value = [2, 0]<br/>class = Não Usuario>, fillcolor="#e58139"] ;
222 -> 224 ;
225 [label=<gini = 0.0<br/>samples = 19<br/>value = [19, 0]<br/>class = Não Usuario>, fillcolor="#e58139"] ;
221 -> 225 ;
226 [label=<gini = 0.0<br/>samples = 1<br/>value = [0, 1]<br/>class = Usuario>, fillcolor="#399de5"] ;
220 -> 226 ;
227 [label=<Agradabilidade &le; 0.667<br/>gini = 0.015<br/>samples = 134<br/>value = [133, 1]<br/>class = Não Usuario>, fillcolor="#e5823a"] ;
219 -> 227 ;
228 [label=<gini = 0.0<br/>samples = 111<br/>value = [111, 0]<br/>class = Não Usuario>, fillcolor="#e58139"] ;
227 -> 228 ;
229 [label=<Agradabilidade &le; 0.67<br/>gini = 0.083<br/>samples = 23<br/>value = [22, 1]<br/>class = Não Usuario>, fillcolor="#e68742"] ;
227 -> 229 ;
230 [label=<gini = 0.0<br/>samples = 1<br/>value = [0, 1]<br/>class = Usuario>, fillcolor="#399de5"] ;
229 -> 230 ;
231 [label=<gini = 0.0<br/>samples = 22<br/>value = [22, 0]<br/>class = Não Usuario>, fillcolor="#e58139"] ;
229 -> 231 ;
232 [label=<Agradabilidade &le; 0.5<br/>gini = 0.225<br/>samples = 31<br/>value = [27, 4]<br/>class = Não Usuario>, fillcolor="#e99456"] ;
214 -> 232 ;
233 [label=<InstabilidadeEmocional &le; 0.725<br/>gini = 0.5<br/>samples = 4<br/>value = [2, 2]<br/>class = Não Usuario>, fillcolor="#ffffff"] ;
232 -> 233 ;
234 [label=<AberturaExperiencia &le; 0.335<br/>gini = 0.444<br/>samples = 3<br/>value = [1, 2]<br/>class = Usuario>, fillcolor="#9ccef2"] ;
233 -> 234 ;
235 [label=<gini = 0.0<br/>samples = 1<br/>value = [1, 0]<br/>class = Não Usuario>, fillcolor="#e58139"] ;
234 -> 235 ;
236 [label=<gini = 0.0<br/>samples = 2<br/>value = [0, 2]<br/>class = Usuario>, fillcolor="#399de5"] ;
234 -> 236 ;
237 [label=<gini = 0.0<br/>samples = 1<br/>value = [1, 0]<br/>class = Não Usuario>, fillcolor="#e58139"] ;
233 -> 237 ;
238 [label=<Extroversao &le; 0.851<br/>gini = 0.137<br/>samples = 27<br/>value = [25, 2]<br/>class = Não Usuario>, fillcolor="#e78b49"] ;
232 -> 238 ;
239 [label=<Agradabilidade &le; 0.61<br/>gini = 0.444<br/>samples = 3<br/>value = [2, 1]<br/>class = Não Usuario>, fillcolor="#f2c09c"] ;
238 -> 239 ;
240 [label=<gini = 0.0<br/>samples = 2<br/>value = [2, 0]<br/>class = Não Usuario>, fillcolor="#e58139"] ;
239 -> 240 ;
241 [label=<gini = 0.0<br/>samples = 1<br/>value = [0, 1]<br/>class = Usuario>, fillcolor="#399de5"] ;
239 -> 241 ;
242 [label=<Conscienciosidade &le; 0.66<br/>gini = 0.08<br/>samples = 24<br/>value = [23, 1]<br/>class = Não Usuario>, fillcolor="#e68642"] ;
238 -> 242 ;
243 [label=<gini = 0.0<br/>samples = 20<br/>value = [20, 0]<br/>class = Não Usuario>, fillcolor="#e58139"] ;
242 -> 243 ;
244 [label=<Agradabilidade &le; 0.57<br/>gini = 0.375<br/>samples = 4<br/>value = [3, 1]<br/>class = Não Usuario>, fillcolor="#eeab7b"] ;
242 -> 244 ;
245 [label=<gini = 0.0<br/>samples = 1<br/>value = [0, 1]<br/>class = Usuario>, fillcolor="#399de5"] ;
244 -> 245 ;
246 [label=<gini = 0.0<br/>samples = 3<br/>value = [3, 0]<br/>class = Não Usuario>, fillcolor="#e58139"] ;
244 -> 246 ;
247 [label=<Extroversao &le; 0.783<br/>gini = 0.5<br/>samples = 4<br/>value = [2, 2]<br/>class = Não Usuario>, fillcolor="#ffffff"] ;
203 -> 247 ;
248 [label=<gini = 0.0<br/>samples = 2<br/>value = [2, 0]<br/>class = Não Usuario>, fillcolor="#e58139"] ;
247 -> 248 ;
249 [label=<gini = 0.0<br/>samples = 2<br/>value = [0, 2]<br/>class = Usuario>, fillcolor="#399de5"] ;
247 -> 249 ;
250 [label=<AberturaExperiencia &le; 0.645<br/>gini = 0.317<br/>samples = 182<br/>value = [146, 36]<br/>class = Não Usuario>, fillcolor="#eba06a"] ;
200 -> 250 ;
251 [label=<Conscienciosidade &le; 0.506<br/>gini = 0.229<br/>samples = 159<br/>value = [138, 21]<br/>class = Não Usuario>, fillcolor="#e99457"] ;
250 -> 251 ;
252 [label=<InstabilidadeEmocional &le; 0.703<br/>gini = 0.48<br/>samples = 20<br/>value = [12, 8]<br/>class = Não Usuario>, fillcolor="#f6d5bd"] ;
251 -> 252 ;
253 [label=<Agradabilidade &le; 0.613<br/>gini = 0.278<br/>samples = 12<br/>value = [10, 2]<br/>class = Não Usuario>, fillcolor="#ea9a61"] ;
252 -> 253 ;
254 [label=<Impulsividade &le; 0.385<br/>gini = 0.165<br/>samples = 11<br/>value = [10, 1]<br/>class = Não Usuario>, fillcolor="#e88e4d"] ;
253 -> 254 ;
255 [label=<gini = 0.0<br/>samples = 8<br/>value = [8, 0]<br/>class = Não Usuario>, fillcolor="#e58139"] ;
254 -> 255 ;
256 [label=<AberturaExperiencia &le; 0.335<br/>gini = 0.444<br/>samples = 3<br/>value = [2, 1]<br/>class = Não Usuario>, fillcolor="#f2c09c"] ;
254 -> 256 ;
257 [label=<gini = 0.0<br/>samples = 1<br/>value = [0, 1]<br/>class = Usuario>, fillcolor="#399de5"] ;
256 -> 257 ;
258 [label=<gini = 0.0<br/>samples = 2<br/>value = [2, 0]<br/>class = Não Usuario>, fillcolor="#e58139"] ;
256 -> 258 ;
259 [label=<gini = 0.0<br/>samples = 1<br/>value = [0, 1]<br/>class = Usuario>, fillcolor="#399de5"] ;
253 -> 259 ;
260 [label=<AberturaExperiencia &le; 0.34<br/>gini = 0.375<br/>samples = 8<br/>value = [2, 6]<br/>class = Usuario>, fillcolor="#7bbeee"] ;
252 -> 260 ;
261 [label=<InstabilidadeEmocional &le; 0.855<br/>gini = 0.444<br/>samples = 3<br/>value = [2, 1]<br/>class = Não Usuario>, fillcolor="#f2c09c"] ;
260 -> 261 ;
262 [label=<gini = 0.0<br/>samples = 2<br/>value = [2, 0]<br/>class = Não Usuario>, fillcolor="#e58139"] ;
261 -> 262 ;
263 [label=<gini = 0.0<br/>samples = 1<br/>value = [0, 1]<br/>class = Usuario>, fillcolor="#399de5"] ;
261 -> 263 ;
264 [label=<gini = 0.0<br/>samples = 5<br/>value = [0, 5]<br/>class = Usuario>, fillcolor="#399de5"] ;
260 -> 264 ;
265 [label=<AberturaExperiencia &le; 0.145<br/>gini = 0.17<br/>samples = 139<br/>value = [126, 13]<br/>class = Não Usuario>, fillcolor="#e88e4d"] ;
251 -> 265 ;
266 [label=<gini = 0.0<br/>samples = 1<br/>value = [0, 1]<br/>class = Usuario>, fillcolor="#399de5"] ;
265 -> 266 ;
267 [label=<Extroversao &le; 0.94<br/>gini = 0.159<br/>samples = 138<br/>value = [126, 12]<br/>class = Não Usuario>, fillcolor="#e78d4c"] ;
265 -> 267 ;
268 [label=<Impulsividade &le; 0.055<br/>gini = 0.148<br/>samples = 137<br/>value = [126, 11]<br/>class = Não Usuario>, fillcolor="#e78c4a"] ;
267 -> 268 ;
269 [label=<gini = 0.0<br/>samples = 1<br/>value = [0, 1]<br/>class = Usuario>, fillcolor="#399de5"] ;
268 -> 269 ;
270 [label=<Impulsividade &le; 0.112<br/>gini = 0.136<br/>samples = 136<br/>value = [126, 10]<br/>class = Não Usuario>, fillcolor="#e78b49"] ;
268 -> 270 ;
271 [label=<AberturaExperiencia &le; 0.51<br/>gini = 0.355<br/>samples = 13<br/>value = [10, 3]<br/>class = Não Usuario>, fillcolor="#eda774"] ;
270 -> 271 ;
272 [label=<Conscienciosidade &le; 0.689<br/>gini = 0.278<br/>samples = 12<br/>value = [10, 2]<br/>class = Não Usuario>, fillcolor="#ea9a61"] ;
271 -> 272 ;
273 [label=<AberturaExperiencia &le; 0.336<br/>gini = 0.18<br/>samples = 10<br/>value = [9, 1]<br/>class = Não Usuario>, fillcolor="#e88f4f"] ;
272 -> 273 ;
274 [label=<AberturaExperiencia &le; 0.283<br/>gini = 0.5<br/>samples = 2<br/>value = [1, 1]<br/>class = Não Usuario>, fillcolor="#ffffff"] ;
273 -> 274 ;
275 [label=<gini = 0.0<br/>samples = 1<br/>value = [1, 0]<br/>class = Não Usuario>, fillcolor="#e58139"] ;
274 -> 275 ;
276 [label=<gini = 0.0<br/>samples = 1<br/>value = [0, 1]<br/>class = Usuario>, fillcolor="#399de5"] ;
274 -> 276 ;
277 [label=<gini = 0.0<br/>samples = 8<br/>value = [8, 0]<br/>class = Não Usuario>, fillcolor="#e58139"] ;
273 -> 277 ;
278 [label=<InstabilidadeEmocional &le; 0.674<br/>gini = 0.5<br/>samples = 2<br/>value = [1, 1]<br/>class = Não Usuario>, fillcolor="#ffffff"] ;
272 -> 278 ;
279 [label=<gini = 0.0<br/>samples = 1<br/>value = [1, 0]<br/>class = Não Usuario>, fillcolor="#e58139"] ;
278 -> 279 ;
280 [label=<gini = 0.0<br/>samples = 1<br/>value = [0, 1]<br/>class = Usuario>, fillcolor="#399de5"] ;
278 -> 280 ;
281 [label=<gini = 0.0<br/>samples = 1<br/>value = [0, 1]<br/>class = Usuario>, fillcolor="#399de5"] ;
271 -> 281 ;
282 [label=<InstabilidadeEmocional &le; 0.64<br/>gini = 0.107<br/>samples = 123<br/>value = [116, 7]<br/>class = Não Usuario>, fillcolor="#e78945"] ;
270 -> 282 ;
283 [label=<Impulsividade &le; 0.43<br/>gini = 0.214<br/>samples = 41<br/>value = [36, 5]<br/>class = Não Usuario>, fillcolor="#e99254"] ;
282 -> 283 ;
284 [label=<InstabilidadeEmocional &le; 0.64<br/>gini = 0.142<br/>samples = 39<br/>value = [36, 3]<br/>class = Não Usuario>, fillcolor="#e78c49"] ;
283 -> 284 ;
285 [label=<Extroversao &le; 0.769<br/>gini = 0.1<br/>samples = 38<br/>value = [36, 2]<br/>class = Não Usuario>, fillcolor="#e68844"] ;
284 -> 285 ;
286 [label=<gini = 0.0<br/>samples = 30<br/>value = [30, 0]<br/>class = Não Usuario>, fillcolor="#e58139"] ;
285 -> 286 ;
287 [label=<Agradabilidade &le; 0.685<br/>gini = 0.375<br/>samples = 8<br/>value = [6, 2]<br/>class = Não Usuario>, fillcolor="#eeab7b"] ;
285 -> 287 ;
288 [label=<BuscaPorExperiencias &le; 0.35<br/>gini = 0.444<br/>samples = 3<br/>value = [1, 2]<br/>class = Usuario>, fillcolor="#9ccef2"] ;
287 -> 288 ;
289 [label=<gini = 0.0<br/>samples = 1<br/>value = [1, 0]<br/>class = Não Usuario>, fillcolor="#e58139"] ;
288 -> 289 ;
290 [label=<gini = 0.0<br/>samples = 2<br/>value = [0, 2]<br/>class = Usuario>, fillcolor="#399de5"] ;
288 -> 290 ;
291 [label=<gini = 0.0<br/>samples = 5<br/>value = [5, 0]<br/>class = Não Usuario>, fillcolor="#e58139"] ;
287 -> 291 ;
292 [label=<gini = 0.0<br/>samples = 1<br/>value = [0, 1]<br/>class = Usuario>, fillcolor="#399de5"] ;
284 -> 292 ;
293 [label=<gini = 0.0<br/>samples = 2<br/>value = [0, 2]<br/>class = Usuario>, fillcolor="#399de5"] ;
283 -> 293 ;
294 [label=<AberturaExperiencia &le; 0.211<br/>gini = 0.048<br/>samples = 82<br/>value = [80, 2]<br/>class = Não Usuario>, fillcolor="#e6843e"] ;
282 -> 294 ;
295 [label=<Extroversao &le; 0.74<br/>gini = 0.444<br/>samples = 3<br/>value = [2, 1]<br/>class = Não Usuario>, fillcolor="#f2c09c"] ;
294 -> 295 ;
296 [label=<gini = 0.0<br/>samples = 2<br/>value = [2, 0]<br/>class = Não Usuario>, fillcolor="#e58139"] ;
295 -> 296 ;
297 [label=<gini = 0.0<br/>samples = 1<br/>value = [0, 1]<br/>class = Usuario>, fillcolor="#399de5"] ;
295 -> 297 ;
298 [label=<Agradabilidade &le; 0.702<br/>gini = 0.025<br/>samples = 79<br/>value = [78, 1]<br/>class = Não Usuario>, fillcolor="#e5833c"] ;
294 -> 298 ;
299 [label=<gini = 0.0<br/>samples = 68<br/>value = [68, 0]<br/>class = Não Usuario>, fillcolor="#e58139"] ;
298 -> 299 ;
300 [label=<Agradabilidade &le; 0.714<br/>gini = 0.165<br/>samples = 11<br/>value = [10, 1]<br/>class = Não Usuario>, fillcolor="#e88e4d"] ;
298 -> 300 ;
301 [label=<gini = 0.0<br/>samples = 1<br/>value = [0, 1]<br/>class = Usuario>, fillcolor="#399de5"] ;
300 -> 301 ;
302 [label=<gini = 0.0<br/>samples = 10<br/>value = [10, 0]<br/>class = Não Usuario>, fillcolor="#e58139"] ;
300 -> 302 ;
303 [label=<gini = 0.0<br/>samples = 1<br/>value = [0, 1]<br/>class = Usuario>, fillcolor="#399de5"] ;
267 -> 303 ;
304 [label=<AberturaExperiencia &le; 0.888<br/>gini = 0.454<br/>samples = 23<br/>value = [8, 15]<br/>class = Usuario>, fillcolor="#a3d1f3"] ;
250 -> 304 ;
305 [label=<InstabilidadeEmocional &le; 0.461<br/>gini = 0.291<br/>samples = 17<br/>value = [3, 14]<br/>class = Usuario>, fillcolor="#63b2eb"] ;
304 -> 305 ;
306 [label=<gini = 0.0<br/>samples = 3<br/>value = [3, 0]<br/>class = Não Usuario>, fillcolor="#e58139"] ;
305 -> 306 ;
307 [label=<gini = 0.0<br/>samples = 14<br/>value = [0, 14]<br/>class = Usuario>, fillcolor="#399de5"] ;
305 -> 307 ;
308 [label=<Extroversao &le; 0.855<br/>gini = 0.278<br/>samples = 6<br/>value = [5, 1]<br/>class = Não Usuario>, fillcolor="#ea9a61"] ;
304 -> 308 ;
309 [label=<gini = 0.0<br/>samples = 5<br/>value = [5, 0]<br/>class = Não Usuario>, fillcolor="#e58139"] ;
308 -> 309 ;
310 [label=<gini = 0.0<br/>samples = 1<br/>value = [0, 1]<br/>class = Usuario>, fillcolor="#399de5"] ;
308 -> 310 ;
311 [label=<Extroversao &le; 0.71<br/>gini = 0.494<br/>samples = 343<br/>value = [190, 153]<br/>class = Não Usuario>, fillcolor="#fae6d8"] ;
29 -> 311 ;
312 [label=<BuscaPorExperiencias &le; 0.392<br/>gini = 0.486<br/>samples = 159<br/>value = [66, 93]<br/>class = Usuario>, fillcolor="#c6e3f7"] ;
311 -> 312 ;
313 [label=<BuscaPorExperiencias &le; 0.223<br/>gini = 0.482<br/>samples = 74<br/>value = [44, 30]<br/>class = Não Usuario>, fillcolor="#f7d7c0"] ;
312 -> 313 ;
314 [label=<Agradabilidade &le; 0.61<br/>gini = 0.386<br/>samples = 23<br/>value = [6, 17]<br/>class = Usuario>, fillcolor="#7fc0ee"] ;
313 -> 314 ;
315 [label=<gini = 0.0<br/>samples = 14<br/>value = [0, 14]<br/>class = Usuario>, fillcolor="#399de5"] ;
314 -> 315 ;
316 [label=<Agradabilidade &le; 0.68<br/>gini = 0.444<br/>samples = 9<br/>value = [6, 3]<br/>class = Não Usuario>, fillcolor="#f2c09c"] ;
314 -> 316 ;
317 [label=<Extroversao &le; 0.5<br/>gini = 0.245<br/>samples = 7<br/>value = [6, 1]<br/>class = Não Usuario>, fillcolor="#e9965a"] ;
316 -> 317 ;
318 [label=<gini = 0.0<br/>samples = 1<br/>value = [0, 1]<br/>class = Usuario>, fillcolor="#399de5"] ;
317 -> 318 ;
319 [label=<gini = 0.0<br/>samples = 6<br/>value = [6, 0]<br/>class = Não Usuario>, fillcolor="#e58139"] ;
317 -> 319 ;
320 [label=<gini = 0.0<br/>samples = 2<br/>value = [0, 2]<br/>class = Usuario>, fillcolor="#399de5"] ;
316 -> 320 ;
321 [label=<InstabilidadeEmocional &le; 0.612<br/>gini = 0.38<br/>samples = 51<br/>value = [38, 13]<br/>class = Não Usuario>, fillcolor="#eeac7d"] ;
313 -> 321 ;
322 [label=<AberturaExperiencia &le; 0.44<br/>gini = 0.375<br/>samples = 8<br/>value = [2, 6]<br/>class = Usuario>, fillcolor="#7bbeee"] ;
321 -> 322 ;
323 [label=<gini = 0.0<br/>samples = 5<br/>value = [0, 5]<br/>class = Usuario>, fillcolor="#399de5"] ;
322 -> 323 ;
324 [label=<Conscienciosidade &le; 0.77<br/>gini = 0.444<br/>samples = 3<br/>value = [2, 1]<br/>class = Não Usuario>, fillcolor="#f2c09c"] ;
322 -> 324 ;
325 [label=<gini = 0.0<br/>samples = 2<br/>value = [2, 0]<br/>class = Não Usuario>, fillcolor="#e58139"] ;
324 -> 325 ;
326 [label=<gini = 0.0<br/>samples = 1<br/>value = [0, 1]<br/>class = Usuario>, fillcolor="#399de5"] ;
324 -> 326 ;
327 [label=<Agradabilidade &le; 0.723<br/>gini = 0.273<br/>samples = 43<br/>value = [36, 7]<br/>class = Não Usuario>, fillcolor="#ea9a5f"] ;
321 -> 327 ;
328 [label=<AberturaExperiencia &le; 0.714<br/>gini = 0.214<br/>samples = 41<br/>value = [36, 5]<br/>class = Não Usuario>, fillcolor="#e99254"] ;
327 -> 328 ;
329 [label=<Agradabilidade &le; 0.375<br/>gini = 0.142<br/>samples = 39<br/>value = [36, 3]<br/>class = Não Usuario>, fillcolor="#e78c49"] ;
328 -> 329 ;
330 [label=<gini = 0.0<br/>samples = 1<br/>value = [0, 1]<br/>class = Usuario>, fillcolor="#399de5"] ;
329 -> 330 ;
331 [label=<AberturaExperiencia &le; 0.125<br/>gini = 0.1<br/>samples = 38<br/>value = [36, 2]<br/>class = Não Usuario>, fillcolor="#e68844"] ;
329 -> 331 ;
332 [label=<Conscienciosidade &le; 0.82<br/>gini = 0.5<br/>samples = 2<br/>value = [1, 1]<br/>class = Não Usuario>, fillcolor="#ffffff"] ;
331 -> 332 ;
333 [label=<gini = 0.0<br/>samples = 1<br/>value = [0, 1]<br/>class = Usuario>, fillcolor="#399de5"] ;
332 -> 333 ;
334 [label=<gini = 0.0<br/>samples = 1<br/>value = [1, 0]<br/>class = Não Usuario>, fillcolor="#e58139"] ;
332 -> 334 ;
335 [label=<Conscienciosidade &le; 0.821<br/>gini = 0.054<br/>samples = 36<br/>value = [35, 1]<br/>class = Não Usuario>, fillcolor="#e6853f"] ;
331 -> 335 ;
336 [label=<gini = 0.0<br/>samples = 35<br/>value = [35, 0]<br/>class = Não Usuario>, fillcolor="#e58139"] ;
335 -> 336 ;
337 [label=<gini = 0.0<br/>samples = 1<br/>value = [0, 1]<br/>class = Usuario>, fillcolor="#399de5"] ;
335 -> 337 ;
338 [label=<gini = 0.0<br/>samples = 2<br/>value = [0, 2]<br/>class = Usuario>, fillcolor="#399de5"] ;
328 -> 338 ;
339 [label=<gini = 0.0<br/>samples = 2<br/>value = [0, 2]<br/>class = Usuario>, fillcolor="#399de5"] ;
327 -> 339 ;
340 [label=<BuscaPorExperiencias &le; 0.505<br/>gini = 0.384<br/>samples = 85<br/>value = [22, 63]<br/>class = Usuario>, fillcolor="#7ebfee"] ;
312 -> 340 ;
341 [label=<InstabilidadeEmocional &le; 0.789<br/>gini = 0.366<br/>samples = 83<br/>value = [20, 63]<br/>class = Usuario>, fillcolor="#78bced"] ;
340 -> 341 ;
342 [label=<InstabilidadeEmocional &le; 0.746<br/>gini = 0.394<br/>samples = 74<br/>value = [20, 54]<br/>class = Usuario>, fillcolor="#82c1ef"] ;
341 -> 342 ;
343 [label=<Agradabilidade &le; 0.76<br/>gini = 0.338<br/>samples = 65<br/>value = [14, 51]<br/>class = Usuario>, fillcolor="#6fb8ec"] ;
342 -> 343 ;
344 [label=<AberturaExperiencia &le; 0.135<br/>gini = 0.312<br/>samples = 62<br/>value = [12, 50]<br/>class = Usuario>, fillcolor="#69b5eb"] ;
343 -> 344 ;
345 [label=<gini = 0.0<br/>samples = 1<br/>value = [1, 0]<br/>class = Não Usuario>, fillcolor="#e58139"] ;
344 -> 345 ;
346 [label=<Extroversao &le; 0.635<br/>gini = 0.296<br/>samples = 61<br/>value = [11, 50]<br/>class = Usuario>, fillcolor="#65b3eb"] ;
344 -> 346 ;
347 [label=<Extroversao &le; 0.49<br/>gini = 0.394<br/>samples = 37<br/>value = [10, 27]<br/>class = Usuario>, fillcolor="#82c1ef"] ;
346 -> 347 ;
348 [label=<gini = 0.0<br/>samples = 8<br/>value = [0, 8]<br/>class = Usuario>, fillcolor="#399de5"] ;
347 -> 348 ;
349 [label=<AberturaExperiencia &le; 0.55<br/>gini = 0.452<br/>samples = 29<br/>value = [10, 19]<br/>class = Usuario>, fillcolor="#a1d1f3"] ;
347 -> 349 ;
350 [label=<AberturaExperiencia &le; 0.447<br/>gini = 0.491<br/>samples = 23<br/>value = [10, 13]<br/>class = Usuario>, fillcolor="#d1e8f9"] ;
349 -> 350 ;
351 [label=<Agradabilidade &le; 0.509<br/>gini = 0.375<br/>samples = 16<br/>value = [4, 12]<br/>class = Usuario>, fillcolor="#7bbeee"] ;
350 -> 351 ;
352 [label=<Extroversao &le; 0.6<br/>gini = 0.48<br/>samples = 5<br/>value = [3, 2]<br/>class = Não Usuario>, fillcolor="#f6d5bd"] ;
351 -> 352 ;
353 [label=<Agradabilidade &le; 0.479<br/>gini = 0.444<br/>samples = 3<br/>value = [1, 2]<br/>class = Usuario>, fillcolor="#9ccef2"] ;
352 -> 353 ;
354 [label=<gini = 0.0<br/>samples = 2<br/>value = [0, 2]<br/>class = Usuario>, fillcolor="#399de5"] ;
353 -> 354 ;
355 [label=<gini = 0.0<br/>samples = 1<br/>value = [1, 0]<br/>class = Não Usuario>, fillcolor="#e58139"] ;
353 -> 355 ;
356 [label=<gini = 0.0<br/>samples = 2<br/>value = [2, 0]<br/>class = Não Usuario>, fillcolor="#e58139"] ;
352 -> 356 ;
357 [label=<Conscienciosidade &le; 0.72<br/>gini = 0.165<br/>samples = 11<br/>value = [1, 10]<br/>class = Usuario>, fillcolor="#4da7e8"] ;
351 -> 357 ;
358 [label=<Extroversao &le; 0.61<br/>gini = 0.444<br/>samples = 3<br/>value = [1, 2]<br/>class = Usuario>, fillcolor="#9ccef2"] ;
357 -> 358 ;
359 [label=<gini = 0.0<br/>samples = 2<br/>value = [0, 2]<br/>class = Usuario>, fillcolor="#399de5"] ;
358 -> 359 ;
360 [label=<gini = 0.0<br/>samples = 1<br/>value = [1, 0]<br/>class = Não Usuario>, fillcolor="#e58139"] ;
358 -> 360 ;
361 [label=<gini = 0.0<br/>samples = 8<br/>value = [0, 8]<br/>class = Usuario>, fillcolor="#399de5"] ;
357 -> 361 ;
362 [label=<InstabilidadeEmocional &le; 0.522<br/>gini = 0.245<br/>samples = 7<br/>value = [6, 1]<br/>class = Não Usuario>, fillcolor="#e9965a"] ;
350 -> 362 ;
363 [label=<AberturaExperiencia &le; 0.5<br/>gini = 0.5<br/>samples = 2<br/>value = [1, 1]<br/>class = Não Usuario>, fillcolor="#ffffff"] ;
362 -> 363 ;
364 [label=<gini = 0.0<br/>samples = 1<br/>value = [1, 0]<br/>class = Não Usuario>, fillcolor="#e58139"] ;
363 -> 364 ;
365 [label=<gini = 0.0<br/>samples = 1<br/>value = [0, 1]<br/>class = Usuario>, fillcolor="#399de5"] ;
363 -> 365 ;
366 [label=<gini = 0.0<br/>samples = 5<br/>value = [5, 0]<br/>class = Não Usuario>, fillcolor="#e58139"] ;
362 -> 366 ;
367 [label=<gini = 0.0<br/>samples = 6<br/>value = [0, 6]<br/>class = Usuario>, fillcolor="#399de5"] ;
349 -> 367 ;
368 [label=<InstabilidadeEmocional &le; 0.725<br/>gini = 0.08<br/>samples = 24<br/>value = [1, 23]<br/>class = Usuario>, fillcolor="#42a1e6"] ;
346 -> 368 ;
369 [label=<gini = 0.0<br/>samples = 23<br/>value = [0, 23]<br/>class = Usuario>, fillcolor="#399de5"] ;
368 -> 369 ;
370 [label=<gini = 0.0<br/>samples = 1<br/>value = [1, 0]<br/>class = Não Usuario>, fillcolor="#e58139"] ;
368 -> 370 ;
371 [label=<Extroversao &le; 0.7<br/>gini = 0.444<br/>samples = 3<br/>value = [2, 1]<br/>class = Não Usuario>, fillcolor="#f2c09c"] ;
343 -> 371 ;
372 [label=<gini = 0.0<br/>samples = 1<br/>value = [0, 1]<br/>class = Usuario>, fillcolor="#399de5"] ;
371 -> 372 ;
373 [label=<gini = 0.0<br/>samples = 2<br/>value = [2, 0]<br/>class = Não Usuario>, fillcolor="#e58139"] ;
371 -> 373 ;
374 [label=<Conscienciosidade &le; 0.769<br/>gini = 0.444<br/>samples = 9<br/>value = [6, 3]<br/>class = Não Usuario>, fillcolor="#f2c09c"] ;
342 -> 374 ;
375 [label=<gini = 0.0<br/>samples = 4<br/>value = [4, 0]<br/>class = Não Usuario>, fillcolor="#e58139"] ;
374 -> 375 ;
376 [label=<Agradabilidade &le; 0.57<br/>gini = 0.48<br/>samples = 5<br/>value = [2, 3]<br/>class = Usuario>, fillcolor="#bddef6"] ;
374 -> 376 ;
377 [label=<AberturaExperiencia &le; 0.45<br/>gini = 0.444<br/>samples = 3<br/>value = [2, 1]<br/>class = Não Usuario>, fillcolor="#f2c09c"] ;
376 -> 377 ;
378 [label=<gini = 0.0<br/>samples = 1<br/>value = [0, 1]<br/>class = Usuario>, fillcolor="#399de5"] ;
377 -> 378 ;
379 [label=<gini = 0.0<br/>samples = 2<br/>value = [2, 0]<br/>class = Não Usuario>, fillcolor="#e58139"] ;
377 -> 379 ;
380 [label=<gini = 0.0<br/>samples = 2<br/>value = [0, 2]<br/>class = Usuario>, fillcolor="#399de5"] ;
376 -> 380 ;
381 [label=<gini = 0.0<br/>samples = 9<br/>value = [0, 9]<br/>class = Usuario>, fillcolor="#399de5"] ;
341 -> 381 ;
382 [label=<gini = 0.0<br/>samples = 2<br/>value = [2, 0]<br/>class = Não Usuario>, fillcolor="#e58139"] ;
340 -> 382 ;
383 [label=<Agradabilidade &le; 0.502<br/>gini = 0.44<br/>samples = 184<br/>value = [124, 60]<br/>class = Não Usuario>, fillcolor="#f2be99"] ;
311 -> 383 ;
384 [label=<BuscaPorExperiencias &le; 0.45<br/>gini = 0.365<br/>samples = 25<br/>value = [6, 19]<br/>class = Usuario>, fillcolor="#78bced"] ;
383 -> 384 ;
385 [label=<Agradabilidade &le; 0.42<br/>gini = 0.469<br/>samples = 16<br/>value = [6, 10]<br/>class = Usuario>, fillcolor="#b0d8f5"] ;
384 -> 385 ;
386 [label=<gini = 0.0<br/>samples = 6<br/>value = [0, 6]<br/>class = Usuario>, fillcolor="#399de5"] ;
385 -> 386 ;
387 [label=<Impulsividade &le; 0.153<br/>gini = 0.48<br/>samples = 10<br/>value = [6, 4]<br/>class = Não Usuario>, fillcolor="#f6d5bd"] ;
385 -> 387 ;
388 [label=<Conscienciosidade &le; 0.74<br/>gini = 0.32<br/>samples = 5<br/>value = [1, 4]<br/>class = Usuario>, fillcolor="#6ab6ec"] ;
387 -> 388 ;
389 [label=<gini = 0.0<br/>samples = 4<br/>value = [0, 4]<br/>class = Usuario>, fillcolor="#399de5"] ;
388 -> 389 ;
390 [label=<gini = 0.0<br/>samples = 1<br/>value = [1, 0]<br/>class = Não Usuario>, fillcolor="#e58139"] ;
388 -> 390 ;
391 [label=<gini = 0.0<br/>samples = 5<br/>value = [5, 0]<br/>class = Não Usuario>, fillcolor="#e58139"] ;
387 -> 391 ;
392 [label=<gini = 0.0<br/>samples = 9<br/>value = [0, 9]<br/>class = Usuario>, fillcolor="#399de5"] ;
384 -> 392 ;
393 [label=<Conscienciosidade &le; 0.892<br/>gini = 0.383<br/>samples = 159<br/>value = [118, 41]<br/>class = Não Usuario>, fillcolor="#eead7e"] ;
383 -> 393 ;
394 [label=<Extroversao &le; 0.88<br/>gini = 0.334<br/>samples = 146<br/>value = [115, 31]<br/>class = Não Usuario>, fillcolor="#eca36e"] ;
393 -> 394 ;
395 [label=<Extroversao &le; 0.79<br/>gini = 0.294<br/>samples = 134<br/>value = [110, 24]<br/>class = Não Usuario>, fillcolor="#eb9c64"] ;
394 -> 395 ;
396 [label=<Conscienciosidade &le; 0.711<br/>gini = 0.405<br/>samples = 78<br/>value = [56, 22]<br/>class = Não Usuario>, fillcolor="#efb287"] ;
395 -> 396 ;
397 [label=<Impulsividade &le; 0.165<br/>gini = 0.444<br/>samples = 9<br/>value = [3, 6]<br/>class = Usuario>, fillcolor="#9ccef2"] ;
396 -> 397 ;
398 [label=<gini = 0.0<br/>samples = 3<br/>value = [3, 0]<br/>class = Não Usuario>, fillcolor="#e58139"] ;
397 -> 398 ;
399 [label=<gini = 0.0<br/>samples = 6<br/>value = [0, 6]<br/>class = Usuario>, fillcolor="#399de5"] ;
397 -> 399 ;
400 [label=<Conscienciosidade &le; 0.79<br/>gini = 0.356<br/>samples = 69<br/>value = [53, 16]<br/>class = Não Usuario>, fillcolor="#eda775"] ;
396 -> 400 ;
401 [label=<Extroversao &le; 0.769<br/>gini = 0.265<br/>samples = 51<br/>value = [43, 8]<br/>class = Não Usuario>, fillcolor="#ea985e"] ;
400 -> 401 ;
402 [label=<InstabilidadeEmocional &le; 0.627<br/>gini = 0.139<br/>samples = 40<br/>value = [37, 3]<br/>class = Não Usuario>, fillcolor="#e78b49"] ;
401 -> 402 ;
403 [label=<BuscaPorExperiencias &le; 0.323<br/>gini = 0.469<br/>samples = 8<br/>value = [5, 3]<br/>class = Não Usuario>, fillcolor="#f5cdb0"] ;
402 -> 403 ;
404 [label=<gini = 0.0<br/>samples = 4<br/>value = [4, 0]<br/>class = Não Usuario>, fillcolor="#e58139"] ;
403 -> 404 ;
405 [label=<Extroversao &le; 0.73<br/>gini = 0.375<br/>samples = 4<br/>value = [1, 3]<br/>class = Usuario>, fillcolor="#7bbeee"] ;
403 -> 405 ;
406 [label=<gini = 0.0<br/>samples = 1<br/>value = [1, 0]<br/>class = Não Usuario>, fillcolor="#e58139"] ;
405 -> 406 ;
407 [label=<gini = 0.0<br/>samples = 3<br/>value = [0, 3]<br/>class = Usuario>, fillcolor="#399de5"] ;
405 -> 407 ;
408 [label=<gini = 0.0<br/>samples = 32<br/>value = [32, 0]<br/>class = Não Usuario>, fillcolor="#e58139"] ;
402 -> 408 ;
409 [label=<Agradabilidade &le; 0.774<br/>gini = 0.496<br/>samples = 11<br/>value = [6, 5]<br/>class = Não Usuario>, fillcolor="#fbeade"] ;
401 -> 409 ;
410 [label=<InstabilidadeEmocional &le; 0.855<br/>gini = 0.278<br/>samples = 6<br/>value = [1, 5]<br/>class = Usuario>, fillcolor="#61b1ea"] ;
409 -> 410 ;
411 [label=<gini = 0.0<br/>samples = 5<br/>value = [0, 5]<br/>class = Usuario>, fillcolor="#399de5"] ;
410 -> 411 ;
412 [label=<gini = 0.0<br/>samples = 1<br/>value = [1, 0]<br/>class = Não Usuario>, fillcolor="#e58139"] ;
410 -> 412 ;
413 [label=<gini = 0.0<br/>samples = 5<br/>value = [5, 0]<br/>class = Não Usuario>, fillcolor="#e58139"] ;
409 -> 413 ;
414 [label=<Extroversao &le; 0.76<br/>gini = 0.494<br/>samples = 18<br/>value = [10, 8]<br/>class = Não Usuario>, fillcolor="#fae6d7"] ;
400 -> 414 ;
415 [label=<gini = 0.0<br/>samples = 5<br/>value = [0, 5]<br/>class = Usuario>, fillcolor="#399de5"] ;
414 -> 415 ;
416 [label=<Conscienciosidade &le; 0.816<br/>gini = 0.355<br/>samples = 13<br/>value = [10, 3]<br/>class = Não Usuario>, fillcolor="#eda774"] ;
414 -> 416 ;
417 [label=<Impulsividade &le; 0.275<br/>gini = 0.375<br/>samples = 4<br/>value = [1, 3]<br/>class = Usuario>, fillcolor="#7bbeee"] ;
416 -> 417 ;
418 [label=<gini = 0.0<br/>samples = 3<br/>value = [0, 3]<br/>class = Usuario>, fillcolor="#399de5"] ;
417 -> 418 ;
419 [label=<gini = 0.0<br/>samples = 1<br/>value = [1, 0]<br/>class = Não Usuario>, fillcolor="#e58139"] ;
417 -> 419 ;
420 [label=<gini = 0.0<br/>samples = 9<br/>value = [9, 0]<br/>class = Não Usuario>, fillcolor="#e58139"] ;
416 -> 420 ;
421 [label=<Agradabilidade &le; 0.54<br/>gini = 0.069<br/>samples = 56<br/>value = [54, 2]<br/>class = Não Usuario>, fillcolor="#e68640"] ;
395 -> 421 ;
422 [label=<Conscienciosidade &le; 0.731<br/>gini = 0.408<br/>samples = 7<br/>value = [5, 2]<br/>class = Não Usuario>, fillcolor="#efb388"] ;
421 -> 422 ;
423 [label=<gini = 0.0<br/>samples = 2<br/>value = [0, 2]<br/>class = Usuario>, fillcolor="#399de5"] ;
422 -> 423 ;
424 [label=<gini = 0.0<br/>samples = 5<br/>value = [5, 0]<br/>class = Não Usuario>, fillcolor="#e58139"] ;
422 -> 424 ;
425 [label=<gini = 0.0<br/>samples = 49<br/>value = [49, 0]<br/>class = Não Usuario>, fillcolor="#e58139"] ;
421 -> 425 ;
426 [label=<AberturaExperiencia &le; 0.385<br/>gini = 0.486<br/>samples = 12<br/>value = [5, 7]<br/>class = Usuario>, fillcolor="#c6e3f8"] ;
394 -> 426 ;
427 [label=<gini = 0.0<br/>samples = 4<br/>value = [4, 0]<br/>class = Não Usuario>, fillcolor="#e58139"] ;
426 -> 427 ;
428 [label=<InstabilidadeEmocional &le; 0.56<br/>gini = 0.219<br/>samples = 8<br/>value = [1, 7]<br/>class = Usuario>, fillcolor="#55abe9"] ;
426 -> 428 ;
429 [label=<Conscienciosidade &le; 0.78<br/>gini = 0.5<br/>samples = 2<br/>value = [1, 1]<br/>class = Não Usuario>, fillcolor="#ffffff"] ;
428 -> 429 ;
430 [label=<gini = 0.0<br/>samples = 1<br/>value = [0, 1]<br/>class = Usuario>, fillcolor="#399de5"] ;
429 -> 430 ;
431 [label=<gini = 0.0<br/>samples = 1<br/>value = [1, 0]<br/>class = Não Usuario>, fillcolor="#e58139"] ;
429 -> 431 ;
432 [label=<gini = 0.0<br/>samples = 6<br/>value = [0, 6]<br/>class = Usuario>, fillcolor="#399de5"] ;
428 -> 432 ;
433 [label=<AberturaExperiencia &le; 0.635<br/>gini = 0.355<br/>samples = 13<br/>value = [3, 10]<br/>class = Usuario>, fillcolor="#74baed"] ;
393 -> 433 ;
434 [label=<AberturaExperiencia &le; 0.51<br/>gini = 0.5<br/>samples = 6<br/>value = [3, 3]<br/>class = Não Usuario>, fillcolor="#ffffff"] ;
433 -> 434 ;
435 [label=<gini = 0.0<br/>samples = 3<br/>value = [0, 3]<br/>class = Usuario>, fillcolor="#399de5"] ;
434 -> 435 ;
436 [label=<gini = 0.0<br/>samples = 3<br/>value = [3, 0]<br/>class = Não Usuario>, fillcolor="#e58139"] ;
434 -> 436 ;
437 [label=<gini = 0.0<br/>samples = 7<br/>value = [0, 7]<br/>class = Usuario>, fillcolor="#399de5"] ;
433 -> 437 ;
438 [label=<InstabilidadeEmocional &le; 0.64<br/>gini = 0.33<br/>samples = 796<br/>value = [166, 630]<br/>class = Usuario>, fillcolor="#6db7ec"] ;
0 -> 438 [labeldistance=2.5, labelangle=-45, headlabel="False"] ;
439 [label=<Conscienciosidade &le; 0.708<br/>gini = 0.184<br/>samples = 535<br/>value = [55, 480]<br/>class = Usuario>, fillcolor="#50a8e8"] ;
438 -> 439 ;
440 [label=<Impulsividade &le; 0.788<br/>gini = 0.346<br/>samples = 175<br/>value = [39, 136]<br/>class = Usuario>, fillcolor="#72b9ec"] ;
439 -> 440 ;
441 [label=<Conscienciosidade &le; 0.694<br/>gini = 0.278<br/>samples = 144<br/>value = [24, 120]<br/>class = Usuario>, fillcolor="#61b1ea"] ;
440 -> 441 ;
442 [label=<AberturaExperiencia &le; 0.449<br/>gini = 0.254<br/>samples = 141<br/>value = [21, 120]<br/>class = Usuario>, fillcolor="#5caeea"] ;
441 -> 442 ;
443 [label=<Agradabilidade &le; 0.83<br/>gini = 0.062<br/>samples = 62<br/>value = [2, 60]<br/>class = Usuario>, fillcolor="#40a0e6"] ;
442 -> 443 ;
444 [label=<InstabilidadeEmocional &le; 0.629<br/>gini = 0.032<br/>samples = 61<br/>value = [1, 60]<br/>class = Usuario>, fillcolor="#3c9fe5"] ;
443 -> 444 ;
445 [label=<gini = 0.0<br/>samples = 57<br/>value = [0, 57]<br/>class = Usuario>, fillcolor="#399de5"] ;
444 -> 445 ;
446 [label=<Agradabilidade &le; 0.664<br/>gini = 0.375<br/>samples = 4<br/>value = [1, 3]<br/>class = Usuario>, fillcolor="#7bbeee"] ;
444 -> 446 ;
447 [label=<gini = 0.0<br/>samples = 3<br/>value = [0, 3]<br/>class = Usuario>, fillcolor="#399de5"] ;
446 -> 447 ;
448 [label=<gini = 0.0<br/>samples = 1<br/>value = [1, 0]<br/>class = Não Usuario>, fillcolor="#e58139"] ;
446 -> 448 ;
449 [label=<gini = 0.0<br/>samples = 1<br/>value = [1, 0]<br/>class = Não Usuario>, fillcolor="#e58139"] ;
443 -> 449 ;
450 [label=<Agradabilidade &le; 0.562<br/>gini = 0.365<br/>samples = 79<br/>value = [19, 60]<br/>class = Usuario>, fillcolor="#78bced"] ;
442 -> 450 ;
451 [label=<Conscienciosidade &le; 0.44<br/>gini = 0.223<br/>samples = 47<br/>value = [6, 41]<br/>class = Usuario>, fillcolor="#56abe9"] ;
450 -> 451 ;
452 [label=<Agradabilidade &le; 0.53<br/>gini = 0.444<br/>samples = 3<br/>value = [2, 1]<br/>class = Não Usuario>, fillcolor="#f2c09c"] ;
451 -> 452 ;
453 [label=<gini = 0.0<br/>samples = 2<br/>value = [2, 0]<br/>class = Não Usuario>, fillcolor="#e58139"] ;
452 -> 453 ;
454 [label=<gini = 0.0<br/>samples = 1<br/>value = [0, 1]<br/>class = Usuario>, fillcolor="#399de5"] ;
452 -> 454 ;
455 [label=<BuscaPorExperiencias &le; 0.95<br/>gini = 0.165<br/>samples = 44<br/>value = [4, 40]<br/>class = Usuario>, fillcolor="#4da7e8"] ;
451 -> 455 ;
456 [label=<Extroversao &le; 0.78<br/>gini = 0.133<br/>samples = 42<br/>value = [3, 39]<br/>class = Usuario>, fillcolor="#48a5e7"] ;
455 -> 456 ;
457 [label=<Extroversao &le; 0.57<br/>gini = 0.095<br/>samples = 40<br/>value = [2, 38]<br/>class = Usuario>, fillcolor="#43a2e6"] ;
456 -> 457 ;
458 [label=<AberturaExperiencia &le; 0.59<br/>gini = 0.219<br/>samples = 16<br/>value = [2, 14]<br/>class = Usuario>, fillcolor="#55abe9"] ;
457 -> 458 ;
459 [label=<InstabilidadeEmocional &le; 0.39<br/>gini = 0.444<br/>samples = 6<br/>value = [2, 4]<br/>class = Usuario>, fillcolor="#9ccef2"] ;
458 -> 459 ;
460 [label=<gini = 0.0<br/>samples = 3<br/>value = [0, 3]<br/>class = Usuario>, fillcolor="#399de5"] ;
459 -> 460 ;
461 [label=<Conscienciosidade &le; 0.58<br/>gini = 0.444<br/>samples = 3<br/>value = [2, 1]<br/>class = Não Usuario>, fillcolor="#f2c09c"] ;
459 -> 461 ;
462 [label=<gini = 0.0<br/>samples = 1<br/>value = [0, 1]<br/>class = Usuario>, fillcolor="#399de5"] ;
461 -> 462 ;
463 [label=<gini = 0.0<br/>samples = 2<br/>value = [2, 0]<br/>class = Não Usuario>, fillcolor="#e58139"] ;
461 -> 463 ;
464 [label=<gini = 0.0<br/>samples = 10<br/>value = [0, 10]<br/>class = Usuario>, fillcolor="#399de5"] ;
458 -> 464 ;
465 [label=<gini = 0.0<br/>samples = 24<br/>value = [0, 24]<br/>class = Usuario>, fillcolor="#399de5"] ;
457 -> 465 ;
466 [label=<Conscienciosidade &le; 0.635<br/>gini = 0.5<br/>samples = 2<br/>value = [1, 1]<br/>class = Não Usuario>, fillcolor="#ffffff"] ;
456 -> 466 ;
467 [label=<gini = 0.0<br/>samples = 1<br/>value = [1, 0]<br/>class = Não Usuario>, fillcolor="#e58139"] ;
466 -> 467 ;
468 [label=<gini = 0.0<br/>samples = 1<br/>value = [0, 1]<br/>class = Usuario>, fillcolor="#399de5"] ;
466 -> 468 ;
469 [label=<AberturaExperiencia &le; 0.48<br/>gini = 0.5<br/>samples = 2<br/>value = [1, 1]<br/>class = Não Usuario>, fillcolor="#ffffff"] ;
455 -> 469 ;
470 [label=<gini = 0.0<br/>samples = 1<br/>value = [1, 0]<br/>class = Não Usuario>, fillcolor="#e58139"] ;
469 -> 470 ;
471 [label=<gini = 0.0<br/>samples = 1<br/>value = [0, 1]<br/>class = Usuario>, fillcolor="#399de5"] ;
469 -> 471 ;
472 [label=<BuscaPorExperiencias &le; 0.777<br/>gini = 0.482<br/>samples = 32<br/>value = [13, 19]<br/>class = Usuario>, fillcolor="#c0e0f7"] ;
450 -> 472 ;
473 [label=<Agradabilidade &le; 0.594<br/>gini = 0.465<br/>samples = 19<br/>value = [12, 7]<br/>class = Não Usuario>, fillcolor="#f4caac"] ;
472 -> 473 ;
474 [label=<gini = 0.0<br/>samples = 9<br/>value = [9, 0]<br/>class = Não Usuario>, fillcolor="#e58139"] ;
473 -> 474 ;
475 [label=<Extroversao &le; 0.76<br/>gini = 0.42<br/>samples = 10<br/>value = [3, 7]<br/>class = Usuario>, fillcolor="#8ec7f0"] ;
473 -> 475 ;
476 [label=<gini = 0.0<br/>samples = 7<br/>value = [0, 7]<br/>class = Usuario>, fillcolor="#399de5"] ;
475 -> 476 ;
477 [label=<gini = 0.0<br/>samples = 3<br/>value = [3, 0]<br/>class = Não Usuario>, fillcolor="#e58139"] ;
475 -> 477 ;
478 [label=<InstabilidadeEmocional &le; 0.61<br/>gini = 0.142<br/>samples = 13<br/>value = [1, 12]<br/>class = Usuario>, fillcolor="#49a5e7"] ;
472 -> 478 ;
479 [label=<gini = 0.0<br/>samples = 10<br/>value = [0, 10]<br/>class = Usuario>, fillcolor="#399de5"] ;
478 -> 479 ;
480 [label=<Impulsividade &le; 0.5<br/>gini = 0.444<br/>samples = 3<br/>value = [1, 2]<br/>class = Usuario>, fillcolor="#9ccef2"] ;
478 -> 480 ;
481 [label=<gini = 0.0<br/>samples = 1<br/>value = [1, 0]<br/>class = Não Usuario>, fillcolor="#e58139"] ;
480 -> 481 ;
482 [label=<gini = 0.0<br/>samples = 2<br/>value = [0, 2]<br/>class = Usuario>, fillcolor="#399de5"] ;
480 -> 482 ;
483 [label=<gini = 0.0<br/>samples = 3<br/>value = [3, 0]<br/>class = Não Usuario>, fillcolor="#e58139"] ;
441 -> 483 ;
484 [label=<Impulsividade &le; 0.882<br/>gini = 0.499<br/>samples = 31<br/>value = [15, 16]<br/>class = Usuario>, fillcolor="#f3f9fd"] ;
440 -> 484 ;
485 [label=<gini = 0.0<br/>samples = 10<br/>value = [10, 0]<br/>class = Não Usuario>, fillcolor="#e58139"] ;
484 -> 485 ;
486 [label=<BuscaPorExperiencias &le; 0.85<br/>gini = 0.363<br/>samples = 21<br/>value = [5, 16]<br/>class = Usuario>, fillcolor="#77bced"] ;
484 -> 486 ;
487 [label=<InstabilidadeEmocional &le; 0.455<br/>gini = 0.473<br/>samples = 13<br/>value = [5, 8]<br/>class = Usuario>, fillcolor="#b5daf5"] ;
486 -> 487 ;
488 [label=<AberturaExperiencia &le; 0.645<br/>gini = 0.32<br/>samples = 5<br/>value = [4, 1]<br/>class = Não Usuario>, fillcolor="#eca06a"] ;
487 -> 488 ;
489 [label=<gini = 0.0<br/>samples = 4<br/>value = [4, 0]<br/>class = Não Usuario>, fillcolor="#e58139"] ;
488 -> 489 ;
490 [label=<gini = 0.0<br/>samples = 1<br/>value = [0, 1]<br/>class = Usuario>, fillcolor="#399de5"] ;
488 -> 490 ;
491 [label=<Conscienciosidade &le; 0.635<br/>gini = 0.219<br/>samples = 8<br/>value = [1, 7]<br/>class = Usuario>, fillcolor="#55abe9"] ;
487 -> 491 ;
492 [label=<gini = 0.0<br/>samples = 6<br/>value = [0, 6]<br/>class = Usuario>, fillcolor="#399de5"] ;
491 -> 492 ;
493 [label=<Agradabilidade &le; 0.47<br/>gini = 0.5<br/>samples = 2<br/>value = [1, 1]<br/>class = Não Usuario>, fillcolor="#ffffff"] ;
491 -> 493 ;
494 [label=<gini = 0.0<br/>samples = 1<br/>value = [1, 0]<br/>class = Não Usuario>, fillcolor="#e58139"] ;
493 -> 494 ;
495 [label=<gini = 0.0<br/>samples = 1<br/>value = [0, 1]<br/>class = Usuario>, fillcolor="#399de5"] ;
493 -> 495 ;
496 [label=<gini = 0.0<br/>samples = 8<br/>value = [0, 8]<br/>class = Usuario>, fillcolor="#399de5"] ;
486 -> 496 ;
497 [label=<AberturaExperiencia &le; 0.796<br/>gini = 0.085<br/>samples = 360<br/>value = [16, 344]<br/>class = Usuario>, fillcolor="#42a2e6"] ;
439 -> 497 ;
498 [label=<Extroversao &le; 0.693<br/>gini = 0.064<br/>samples = 333<br/>value = [11, 322]<br/>class = Usuario>, fillcolor="#40a0e6"] ;
497 -> 498 ;
499 [label=<InstabilidadeEmocional &le; 0.13<br/>gini = 0.009<br/>samples = 224<br/>value = [1, 223]<br/>class = Usuario>, fillcolor="#3a9de5"] ;
498 -> 499 ;
500 [label=<Agradabilidade &le; 0.585<br/>gini = 0.375<br/>samples = 4<br/>value = [1, 3]<br/>class = Usuario>, fillcolor="#7bbeee"] ;
499 -> 500 ;
501 [label=<gini = 0.0<br/>samples = 3<br/>value = [0, 3]<br/>class = Usuario>, fillcolor="#399de5"] ;
500 -> 501 ;
502 [label=<gini = 0.0<br/>samples = 1<br/>value = [1, 0]<br/>class = Não Usuario>, fillcolor="#e58139"] ;
500 -> 502 ;
503 [label=<gini = 0.0<br/>samples = 220<br/>value = [0, 220]<br/>class = Usuario>, fillcolor="#399de5"] ;
499 -> 503 ;
504 [label=<Extroversao &le; 0.703<br/>gini = 0.167<br/>samples = 109<br/>value = [10, 99]<br/>class = Usuario>, fillcolor="#4da7e8"] ;
498 -> 504 ;
505 [label=<gini = 0.0<br/>samples = 1<br/>value = [1, 0]<br/>class = Não Usuario>, fillcolor="#e58139"] ;
504 -> 505 ;
506 [label=<Agradabilidade &le; 0.91<br/>gini = 0.153<br/>samples = 108<br/>value = [9, 99]<br/>class = Usuario>, fillcolor="#4ba6e7"] ;
504 -> 506 ;
507 [label=<Conscienciosidade &le; 0.87<br/>gini = 0.14<br/>samples = 106<br/>value = [8, 98]<br/>class = Usuario>, fillcolor="#49a5e7"] ;
506 -> 507 ;
508 [label=<Conscienciosidade &le; 0.852<br/>gini = 0.191<br/>samples = 75<br/>value = [8, 67]<br/>class = Usuario>, fillcolor="#51a9e8"] ;
507 -> 508 ;
509 [label=<Extroversao &le; 0.752<br/>gini = 0.151<br/>samples = 73<br/>value = [6, 67]<br/>class = Usuario>, fillcolor="#4ba6e7"] ;
508 -> 509 ;
510 [label=<BuscaPorExperiencias &le; 0.95<br/>gini = 0.051<br/>samples = 38<br/>value = [1, 37]<br/>class = Usuario>, fillcolor="#3ea0e6"] ;
509 -> 510 ;
511 [label=<gini = 0.0<br/>samples = 32<br/>value = [0, 32]<br/>class = Usuario>, fillcolor="#399de5"] ;
510 -> 511 ;
512 [label=<Impulsividade &le; 0.725<br/>gini = 0.278<br/>samples = 6<br/>value = [1, 5]<br/>class = Usuario>, fillcolor="#61b1ea"] ;
510 -> 512 ;
513 [label=<InstabilidadeEmocional &le; 0.575<br/>gini = 0.5<br/>samples = 2<br/>value = [1, 1]<br/>class = Não Usuario>, fillcolor="#ffffff"] ;
512 -> 513 ;
514 [label=<gini = 0.0<br/>samples = 1<br/>value = [1, 0]<br/>class = Não Usuario>, fillcolor="#e58139"] ;
513 -> 514 ;
515 [label=<gini = 0.0<br/>samples = 1<br/>value = [0, 1]<br/>class = Usuario>, fillcolor="#399de5"] ;
513 -> 515 ;
516 [label=<gini = 0.0<br/>samples = 4<br/>value = [0, 4]<br/>class = Usuario>, fillcolor="#399de5"] ;
512 -> 516 ;
517 [label=<Extroversao &le; 0.762<br/>gini = 0.245<br/>samples = 35<br/>value = [5, 30]<br/>class = Usuario>, fillcolor="#5aade9"] ;
509 -> 517 ;
518 [label=<gini = 0.0<br/>samples = 1<br/>value = [1, 0]<br/>class = Não Usuario>, fillcolor="#e58139"] ;
517 -> 518 ;
519 [label=<Impulsividade &le; 0.835<br/>gini = 0.208<br/>samples = 34<br/>value = [4, 30]<br/>class = Usuario>, fillcolor="#53aae8"] ;
517 -> 519 ;
520 [label=<Agradabilidade &le; 0.697<br/>gini = 0.124<br/>samples = 30<br/>value = [2, 28]<br/>class = Usuario>, fillcolor="#47a4e7"] ;
519 -> 520 ;
521 [label=<gini = 0.0<br/>samples = 23<br/>value = [0, 23]<br/>class = Usuario>, fillcolor="#399de5"] ;
520 -> 521 ;
522 [label=<AberturaExperiencia &le; 0.34<br/>gini = 0.408<br/>samples = 7<br/>value = [2, 5]<br/>class = Usuario>, fillcolor="#88c4ef"] ;
520 -> 522 ;
523 [label=<gini = 0.0<br/>samples = 2<br/>value = [2, 0]<br/>class = Não Usuario>, fillcolor="#e58139"] ;
522 -> 523 ;
524 [label=<gini = 0.0<br/>samples = 5<br/>value = [0, 5]<br/>class = Usuario>, fillcolor="#399de5"] ;
522 -> 524 ;
525 [label=<Agradabilidade &le; 0.531<br/>gini = 0.5<br/>samples = 4<br/>value = [2, 2]<br/>class = Não Usuario>, fillcolor="#ffffff"] ;
519 -> 525 ;
526 [label=<gini = 0.0<br/>samples = 2<br/>value = [2, 0]<br/>class = Não Usuario>, fillcolor="#e58139"] ;
525 -> 526 ;
527 [label=<gini = 0.0<br/>samples = 2<br/>value = [0, 2]<br/>class = Usuario>, fillcolor="#399de5"] ;
525 -> 527 ;
528 [label=<gini = 0.0<br/>samples = 2<br/>value = [2, 0]<br/>class = Não Usuario>, fillcolor="#e58139"] ;
508 -> 528 ;
529 [label=<gini = 0.0<br/>samples = 31<br/>value = [0, 31]<br/>class = Usuario>, fillcolor="#399de5"] ;
507 -> 529 ;
530 [label=<BuscaPorExperiencias &le; 0.95<br/>gini = 0.5<br/>samples = 2<br/>value = [1, 1]<br/>class = Não Usuario>, fillcolor="#ffffff"] ;
506 -> 530 ;
531 [label=<gini = 0.0<br/>samples = 1<br/>value = [1, 0]<br/>class = Não Usuario>, fillcolor="#e58139"] ;
530 -> 531 ;
532 [label=<gini = 0.0<br/>samples = 1<br/>value = [0, 1]<br/>class = Usuario>, fillcolor="#399de5"] ;
530 -> 532 ;
533 [label=<AberturaExperiencia &le; 0.81<br/>gini = 0.302<br/>samples = 27<br/>value = [5, 22]<br/>class = Usuario>, fillcolor="#66b3eb"] ;
497 -> 533 ;
534 [label=<gini = 0.0<br/>samples = 3<br/>value = [3, 0]<br/>class = Não Usuario>, fillcolor="#e58139"] ;
533 -> 534 ;
535 [label=<Conscienciosidade &le; 0.76<br/>gini = 0.153<br/>samples = 24<br/>value = [2, 22]<br/>class = Usuario>, fillcolor="#4ba6e7"] ;
533 -> 535 ;
536 [label=<Extroversao &le; 0.605<br/>gini = 0.408<br/>samples = 7<br/>value = [2, 5]<br/>class = Usuario>, fillcolor="#88c4ef"] ;
535 -> 536 ;
537 [label=<BuscaPorExperiencias &le; 0.65<br/>gini = 0.444<br/>samples = 3<br/>value = [2, 1]<br/>class = Não Usuario>, fillcolor="#f2c09c"] ;
536 -> 537 ;
538 [label=<gini = 0.0<br/>samples = 1<br/>value = [0, 1]<br/>class = Usuario>, fillcolor="#399de5"] ;
537 -> 538 ;
539 [label=<gini = 0.0<br/>samples = 2<br/>value = [2, 0]<br/>class = Não Usuario>, fillcolor="#e58139"] ;
537 -> 539 ;
540 [label=<gini = 0.0<br/>samples = 4<br/>value = [0, 4]<br/>class = Usuario>, fillcolor="#399de5"] ;
536 -> 540 ;
541 [label=<gini = 0.0<br/>samples = 17<br/>value = [0, 17]<br/>class = Usuario>, fillcolor="#399de5"] ;
535 -> 541 ;
542 [label=<Conscienciosidade &le; 0.786<br/>gini = 0.489<br/>samples = 261<br/>value = [111, 150]<br/>class = Usuario>, fillcolor="#cce6f8"] ;
438 -> 542 ;
543 [label=<Agradabilidade &le; 0.736<br/>gini = 0.49<br/>samples = 177<br/>value = [101, 76]<br/>class = Não Usuario>, fillcolor="#f9e0ce"] ;
542 -> 543 ;
544 [label=<InstabilidadeEmocional &le; 0.689<br/>gini = 0.49<br/>samples = 123<br/>value = [53, 70]<br/>class = Usuario>, fillcolor="#cfe7f9"] ;
543 -> 544 ;
545 [label=<Agradabilidade &le; 0.467<br/>gini = 0.405<br/>samples = 46<br/>value = [33, 13]<br/>class = Não Usuario>, fillcolor="#efb387"] ;
544 -> 545 ;
546 [label=<gini = 0.0<br/>samples = 5<br/>value = [0, 5]<br/>class = Usuario>, fillcolor="#399de5"] ;
545 -> 546 ;
547 [label=<BuscaPorExperiencias &le; 0.601<br/>gini = 0.314<br/>samples = 41<br/>value = [33, 8]<br/>class = Não Usuario>, fillcolor="#eba069"] ;
545 -> 547 ;
548 [label=<Conscienciosidade &le; 0.76<br/>gini = 0.32<br/>samples = 5<br/>value = [1, 4]<br/>class = Usuario>, fillcolor="#6ab6ec"] ;
547 -> 548 ;
549 [label=<gini = 0.0<br/>samples = 4<br/>value = [0, 4]<br/>class = Usuario>, fillcolor="#399de5"] ;
548 -> 549 ;
550 [label=<gini = 0.0<br/>samples = 1<br/>value = [1, 0]<br/>class = Não Usuario>, fillcolor="#e58139"] ;
548 -> 550 ;
551 [label=<AberturaExperiencia &le; 0.218<br/>gini = 0.198<br/>samples = 36<br/>value = [32, 4]<br/>class = Não Usuario>, fillcolor="#e89152"] ;
547 -> 551 ;
552 [label=<gini = 0.0<br/>samples = 1<br/>value = [0, 1]<br/>class = Usuario>, fillcolor="#399de5"] ;
551 -> 552 ;
553 [label=<Impulsividade &le; 0.56<br/>gini = 0.157<br/>samples = 35<br/>value = [32, 3]<br/>class = Não Usuario>, fillcolor="#e78d4c"] ;
551 -> 553 ;
554 [label=<Conscienciosidade &le; 0.49<br/>gini = 0.278<br/>samples = 18<br/>value = [15, 3]<br/>class = Não Usuario>, fillcolor="#ea9a61"] ;
553 -> 554 ;
555 [label=<gini = 0.0<br/>samples = 1<br/>value = [0, 1]<br/>class = Usuario>, fillcolor="#399de5"] ;
554 -> 555 ;
556 [label=<Extroversao &le; 0.56<br/>gini = 0.208<br/>samples = 17<br/>value = [15, 2]<br/>class = Não Usuario>, fillcolor="#e89253"] ;
554 -> 556 ;
557 [label=<AberturaExperiencia &le; 0.495<br/>gini = 0.48<br/>samples = 5<br/>value = [3, 2]<br/>class = Não Usuario>, fillcolor="#f6d5bd"] ;
556 -> 557 ;
558 [label=<gini = 0.0<br/>samples = 3<br/>value = [3, 0]<br/>class = Não Usuario>, fillcolor="#e58139"] ;
557 -> 558 ;
559 [label=<gini = 0.0<br/>samples = 2<br/>value = [0, 2]<br/>class = Usuario>, fillcolor="#399de5"] ;
557 -> 559 ;
560 [label=<gini = 0.0<br/>samples = 12<br/>value = [12, 0]<br/>class = Não Usuario>, fillcolor="#e58139"] ;
556 -> 560 ;
561 [label=<gini = 0.0<br/>samples = 17<br/>value = [17, 0]<br/>class = Não Usuario>, fillcolor="#e58139"] ;
553 -> 561 ;
562 [label=<BuscaPorExperiencias &le; 0.774<br/>gini = 0.385<br/>samples = 77<br/>value = [20, 57]<br/>class = Usuario>, fillcolor="#7ebfee"] ;
544 -> 562 ;
563 [label=<AberturaExperiencia &le; 0.511<br/>gini = 0.468<br/>samples = 51<br/>value = [19, 32]<br/>class = Usuario>, fillcolor="#afd7f4"] ;
562 -> 563 ;
564 [label=<Extroversao &le; 0.536<br/>gini = 0.495<br/>samples = 29<br/>value = [16, 13]<br/>class = Não Usuario>, fillcolor="#fae7da"] ;
563 -> 564 ;
565 [label=<Agradabilidade &le; 0.645<br/>gini = 0.219<br/>samples = 8<br/>value = [7, 1]<br/>class = Não Usuario>, fillcolor="#e99355"] ;
564 -> 565 ;
566 [label=<gini = 0.0<br/>samples = 6<br/>value = [6, 0]<br/>class = Não Usuario>, fillcolor="#e58139"] ;
565 -> 566 ;
567 [label=<Agradabilidade &le; 0.684<br/>gini = 0.5<br/>samples = 2<br/>value = [1, 1]<br/>class = Não Usuario>, fillcolor="#ffffff"] ;
565 -> 567 ;
568 [label=<gini = 0.0<br/>samples = 1<br/>value = [0, 1]<br/>class = Usuario>, fillcolor="#399de5"] ;
567 -> 568 ;
569 [label=<gini = 0.0<br/>samples = 1<br/>value = [1, 0]<br/>class = Não Usuario>, fillcolor="#e58139"] ;
567 -> 569 ;
570 [label=<Extroversao &le; 0.707<br/>gini = 0.49<br/>samples = 21<br/>value = [9, 12]<br/>class = Usuario>, fillcolor="#cee6f8"] ;
564 -> 570 ;
571 [label=<BuscaPorExperiencias &le; 0.722<br/>gini = 0.298<br/>samples = 11<br/>value = [2, 9]<br/>class = Usuario>, fillcolor="#65b3eb"] ;
570 -> 571 ;
572 [label=<Impulsividade &le; 0.275<br/>gini = 0.18<br/>samples = 10<br/>value = [1, 9]<br/>class = Usuario>, fillcolor="#4fa8e8"] ;
571 -> 572 ;
573 [label=<gini = 0.0<br/>samples = 1<br/>value = [1, 0]<br/>class = Não Usuario>, fillcolor="#e58139"] ;
572 -> 573 ;
574 [label=<gini = 0.0<br/>samples = 9<br/>value = [0, 9]<br/>class = Usuario>, fillcolor="#399de5"] ;
572 -> 574 ;
575 [label=<gini = 0.0<br/>samples = 1<br/>value = [1, 0]<br/>class = Não Usuario>, fillcolor="#e58139"] ;
571 -> 575 ;
576 [label=<Conscienciosidade &le; 0.724<br/>gini = 0.42<br/>samples = 10<br/>value = [7, 3]<br/>class = Não Usuario>, fillcolor="#f0b78e"] ;
570 -> 576 ;
577 [label=<gini = 0.0<br/>samples = 7<br/>value = [7, 0]<br/>class = Não Usuario>, fillcolor="#e58139"] ;
576 -> 577 ;
578 [label=<gini = 0.0<br/>samples = 3<br/>value = [0, 3]<br/>class = Usuario>, fillcolor="#399de5"] ;
576 -> 578 ;
579 [label=<Conscienciosidade &le; 0.53<br/>gini = 0.236<br/>samples = 22<br/>value = [3, 19]<br/>class = Usuario>, fillcolor="#58ace9"] ;
563 -> 579 ;
580 [label=<Conscienciosidade &le; 0.49<br/>gini = 0.48<br/>samples = 5<br/>value = [3, 2]<br/>class = Não Usuario>, fillcolor="#f6d5bd"] ;
579 -> 580 ;
581 [label=<gini = 0.0<br/>samples = 2<br/>value = [0, 2]<br/>class = Usuario>, fillcolor="#399de5"] ;
580 -> 581 ;
582 [label=<gini = 0.0<br/>samples = 3<br/>value = [3, 0]<br/>class = Não Usuario>, fillcolor="#e58139"] ;
580 -> 582 ;
583 [label=<gini = 0.0<br/>samples = 17<br/>value = [0, 17]<br/>class = Usuario>, fillcolor="#399de5"] ;
579 -> 583 ;
584 [label=<AberturaExperiencia &le; 0.757<br/>gini = 0.074<br/>samples = 26<br/>value = [1, 25]<br/>class = Usuario>, fillcolor="#41a1e6"] ;
562 -> 584 ;
585 [label=<gini = 0.0<br/>samples = 25<br/>value = [0, 25]<br/>class = Usuario>, fillcolor="#399de5"] ;
584 -> 585 ;
586 [label=<gini = 0.0<br/>samples = 1<br/>value = [1, 0]<br/>class = Não Usuario>, fillcolor="#e58139"] ;
584 -> 586 ;
587 [label=<Conscienciosidade &le; 0.6<br/>gini = 0.198<br/>samples = 54<br/>value = [48, 6]<br/>class = Não Usuario>, fillcolor="#e89152"] ;
543 -> 587 ;
588 [label=<gini = 0.0<br/>samples = 3<br/>value = [0, 3]<br/>class = Usuario>, fillcolor="#399de5"] ;
587 -> 588 ;
589 [label=<Extroversao &le; 0.514<br/>gini = 0.111<br/>samples = 51<br/>value = [48, 3]<br/>class = Não Usuario>, fillcolor="#e78945"] ;
587 -> 589 ;
590 [label=<gini = 0.0<br/>samples = 2<br/>value = [0, 2]<br/>class = Usuario>, fillcolor="#399de5"] ;
589 -> 590 ;
591 [label=<InstabilidadeEmocional &le; 0.855<br/>gini = 0.04<br/>samples = 49<br/>value = [48, 1]<br/>class = Não Usuario>, fillcolor="#e6843d"] ;
589 -> 591 ;
592 [label=<gini = 0.0<br/>samples = 47<br/>value = [47, 0]<br/>class = Não Usuario>, fillcolor="#e58139"] ;
591 -> 592 ;
593 [label=<BuscaPorExperiencias &le; 0.95<br/>gini = 0.5<br/>samples = 2<br/>value = [1, 1]<br/>class = Não Usuario>, fillcolor="#ffffff"] ;
591 -> 593 ;
594 [label=<gini = 0.0<br/>samples = 1<br/>value = [0, 1]<br/>class = Usuario>, fillcolor="#399de5"] ;
593 -> 594 ;
595 [label=<gini = 0.0<br/>samples = 1<br/>value = [1, 0]<br/>class = Não Usuario>, fillcolor="#e58139"] ;
593 -> 595 ;
596 [label=<Conscienciosidade &le; 0.829<br/>gini = 0.21<br/>samples = 84<br/>value = [10, 74]<br/>class = Usuario>, fillcolor="#54aae9"] ;
542 -> 596 ;
597 [label=<AberturaExperiencia &le; 0.854<br/>gini = 0.404<br/>samples = 32<br/>value = [9, 23]<br/>class = Usuario>, fillcolor="#86c3ef"] ;
596 -> 597 ;
598 [label=<AberturaExperiencia &le; 0.45<br/>gini = 0.358<br/>samples = 30<br/>value = [7, 23]<br/>class = Usuario>, fillcolor="#75bbed"] ;
597 -> 598 ;
599 [label=<InstabilidadeEmocional &le; 0.798<br/>gini = 0.498<br/>samples = 15<br/>value = [7, 8]<br/>class = Usuario>, fillcolor="#e6f3fc"] ;
598 -> 599 ;
600 [label=<AberturaExperiencia &le; 0.34<br/>gini = 0.444<br/>samples = 12<br/>value = [4, 8]<br/>class = Usuario>, fillcolor="#9ccef2"] ;
599 -> 600 ;
601 [label=<gini = 0.0<br/>samples = 5<br/>value = [0, 5]<br/>class = Usuario>, fillcolor="#399de5"] ;
600 -> 601 ;
602 [label=<Agradabilidade &le; 0.695<br/>gini = 0.49<br/>samples = 7<br/>value = [4, 3]<br/>class = Não Usuario>, fillcolor="#f8e0ce"] ;
600 -> 602 ;
603 [label=<Impulsividade &le; 0.445<br/>gini = 0.375<br/>samples = 4<br/>value = [1, 3]<br/>class = Usuario>, fillcolor="#7bbeee"] ;
602 -> 603 ;
604 [label=<gini = 0.0<br/>samples = 1<br/>value = [1, 0]<br/>class = Não Usuario>, fillcolor="#e58139"] ;
603 -> 604 ;
605 [label=<gini = 0.0<br/>samples = 3<br/>value = [0, 3]<br/>class = Usuario>, fillcolor="#399de5"] ;
603 -> 605 ;
606 [label=<gini = 0.0<br/>samples = 3<br/>value = [3, 0]<br/>class = Não Usuario>, fillcolor="#e58139"] ;
602 -> 606 ;
607 [label=<gini = 0.0<br/>samples = 3<br/>value = [3, 0]<br/>class = Não Usuario>, fillcolor="#e58139"] ;
599 -> 607 ;
608 [label=<gini = 0.0<br/>samples = 15<br/>value = [0, 15]<br/>class = Usuario>, fillcolor="#399de5"] ;
598 -> 608 ;
609 [label=<gini = 0.0<br/>samples = 2<br/>value = [2, 0]<br/>class = Não Usuario>, fillcolor="#e58139"] ;
597 -> 609 ;
610 [label=<AberturaExperiencia &le; 0.3<br/>gini = 0.038<br/>samples = 52<br/>value = [1, 51]<br/>class = Usuario>, fillcolor="#3d9fe6"] ;
596 -> 610 ;
611 [label=<Agradabilidade &le; 0.68<br/>gini = 0.245<br/>samples = 7<br/>value = [1, 6]<br/>class = Usuario>, fillcolor="#5aade9"] ;
610 -> 611 ;
612 [label=<BuscaPorExperiencias &le; 0.8<br/>gini = 0.5<br/>samples = 2<br/>value = [1, 1]<br/>class = Não Usuario>, fillcolor="#ffffff"] ;
611 -> 612 ;
613 [label=<gini = 0.0<br/>samples = 1<br/>value = [1, 0]<br/>class = Não Usuario>, fillcolor="#e58139"] ;
612 -> 613 ;
614 [label=<gini = 0.0<br/>samples = 1<br/>value = [0, 1]<br/>class = Usuario>, fillcolor="#399de5"] ;
612 -> 614 ;
615 [label=<gini = 0.0<br/>samples = 5<br/>value = [0, 5]<br/>class = Usuario>, fillcolor="#399de5"] ;
611 -> 615 ;
616 [label=<gini = 0.0<br/>samples = 45<br/>value = [0, 45]<br/>class = Usuario>, fillcolor="#399de5"] ;
610 -> 616 ;
}