digraph Tree {
node [shape=box, style="filled, rounded", color="black", fontname=helvetica] ;
edge [fontname=helvetica] ;
0 [label=<BuscaPorExperiencias &le; 0.602<br/>gini = 0.5<br/>samples = 2058<br/>value = [1029, 1029]<br/>class = Não Usuario>, fillcolor="#ffffff"] ;
1 [label=<InstabilidadeEmocional &le; 0.669<br/>gini = 0.447<br/>samples = 1002<br/>value = [664, 338]<br/>class = Não Usuario>, fillcolor="#f2c19e"] ;
0 -> 1 [labeldistance=2.5, labelangle=45, headlabel="True"] ;
2 [label=<BuscaPorExperiencias &le; 0.2<br/>gini = 0.488<br/>samples = 629<br/>value = [363, 266]<br/>class = Não Usuario>, fillcolor="#f8ddca"] ;
1 -> 2 ;
3 [label=<InstabilidadeEmocional &le; 0.642<br/>gini = 0.212<br/>samples = 116<br/>value = [102, 14]<br/>class = Não Usuario>, fillcolor="#e99254"] ;
2 -> 3 ;
4 [label=<Conscienciosidade &le; 0.713<br/>gini = 0.135<br/>samples = 110<br/>value = [102, 8]<br/>class = Não Usuario>, fillcolor="#e78b49"] ;
3 -> 4 ;
5 [label=<InstabilidadeEmocional &le; 0.235<br/>gini = 0.044<br/>samples = 88<br/>value = [86, 2]<br/>class = Não Usuario>, fillcolor="#e6843e"] ;
4 -> 5 ;
6 [label=<Impulsividade &le; 0.11<br/>gini = 0.444<br/>samples = 3<br/>value = [1, 2]<br/>class = Usuario>, fillcolor="#9ccef2"] ;
5 -> 6 ;
7 [label=<gini = 0.0<br/>samples = 1<br/>value = [1, 0]<br/>class = Não Usuario>, fillcolor="#e58139"] ;
6 -> 7 ;
8 [label=<gini = 0.0<br/>samples = 2<br/>value = [0, 2]<br/>class = Usuario>, fillcolor="#399de5"] ;
6 -> 8 ;
9 [label=<gini = 0.0<br/>samples = 85<br/>value = [85, 0]<br/>class = Não Usuario>, fillcolor="#e58139"] ;
5 -> 9 ;
10 [label=<AberturaExperiencia &le; 0.28<br/>gini = 0.397<br/>samples = 22<br/>value = [16, 6]<br/>class = Não Usuario>, fillcolor="#efb083"] ;
4 -> 10 ;
11 [label=<gini = 0.0<br/>samples = 2<br/>value = [0, 2]<br/>class = Usuario>, fillcolor="#399de5"] ;
10 -> 11 ;
12 [label=<Extroversao &le; 0.66<br/>gini = 0.32<br/>samples = 20<br/>value = [16, 4]<br/>class = Não Usuario>, fillcolor="#eca06a"] ;
10 -> 12 ;
13 [label=<Extroversao &le; 0.615<br/>gini = 0.494<br/>samples = 9<br/>value = [5, 4]<br/>class = Não Usuario>, fillcolor="#fae6d7"] ;
12 -> 13 ;
14 [label=<Extroversao &le; 0.48<br/>gini = 0.278<br/>samples = 6<br/>value = [5, 1]<br/>class = Não Usuario>, fillcolor="#ea9a61"] ;
13 -> 14 ;
15 [label=<gini = 0.0<br/>samples = 1<br/>value = [0, 1]<br/>class = Usuario>, fillcolor="#399de5"] ;
14 -> 15 ;
16 [label=<gini = 0.0<br/>samples = 5<br/>value = [5, 0]<br/>class = Não Usuario>, fillcolor="#e58139"] ;
14 -> 16 ;
17 [label=<gini = 0.0<br/>samples = 3<br/>value = [0, 3]<br/>class = Usuario>, fillcolor="#399de5"] ;
13 -> 17 ;
18 [label=<gini = 0.0<br/>samples = 11<br/>value = [11, 0]<br/>class = Não Usuario>, fillcolor="#e58139"] ;
12 -> 18 ;
19 [label=<gini = 0.0<br/>samples = 6<br/>value = [0, 6]<br/>class = Usuario>, fillcolor="#399de5"] ;
3 -> 19 ;
20 [label=<Extroversao &le; 0.709<br/>gini = 0.5<br/>samples = 513<br/>value = [261, 252]<br/>class = Não Usuario>, fillcolor="#fefbf8"] ;
2 -> 20 ;
21 [label=<Extroversao &le; 0.6<br/>gini = 0.493<br/>samples = 355<br/>value = [157, 198]<br/>class = Usuario>, fillcolor="#d6ebfa"] ;
20 -> 21 ;
22 [label=<BuscaPorExperiencias &le; 0.5<br/>gini = 0.499<br/>samples = 196<br/>value = [103, 93]<br/>class = Não Usuario>, fillcolor="#fcf3ec"] ;
21 -> 22 ;
23 [label=<Extroversao &le; 0.598<br/>gini = 0.474<br/>samples = 106<br/>value = [41, 65]<br/>class = Usuario>, fillcolor="#b6dbf5"] ;
22 -> 23 ;
24 [label=<Conscienciosidade &le; 0.55<br/>gini = 0.423<br/>samples = 92<br/>value = [28, 64]<br/>class = Usuario>, fillcolor="#90c8f0"] ;
23 -> 24 ;
25 [label=<BuscaPorExperiencias &le; 0.434<br/>gini = 0.298<br/>samples = 11<br/>value = [9, 2]<br/>class = Não Usuario>, fillcolor="#eb9d65"] ;
24 -> 25 ;
26 [label=<gini = 0.0<br/>samples = 9<br/>value = [9, 0]<br/>class = Não Usuario>, fillcolor="#e58139"] ;
25 -> 26 ;
27 [label=<gini = 0.0<br/>samples = 2<br/>value = [0, 2]<br/>class = Usuario>, fillcolor="#399de5"] ;
25 -> 27 ;
28 [label=<Agradabilidade &le; 0.668<br/>gini = 0.359<br/>samples = 81<br/>value = [19, 62]<br/>class = Usuario>, fillcolor="#76bbed"] ;
24 -> 28 ;
29 [label=<Conscienciosidade &le; 0.839<br/>gini = 0.293<br/>samples = 73<br/>value = [13, 60]<br/>class = Usuario>, fillcolor="#64b2eb"] ;
28 -> 29 ;
30 [label=<BuscaPorExperiencias &le; 0.309<br/>gini = 0.262<br/>samples = 71<br/>value = [11, 60]<br/>class = Usuario>, fillcolor="#5dafea"] ;
29 -> 30 ;
31 [label=<BuscaPorExperiencias &le; 0.297<br/>gini = 0.455<br/>samples = 20<br/>value = [7, 13]<br/>class = Usuario>, fillcolor="#a4d2f3"] ;
30 -> 31 ;
32 [label=<gini = 0.0<br/>samples = 7<br/>value = [0, 7]<br/>class = Usuario>, fillcolor="#399de5"] ;
31 -> 32 ;
33 [label=<Extroversao &le; 0.499<br/>gini = 0.497<br/>samples = 13<br/>value = [7, 6]<br/>class = Não Usuario>, fillcolor="#fbede3"] ;
31 -> 33 ;
34 [label=<Impulsividade &le; 0.385<br/>gini = 0.32<br/>samples = 5<br/>value = [1, 4]<br/>class = Usuario>, fillcolor="#6ab6ec"] ;
33 -> 34 ;
35 [label=<gini = 0.0<br/>samples = 4<br/>value = [0, 4]<br/>class = Usuario>, fillcolor="#399de5"] ;
34 -> 35 ;
36 [label=<gini = 0.0<br/>samples = 1<br/>value = [1, 0]<br/>class = Não Usuario>, fillcolor="#e58139"] ;
34 -> 36 ;
37 [label=<InstabilidadeEmocional &le; 0.38<br/>gini = 0.375<br/>samples = 8<br/>value = [6, 2]<br/>class = Não Usuario>, fillcolor="#eeab7b"] ;
33 -> 37 ;
38 [label=<gini = 0.0<br/>samples = 1<br/>value = [0, 1]<br/>class = Usuario>, fillcolor="#399de5"] ;
37 -> 38 ;
39 [label=<Conscienciosidade &le; 0.77<br/>gini = 0.245<br/>samples = 7<br/>value = [6, 1]<br/>class = Não Usuario>, fillcolor="#e9965a"] ;
37 -> 39 ;
40 [label=<gini = 0.0<br/>samples = 6<br/>value = [6, 0]<br/>class = Não Usuario>, fillcolor="#e58139"] ;
39 -> 40 ;
41 [label=<gini = 0.0<br/>samples = 1<br/>value = [0, 1]<br/>class = Usuario>, fillcolor="#399de5"] ;
39 -> 41 ;
42 [label=<Impulsividade &le; 0.055<br/>gini = 0.145<br/>samples = 51<br/>value = [4, 47]<br/>class = Usuario>, fillcolor="#4aa5e7"] ;
30 -> 42 ;
43 [label=<gini = 0.0<br/>samples = 1<br/>value = [1, 0]<br/>class = Não Usuario>, fillcolor="#e58139"] ;
42 -> 43 ;
44 [label=<Conscienciosidade &le; 0.796<br/>gini = 0.113<br/>samples = 50<br/>value = [3, 47]<br/>class = Usuario>, fillcolor="#46a3e7"] ;
42 -> 44 ;
45 [label=<Agradabilidade &le; 0.419<br/>gini = 0.078<br/>samples = 49<br/>value = [2, 47]<br/>class = Usuario>, fillcolor="#41a1e6"] ;
44 -> 45 ;
46 [label=<Agradabilidade &le; 0.391<br/>gini = 0.408<br/>samples = 7<br/>value = [2, 5]<br/>class = Usuario>, fillcolor="#88c4ef"] ;
45 -> 46 ;
47 [label=<gini = 0.0<br/>samples = 5<br/>value = [0, 5]<br/>class = Usuario>, fillcolor="#399de5"] ;
46 -> 47 ;
48 [label=<gini = 0.0<br/>samples = 2<br/>value = [2, 0]<br/>class = Não Usuario>, fillcolor="#e58139"] ;
46 -> 48 ;
49 [label=<gini = 0.0<br/>samples = 42<br/>value = [0, 42]<br/>class = Usuario>, fillcolor="#399de5"] ;
45 -> 49 ;
50 [label=<gini = 0.0<br/>samples = 1<br/>value = [1, 0]<br/>class = Não Usuario>, fillcolor="#e58139"] ;
44 -> 50 ;
51 [label=<gini = 0.0<br/>samples = 2<br/>value = [2, 0]<br/>class = Não Usuario>, fillcolor="#e58139"] ;
29 -> 51 ;
52 [label=<Agradabilidade &le; 0.739<br/>gini = 0.375<br/>samples = 8<br/>value = [6, 2]<br/>class = Não Usuario>, fillcolor="#eeab7b"] ;
28 -> 52 ;
53 [label=<gini = 0.0<br/>samples = 6<br/>value = [6, 0]<br/>class = Não Usuario>, fillcolor="#e58139"] ;
52 -> 53 ;
54 [label=<gini = 0.0<br/>samples = 2<br/>value = [0, 2]<br/>class = Usuario>, fillcolor="#399de5"] ;
52 -> 54 ;
55 [label=<Impulsividade &le; 0.385<br/>gini = 0.133<br/>samples = 14<br/>value = [13, 1]<br/>class = Não Usuario>, fillcolor="#e78b48"] ;
23 -> 55 ;
56 [label=<InstabilidadeEmocional &le; 0.51<br/>gini = 0.278<br/>samples = 6<br/>value = [5, 1]<br/>class = Não Usuario>, fillcolor="#ea9a61"] ;
55 -> 56 ;
57 [label=<gini = 0.0<br/>samples = 3<br/>value = [3, 0]<br/>class = Não Usuario>, fillcolor="#e58139"] ;
56 -> 57 ;
58 [label=<AberturaExperiencia &le; 0.295<br/>gini = 0.444<br/>samples = 3<br/>value = [2, 1]<br/>class = Não Usuario>, fillcolor="#f2c09c"] ;
56 -> 58 ;
59 [label=<gini = 0.0<br/>samples = 2<br/>value = [2, 0]<br/>class = Não Usuario>, fillcolor="#e58139"] ;
58 -> 59 ;
60 [label=<gini = 0.0<br/>samples = 1<br/>value = [0, 1]<br/>class = Usuario>, fillcolor="#399de5"] ;
58 -> 60 ;
61 [label=<gini = 0.0<br/>samples = 8<br/>value = [8, 0]<br/>class = Não Usuario>, fillcolor="#e58139"] ;
55 -> 61 ;
62 [label=<AberturaExperiencia &le; 0.28<br/>gini = 0.429<br/>samples = 90<br/>value = [62, 28]<br/>class = Não Usuario>, fillcolor="#f1ba92"] ;
22 -> 62 ;
63 [label=<Extroversao &le; 0.545<br/>gini = 0.444<br/>samples = 15<br/>value = [5, 10]<br/>class = Usuario>, fillcolor="#9ccef2"] ;
62 -> 63 ;
64 [label=<Impulsividade &le; 0.275<br/>gini = 0.32<br/>samples = 5<br/>value = [4, 1]<br/>class = Não Usuario>, fillcolor="#eca06a"] ;
63 -> 64 ;
65 [label=<gini = 0.0<br/>samples = 1<br/>value = [0, 1]<br/>class = Usuario>, fillcolor="#399de5"] ;
64 -> 65 ;
66 [label=<gini = 0.0<br/>samples = 4<br/>value = [4, 0]<br/>class = Não Usuario>, fillcolor="#e58139"] ;
64 -> 66 ;
67 [label=<Agradabilidade &le; 0.68<br/>gini = 0.18<br/>samples = 10<br/>value = [1, 9]<br/>class = Usuario>, fillcolor="#4fa8e8"] ;
63 -> 67 ;
68 [label=<gini = 0.0<br/>samples = 9<br/>value = [0, 9]<br/>class = Usuario>, fillcolor="#399de5"] ;
67 -> 68 ;
69 [label=<gini = 0.0<br/>samples = 1<br/>value = [1, 0]<br/>class = Não Usuario>, fillcolor="#e58139"] ;
67 -> 69 ;
70 [label=<Agradabilidade &le; 0.65<br/>gini = 0.365<br/>samples = 75<br/>value = [57, 18]<br/>class = Não Usuario>, fillcolor="#eda978"] ;
62 -> 70 ;
71 [label=<Conscienciosidade &le; 0.84<br/>gini = 0.288<br/>samples = 63<br/>value = [52, 11]<br/>class = Não Usuario>, fillcolor="#ea9c63"] ;
70 -> 71 ;
72 [label=<Conscienciosidade &le; 0.405<br/>gini = 0.215<br/>samples = 57<br/>value = [50, 7]<br/>class = Não Usuario>, fillcolor="#e99355"] ;
71 -> 72 ;
73 [label=<gini = 0.0<br/>samples = 2<br/>value = [0, 2]<br/>class = Usuario>, fillcolor="#399de5"] ;
72 -> 73 ;
74 [label=<Agradabilidade &le; 0.45<br/>gini = 0.165<br/>samples = 55<br/>value = [50, 5]<br/>class = Não Usuario>, fillcolor="#e88e4d"] ;
72 -> 74 ;
75 [label=<Agradabilidade &le; 0.41<br/>gini = 0.375<br/>samples = 12<br/>value = [9, 3]<br/>class = Não Usuario>, fillcolor="#eeab7b"] ;
74 -> 75 ;
76 [label=<gini = 0.0<br/>samples = 7<br/>value = [7, 0]<br/>class = Não Usuario>, fillcolor="#e58139"] ;
75 -> 76 ;
77 [label=<Impulsividade &le; 0.321<br/>gini = 0.48<br/>samples = 5<br/>value = [2, 3]<br/>class = Usuario>, fillcolor="#bddef6"] ;
75 -> 77 ;
78 [label=<Impulsividade &le; 0.165<br/>gini = 0.444<br/>samples = 3<br/>value = [2, 1]<br/>class = Não Usuario>, fillcolor="#f2c09c"] ;
77 -> 78 ;
79 [label=<gini = 0.0<br/>samples = 1<br/>value = [0, 1]<br/>class = Usuario>, fillcolor="#399de5"] ;
78 -> 79 ;
80 [label=<gini = 0.0<br/>samples = 2<br/>value = [2, 0]<br/>class = Não Usuario>, fillcolor="#e58139"] ;
78 -> 80 ;
81 [label=<gini = 0.0<br/>samples = 2<br/>value = [0, 2]<br/>class = Usuario>, fillcolor="#399de5"] ;
77 -> 81 ;
82 [label=<InstabilidadeEmocional &le; 0.526<br/>gini = 0.089<br/>samples = 43<br/>value = [41, 2]<br/>class = Não Usuario>, fillcolor="#e68743"] ;
74 -> 82 ;
83 [label=<gini = 0.0<br/>samples = 29<br/>value = [29, 0]<br/>class = Não Usuario>, fillcolor="#e58139"] ;
82 -> 83 ;
84 [label=<InstabilidadeEmocional &le; 0.541<br/>gini = 0.245<br/>samples = 14<br/>value = [12, 2]<br/>class = Não Usuario>, fillcolor="#e9965a"] ;
82 -> 84 ;
85 [label=<gini = 0.0<br/>samples = 1<br/>value = [0, 1]<br/>class = Usuario>, fillcolor="#399de5"] ;
84 -> 85 ;
86 [label=<Conscienciosidade &le; 0.66<br/>gini = 0.142<br/>samples = 13<br/>value = [12, 1]<br/>class = Não Usuario>, fillcolor="#e78c49"] ;
84 -> 86 ;
87 [label=<Conscienciosidade &le; 0.625<br/>gini = 0.375<br/>samples = 4<br/>value = [3, 1]<br/>class = Não Usuario>, fillcolor="#eeab7b"] ;
86 -> 87 ;
88 [label=<gini = 0.0<br/>samples = 3<br/>value = [3, 0]<br/>class = Não Usuario>, fillcolor="#e58139"] ;
87 -> 88 ;
89 [label=<gini = 0.0<br/>samples = 1<br/>value = [0, 1]<br/>class = Usuario>, fillcolor="#399de5"] ;
87 -> 89 ;
90 [label=<gini = 0.0<br/>samples = 9<br/>value = [9, 0]<br/>class = Não Usuario>, fillcolor="#e58139"] ;
86 -> 90 ;
91 [label=<BuscaPorExperiencias &le; 0.55<br/>gini = 0.444<br/>samples = 6<br/>value = [2, 4]<br/>class = Usuario>, fillcolor="#9ccef2"] ;
71 -> 91 ;
92 [label=<gini = 0.0<br/>samples = 2<br/>value = [2, 0]<br/>class = Não Usuario>, fillcolor="#e58139"] ;
91 -> 92 ;
93 [label=<gini = 0.0<br/>samples = 4<br/>value = [0, 4]<br/>class = Usuario>, fillcolor="#399de5"] ;
91 -> 93 ;
94 [label=<AberturaExperiencia &le; 0.619<br/>gini = 0.486<br/>samples = 12<br/>value = [5, 7]<br/>class = Usuario>, fillcolor="#c6e3f8"] ;
70 -> 94 ;
95 [label=<AberturaExperiencia &le; 0.41<br/>gini = 0.245<br/>samples = 7<br/>value = [1, 6]<br/>class = Usuario>, fillcolor="#5aade9"] ;
94 -> 95 ;
96 [label=<gini = 0.0<br/>samples = 1<br/>value = [1, 0]<br/>class = Não Usuario>, fillcolor="#e58139"] ;
95 -> 96 ;
97 [label=<gini = 0.0<br/>samples = 6<br/>value = [0, 6]<br/>class = Usuario>, fillcolor="#399de5"] ;
95 -> 97 ;
98 [label=<InstabilidadeEmocional &le; 0.545<br/>gini = 0.32<br/>samples = 5<br/>value = [4, 1]<br/>class = Não Usuario>, fillcolor="#eca06a"] ;
94 -> 98 ;
99 [label=<gini = 0.0<br/>samples = 1<br/>value = [0, 1]<br/>class = Usuario>, fillcolor="#399de5"] ;
98 -> 99 ;
100 [label=<gini = 0.0<br/>samples = 4<br/>value = [4, 0]<br/>class = Não Usuario>, fillcolor="#e58139"] ;
98 -> 100 ;
101 [label=<Extroversao &le; 0.62<br/>gini = 0.449<br/>samples = 159<br/>value = [54, 105]<br/>class = Usuario>, fillcolor="#9fcff2"] ;
21 -> 101 ;
102 [label=<gini = 0.0<br/>samples = 20<br/>value = [0, 20]<br/>class = Usuario>, fillcolor="#399de5"] ;
101 -> 102 ;
103 [label=<BuscaPorExperiencias &le; 0.5<br/>gini = 0.475<br/>samples = 139<br/>value = [54, 85]<br/>class = Usuario>, fillcolor="#b7dbf6"] ;
101 -> 103 ;
104 [label=<AberturaExperiencia &le; 0.26<br/>gini = 0.5<br/>samples = 88<br/>value = [44, 44]<br/>class = Não Usuario>, fillcolor="#ffffff"] ;
103 -> 104 ;
105 [label=<gini = 0.0<br/>samples = 9<br/>value = [9, 0]<br/>class = Não Usuario>, fillcolor="#e58139"] ;
104 -> 105 ;
106 [label=<Agradabilidade &le; 0.48<br/>gini = 0.494<br/>samples = 79<br/>value = [35, 44]<br/>class = Usuario>, fillcolor="#d7ebfa"] ;
104 -> 106 ;
107 [label=<Extroversao &le; 0.629<br/>gini = 0.394<br/>samples = 37<br/>value = [10, 27]<br/>class = Usuario>, fillcolor="#82c1ef"] ;
106 -> 107 ;
108 [label=<gini = 0.0<br/>samples = 3<br/>value = [3, 0]<br/>class = Não Usuario>, fillcolor="#e58139"] ;
107 -> 108 ;
109 [label=<Conscienciosidade &le; 0.84<br/>gini = 0.327<br/>samples = 34<br/>value = [7, 27]<br/>class = Usuario>, fillcolor="#6cb6ec"] ;
107 -> 109 ;
110 [label=<Extroversao &le; 0.69<br/>gini = 0.231<br/>samples = 30<br/>value = [4, 26]<br/>class = Usuario>, fillcolor="#57ace9"] ;
109 -> 110 ;
111 [label=<gini = 0.0<br/>samples = 22<br/>value = [0, 22]<br/>class = Usuario>, fillcolor="#399de5"] ;
110 -> 111 ;
112 [label=<Extroversao &le; 0.692<br/>gini = 0.5<br/>samples = 8<br/>value = [4, 4]<br/>class = Não Usuario>, fillcolor="#ffffff"] ;
110 -> 112 ;
113 [label=<gini = 0.0<br/>samples = 4<br/>value = [4, 0]<br/>class = Não Usuario>, fillcolor="#e58139"] ;
112 -> 113 ;
114 [label=<gini = 0.0<br/>samples = 4<br/>value = [0, 4]<br/>class = Usuario>, fillcolor="#399de5"] ;
112 -> 114 ;
115 [label=<Impulsividade &le; 0.275<br/>gini = 0.375<br/>samples = 4<br/>value = [3, 1]<br/>class = Não Usuario>, fillcolor="#eeab7b"] ;
109 -> 115 ;
116 [label=<gini = 0.0<br/>samples = 1<br/>value = [0, 1]<br/>class = Usuario>, fillcolor="#399de5"] ;
115 -> 116 ;
117 [label=<gini = 0.0<br/>samples = 3<br/>value = [3, 0]<br/>class = Não Usuario>, fillcolor="#e58139"] ;
115 -> 117 ;
118 [label=<Conscienciosidade &le; 0.674<br/>gini = 0.482<br/>samples = 42<br/>value = [25, 17]<br/>class = Não Usuario>, fillcolor="#f7d7c0"] ;
106 -> 118 ;
119 [label=<InstabilidadeEmocional &le; 0.49<br/>gini = 0.291<br/>samples = 17<br/>value = [14, 3]<br/>class = Não Usuario>, fillcolor="#eb9c63"] ;
118 -> 119 ;
120 [label=<AberturaExperiencia &le; 0.555<br/>gini = 0.49<br/>samples = 7<br/>value = [4, 3]<br/>class = Não Usuario>, fillcolor="#f8e0ce"] ;
119 -> 120 ;
121 [label=<gini = 0.0<br/>samples = 2<br/>value = [0, 2]<br/>class = Usuario>, fillcolor="#399de5"] ;
120 -> 121 ;
122 [label=<InstabilidadeEmocional &le; 0.295<br/>gini = 0.32<br/>samples = 5<br/>value = [4, 1]<br/>class = Não Usuario>, fillcolor="#eca06a"] ;
120 -> 122 ;
123 [label=<gini = 0.0<br/>samples = 1<br/>value = [0, 1]<br/>class = Usuario>, fillcolor="#399de5"] ;
122 -> 123 ;
124 [label=<gini = 0.0<br/>samples = 4<br/>value = [4, 0]<br/>class = Não Usuario>, fillcolor="#e58139"] ;
122 -> 124 ;
125 [label=<gini = 0.0<br/>samples = 10<br/>value = [10, 0]<br/>class = Não Usuario>, fillcolor="#e58139"] ;
119 -> 125 ;
126 [label=<Impulsividade &le; 0.332<br/>gini = 0.493<br/>samples = 25<br/>value = [11, 14]<br/>class = Usuario>, fillcolor="#d5eaf9"] ;
118 -> 126 ;
127 [label=<Impulsividade &le; 0.275<br/>gini = 0.473<br/>samples = 13<br/>value = [8, 5]<br/>class = Não Usuario>, fillcolor="#f5d0b5"] ;
126 -> 127 ;
128 [label=<InstabilidadeEmocional &le; 0.6<br/>gini = 0.444<br/>samples = 6<br/>value = [2, 4]<br/>class = Usuario>, fillcolor="#9ccef2"] ;
127 -> 128 ;
129 [label=<AberturaExperiencia &le; 0.665<br/>gini = 0.444<br/>samples = 3<br/>value = [2, 1]<br/>class = Não Usuario>, fillcolor="#f2c09c"] ;
128 -> 129 ;
130 [label=<gini = 0.0<br/>samples = 2<br/>value = [2, 0]<br/>class = Não Usuario>, fillcolor="#e58139"] ;
129 -> 130 ;
131 [label=<gini = 0.0<br/>samples = 1<br/>value = [0, 1]<br/>class = Usuario>, fillcolor="#399de5"] ;
129 -> 131 ;
132 [label=<gini = 0.0<br/>samples = 3<br/>value = [0, 3]<br/>class = Usuario>, fillcolor="#399de5"] ;
128 -> 132 ;
133 [label=<Conscienciosidade &le; 0.79<br/>gini = 0.245<br/>samples = 7<br/>value = [6, 1]<br/>class = Não Usuario>, fillcolor="#e9965a"] ;
127 -> 133 ;
134 [label=<gini = 0.0<br/>samples = 5<br/>value = [5, 0]<br/>class = Não Usuario>, fillcolor="#e58139"] ;
133 -> 134 ;
135 [label=<Agradabilidade &le; 0.54<br/>gini = 0.5<br/>samples = 2<br/>value = [1, 1]<br/>class = Não Usuario>, fillcolor="#ffffff"] ;
133 -> 135 ;
136 [label=<gini = 0.0<br/>samples = 1<br/>value = [1, 0]<br/>class = Não Usuario>, fillcolor="#e58139"] ;
135 -> 136 ;
137 [label=<gini = 0.0<br/>samples = 1<br/>value = [0, 1]<br/>class = Usuario>, fillcolor="#399de5"] ;
135 -> 137 ;
138 [label=<Extroversao &le; 0.626<br/>gini = 0.375<br/>samples = 12<br/>value = [3, 9]<br/>class = Usuario>, fillcolor="#7bbeee"] ;
126 -> 138 ;
139 [label=<AberturaExperiencia &le; 0.39<br/>gini = 0.5<br/>samples = 6<br/>value = [3, 3]<br/>class = Não Usuario>, fillcolor="#ffffff"] ;
138 -> 139 ;
140 [label=<gini = 0.0<br/>samples = 3<br/>value = [0, 3]<br/>class = Usuario>, fillcolor="#399de5"] ;
139 -> 140 ;
141 [label=<gini = 0.0<br/>samples = 3<br/>value = [3, 0]<br/>class = Não Usuario>, fillcolor="#e58139"] ;
139 -> 141 ;
142 [label=<gini = 0.0<br/>samples = 6<br/>value = [0, 6]<br/>class = Usuario>, fillcolor="#399de5"] ;
138 -> 142 ;
143 [label=<BuscaPorExperiencias &le; 0.597<br/>gini = 0.315<br/>samples = 51<br/>value = [10, 41]<br/>class = Usuario>, fillcolor="#69b5eb"] ;
103 -> 143 ;
144 [label=<gini = 0.0<br/>samples = 24<br/>value = [0, 24]<br/>class = Usuario>, fillcolor="#399de5"] ;
143 -> 144 ;
145 [label=<AberturaExperiencia &le; 0.345<br/>gini = 0.466<br/>samples = 27<br/>value = [10, 17]<br/>class = Usuario>, fillcolor="#add7f4"] ;
143 -> 145 ;
146 [label=<gini = 0.0<br/>samples = 8<br/>value = [0, 8]<br/>class = Usuario>, fillcolor="#399de5"] ;
145 -> 146 ;
147 [label=<Impulsividade &le; 0.643<br/>gini = 0.499<br/>samples = 19<br/>value = [10, 9]<br/>class = Não Usuario>, fillcolor="#fcf2eb"] ;
145 -> 147 ;
148 [label=<Agradabilidade &le; 0.43<br/>gini = 0.444<br/>samples = 12<br/>value = [4, 8]<br/>class = Usuario>, fillcolor="#9ccef2"] ;
147 -> 148 ;
149 [label=<gini = 0.0<br/>samples = 2<br/>value = [2, 0]<br/>class = Não Usuario>, fillcolor="#e58139"] ;
148 -> 149 ;
150 [label=<Agradabilidade &le; 0.67<br/>gini = 0.32<br/>samples = 10<br/>value = [2, 8]<br/>class = Usuario>, fillcolor="#6ab6ec"] ;
148 -> 150 ;
151 [label=<gini = 0.0<br/>samples = 7<br/>value = [0, 7]<br/>class = Usuario>, fillcolor="#399de5"] ;
150 -> 151 ;
152 [label=<InstabilidadeEmocional &le; 0.62<br/>gini = 0.444<br/>samples = 3<br/>value = [2, 1]<br/>class = Não Usuario>, fillcolor="#f2c09c"] ;
150 -> 152 ;
153 [label=<gini = 0.0<br/>samples = 2<br/>value = [2, 0]<br/>class = Não Usuario>, fillcolor="#e58139"] ;
152 -> 153 ;
154 [label=<gini = 0.0<br/>samples = 1<br/>value = [0, 1]<br/>class = Usuario>, fillcolor="#399de5"] ;
152 -> 154 ;
155 [label=<AberturaExperiencia &le; 0.725<br/>gini = 0.245<br/>samples = 7<br/>value = [6, 1]<br/>class = Não Usuario>, fillcolor="#e9965a"] ;
147 -> 155 ;
156 [label=<gini = 0.0<br/>samples = 6<br/>value = [6, 0]<br/>class = Não Usuario>, fillcolor="#e58139"] ;
155 -> 156 ;
157 [label=<gini = 0.0<br/>samples = 1<br/>value = [0, 1]<br/>class = Usuario>, fillcolor="#399de5"] ;
155 -> 157 ;
158 [label=<Impulsividade &le; 0.441<br/>gini = 0.45<br/>samples = 158<br/>value = [104, 54]<br/>class = Não Usuario>, fillcolor="#f2c2a0"] ;
20 -> 158 ;
159 [label=<Conscienciosidade &le; 0.884<br/>gini = 0.339<br/>samples = 111<br/>value = [87, 24]<br/>class = Não Usuario>, fillcolor="#eca470"] ;
158 -> 159 ;
160 [label=<Agradabilidade &le; 0.702<br/>gini = 0.24<br/>samples = 93<br/>value = [80, 13]<br/>class = Não Usuario>, fillcolor="#e99559"] ;
159 -> 160 ;
161 [label=<AberturaExperiencia &le; 0.901<br/>gini = 0.191<br/>samples = 84<br/>value = [75, 9]<br/>class = Não Usuario>, fillcolor="#e89051"] ;
160 -> 161 ;
162 [label=<AberturaExperiencia &le; 0.45<br/>gini = 0.158<br/>samples = 81<br/>value = [74, 7]<br/>class = Não Usuario>, fillcolor="#e78d4c"] ;
161 -> 162 ;
163 [label=<InstabilidadeEmocional &le; 0.345<br/>gini = 0.051<br/>samples = 38<br/>value = [37, 1]<br/>class = Não Usuario>, fillcolor="#e6843e"] ;
162 -> 163 ;
164 [label=<BuscaPorExperiencias &le; 0.4<br/>gini = 0.444<br/>samples = 3<br/>value = [2, 1]<br/>class = Não Usuario>, fillcolor="#f2c09c"] ;
163 -> 164 ;
165 [label=<gini = 0.0<br/>samples = 1<br/>value = [0, 1]<br/>class = Usuario>, fillcolor="#399de5"] ;
164 -> 165 ;
166 [label=<gini = 0.0<br/>samples = 2<br/>value = [2, 0]<br/>class = Não Usuario>, fillcolor="#e58139"] ;
164 -> 166 ;
167 [label=<gini = 0.0<br/>samples = 35<br/>value = [35, 0]<br/>class = Não Usuario>, fillcolor="#e58139"] ;
163 -> 167 ;
168 [label=<AberturaExperiencia &le; 0.49<br/>gini = 0.24<br/>samples = 43<br/>value = [37, 6]<br/>class = Não Usuario>, fillcolor="#e99559"] ;
162 -> 168 ;
169 [label=<BuscaPorExperiencias &le; 0.55<br/>gini = 0.375<br/>samples = 4<br/>value = [1, 3]<br/>class = Usuario>, fillcolor="#7bbeee"] ;
168 -> 169 ;
170 [label=<gini = 0.0<br/>samples = 3<br/>value = [0, 3]<br/>class = Usuario>, fillcolor="#399de5"] ;
169 -> 170 ;
171 [label=<gini = 0.0<br/>samples = 1<br/>value = [1, 0]<br/>class = Não Usuario>, fillcolor="#e58139"] ;
169 -> 171 ;
172 [label=<BuscaPorExperiencias &le; 0.55<br/>gini = 0.142<br/>samples = 39<br/>value = [36, 3]<br/>class = Não Usuario>, fillcolor="#e78c49"] ;
168 -> 172 ;
173 [label=<Agradabilidade &le; 0.454<br/>gini = 0.064<br/>samples = 30<br/>value = [29, 1]<br/>class = Não Usuario>, fillcolor="#e68540"] ;
172 -> 173 ;
174 [label=<Agradabilidade &le; 0.424<br/>gini = 0.375<br/>samples = 4<br/>value = [3, 1]<br/>class = Não Usuario>, fillcolor="#eeab7b"] ;
173 -> 174 ;
175 [label=<gini = 0.0<br/>samples = 3<br/>value = [3, 0]<br/>class = Não Usuario>, fillcolor="#e58139"] ;
174 -> 175 ;
176 [label=<gini = 0.0<br/>samples = 1<br/>value = [0, 1]<br/>class = Usuario>, fillcolor="#399de5"] ;
174 -> 176 ;
177 [label=<gini = 0.0<br/>samples = 26<br/>value = [26, 0]<br/>class = Não Usuario>, fillcolor="#e58139"] ;
173 -> 177 ;
178 [label=<AberturaExperiencia &le; 0.57<br/>gini = 0.346<br/>samples = 9<br/>value = [7, 2]<br/>class = Não Usuario>, fillcolor="#eca572"] ;
172 -> 178 ;
179 [label=<gini = 0.0<br/>samples = 2<br/>value = [0, 2]<br/>class = Usuario>, fillcolor="#399de5"] ;
178 -> 179 ;
180 [label=<gini = 0.0<br/>samples = 7<br/>value = [7, 0]<br/>class = Não Usuario>, fillcolor="#e58139"] ;
178 -> 180 ;
181 [label=<Extroversao &le; 0.756<br/>gini = 0.444<br/>samples = 3<br/>value = [1, 2]<br/>class = Usuario>, fillcolor="#9ccef2"] ;
161 -> 181 ;
182 [label=<gini = 0.0<br/>samples = 1<br/>value = [1, 0]<br/>class = Não Usuario>, fillcolor="#e58139"] ;
181 -> 182 ;
183 [label=<gini = 0.0<br/>samples = 2<br/>value = [0, 2]<br/>class = Usuario>, fillcolor="#399de5"] ;
181 -> 183 ;
184 [label=<Agradabilidade &le; 0.73<br/>gini = 0.494<br/>samples = 9<br/>value = [5, 4]<br/>class = Não Usuario>, fillcolor="#fae6d7"] ;
160 -> 184 ;
185 [label=<gini = 0.0<br/>samples = 3<br/>value = [0, 3]<br/>class = Usuario>, fillcolor="#399de5"] ;
184 -> 185 ;
186 [label=<InstabilidadeEmocional &le; 0.535<br/>gini = 0.278<br/>samples = 6<br/>value = [5, 1]<br/>class = Não Usuario>, fillcolor="#ea9a61"] ;
184 -> 186 ;
187 [label=<gini = 0.0<br/>samples = 1<br/>value = [0, 1]<br/>class = Usuario>, fillcolor="#399de5"] ;
186 -> 187 ;
188 [label=<gini = 0.0<br/>samples = 5<br/>value = [5, 0]<br/>class = Não Usuario>, fillcolor="#e58139"] ;
186 -> 188 ;
189 [label=<Conscienciosidade &le; 0.933<br/>gini = 0.475<br/>samples = 18<br/>value = [7, 11]<br/>class = Usuario>, fillcolor="#b7dbf6"] ;
159 -> 189 ;
190 [label=<Impulsividade &le; 0.397<br/>gini = 0.337<br/>samples = 14<br/>value = [3, 11]<br/>class = Usuario>, fillcolor="#6fb8ec"] ;
189 -> 190 ;
191 [label=<AberturaExperiencia &le; 0.52<br/>gini = 0.153<br/>samples = 12<br/>value = [1, 11]<br/>class = Usuario>, fillcolor="#4ba6e7"] ;
190 -> 191 ;
192 [label=<gini = 0.0<br/>samples = 10<br/>value = [0, 10]<br/>class = Usuario>, fillcolor="#399de5"] ;
191 -> 192 ;
193 [label=<InstabilidadeEmocional &le; 0.595<br/>gini = 0.5<br/>samples = 2<br/>value = [1, 1]<br/>class = Não Usuario>, fillcolor="#ffffff"] ;
191 -> 193 ;
194 [label=<gini = 0.0<br/>samples = 1<br/>value = [1, 0]<br/>class = Não Usuario>, fillcolor="#e58139"] ;
193 -> 194 ;
195 [label=<gini = 0.0<br/>samples = 1<br/>value = [0, 1]<br/>class = Usuario>, fillcolor="#399de5"] ;
193 -> 195 ;
196 [label=<gini = 0.0<br/>samples = 2<br/>value = [2, 0]<br/>class = Não Usuario>, fillcolor="#e58139"] ;
190 -> 196 ;
197 [label=<gini = 0.0<br/>samples = 4<br/>value = [4, 0]<br/>class = Não Usuario>, fillcolor="#e58139"] ;
189 -> 197 ;
198 [label=<Agradabilidade &le; 0.596<br/>gini = 0.462<br/>samples = 47<br/>value = [17, 30]<br/>class = Usuario>, fillcolor="#a9d5f4"] ;
158 -> 198 ;
199 [label=<BuscaPorExperiencias &le; 0.592<br/>gini = 0.375<br/>samples = 36<br/>value = [9, 27]<br/>class = Usuario>, fillcolor="#7bbeee"] ;
198 -> 199 ;
200 [label=<Conscienciosidade &le; 0.775<br/>gini = 0.238<br/>samples = 29<br/>value = [4, 25]<br/>class = Usuario>, fillcolor="#59ade9"] ;
199 -> 200 ;
201 [label=<AberturaExperiencia &le; 0.698<br/>gini = 0.463<br/>samples = 11<br/>value = [4, 7]<br/>class = Usuario>, fillcolor="#aad5f4"] ;
200 -> 201 ;
202 [label=<gini = 0.0<br/>samples = 3<br/>value = [3, 0]<br/>class = Não Usuario>, fillcolor="#e58139"] ;
201 -> 202 ;
203 [label=<BuscaPorExperiencias &le; 0.385<br/>gini = 0.219<br/>samples = 8<br/>value = [1, 7]<br/>class = Usuario>, fillcolor="#55abe9"] ;
201 -> 203 ;
204 [label=<gini = 0.0<br/>samples = 1<br/>value = [1, 0]<br/>class = Não Usuario>, fillcolor="#e58139"] ;
203 -> 204 ;
205 [label=<gini = 0.0<br/>samples = 7<br/>value = [0, 7]<br/>class = Usuario>, fillcolor="#399de5"] ;
203 -> 205 ;
206 [label=<gini = 0.0<br/>samples = 18<br/>value = [0, 18]<br/>class = Usuario>, fillcolor="#399de5"] ;
200 -> 206 ;
207 [label=<Extroversao &le; 0.74<br/>gini = 0.408<br/>samples = 7<br/>value = [5, 2]<br/>class = Não Usuario>, fillcolor="#efb388"] ;
199 -> 207 ;
208 [label=<Conscienciosidade &le; 0.675<br/>gini = 0.444<br/>samples = 3<br/>value = [1, 2]<br/>class = Usuario>, fillcolor="#9ccef2"] ;
207 -> 208 ;
209 [label=<gini = 0.0<br/>samples = 2<br/>value = [0, 2]<br/>class = Usuario>, fillcolor="#399de5"] ;
208 -> 209 ;
210 [label=<gini = 0.0<br/>samples = 1<br/>value = [1, 0]<br/>class = Não Usuario>, fillcolor="#e58139"] ;
208 -> 210 ;
211 [label=<gini = 0.0<br/>samples = 4<br/>value = [4, 0]<br/>class = Não Usuario>, fillcolor="#e58139"] ;
207 -> 211 ;
212 [label=<Agradabilidade &le; 0.72<br/>gini = 0.397<br/>samples = 11<br/>value = [8, 3]<br/>class = Não Usuario>, fillcolor="#efb083"] ;
198 -> 212 ;
213 [label=<Impulsividade &le; 0.835<br/>gini = 0.219<br/>samples = 8<br/>value = [7, 1]<br/>class = Não Usuario>, fillcolor="#e99355"] ;
212 -> 213 ;
214 [label=<gini = 0.0<br/>samples = 7<br/>value = [7, 0]<br/>class = Não Usuario>, fillcolor="#e58139"] ;
213 -> 214 ;
215 [label=<gini = 0.0<br/>samples = 1<br/>value = [0, 1]<br/>class = Usuario>, fillcolor="#399de5"] ;
213 -> 215 ;
216 [label=<Conscienciosidade &le; 0.605<br/>gini = 0.444<br/>samples = 3<br/>value = [1, 2]<br/>class = Usuario>, fillcolor="#9ccef2"] ;
212 -> 216 ;
217 [label=<gini = 0.0<br/>samples = 1<br/>value = [1, 0]<br/>class = Não Usuario>, fillcolor="#e58139"] ;
216 -> 217 ;
218 [label=<gini = 0.0<br/>samples = 2<br/>value = [0, 2]<br/>class = Usuario>, fillcolor="#399de5"] ;
216 -> 218 ;
219 [label=<Agradabilidade &le; 0.538<br/>gini = 0.312<br/>samples = 373<br/>value = [301, 72]<br/>class = Não Usuario>, fillcolor="#eb9f68"] ;
1 -> 219 ;
220 [label=<Impulsividade &le; 0.217<br/>gini = 0.428<br/>samples = 113<br/>value = [78, 35]<br/>class = Não Usuario>, fillcolor="#f1ba92"] ;
219 -> 220 ;
221 [label=<Impulsividade &le; 0.127<br/>gini = 0.494<br/>samples = 65<br/>value = [36, 29]<br/>class = Não Usuario>, fillcolor="#fae7d9"] ;
220 -> 221 ;
222 [label=<AberturaExperiencia &le; 0.74<br/>gini = 0.375<br/>samples = 48<br/>value = [36, 12]<br/>class = Não Usuario>, fillcolor="#eeab7b"] ;
221 -> 222 ;
223 [label=<Conscienciosidade &le; 0.793<br/>gini = 0.32<br/>samples = 45<br/>value = [36, 9]<br/>class = Não Usuario>, fillcolor="#eca06a"] ;
222 -> 223 ;
224 [label=<Extroversao &le; 0.395<br/>gini = 0.25<br/>samples = 41<br/>value = [35, 6]<br/>class = Não Usuario>, fillcolor="#e9975b"] ;
223 -> 224 ;
225 [label=<gini = 0.0<br/>samples = 1<br/>value = [0, 1]<br/>class = Usuario>, fillcolor="#399de5"] ;
224 -> 225 ;
226 [label=<BuscaPorExperiencias &le; 0.15<br/>gini = 0.219<br/>samples = 40<br/>value = [35, 5]<br/>class = Não Usuario>, fillcolor="#e99355"] ;
224 -> 226 ;
227 [label=<Extroversao &le; 0.58<br/>gini = 0.083<br/>samples = 23<br/>value = [22, 1]<br/>class = Não Usuario>, fillcolor="#e68742"] ;
226 -> 227 ;
228 [label=<Agradabilidade &le; 0.51<br/>gini = 0.5<br/>samples = 2<br/>value = [1, 1]<br/>class = Não Usuario>, fillcolor="#ffffff"] ;
227 -> 228 ;
229 [label=<gini = 0.0<br/>samples = 1<br/>value = [0, 1]<br/>class = Usuario>, fillcolor="#399de5"] ;
228 -> 229 ;
230 [label=<gini = 0.0<br/>samples = 1<br/>value = [1, 0]<br/>class = Não Usuario>, fillcolor="#e58139"] ;
228 -> 230 ;
231 [label=<gini = 0.0<br/>samples = 21<br/>value = [21, 0]<br/>class = Não Usuario>, fillcolor="#e58139"] ;
227 -> 231 ;
232 [label=<AberturaExperiencia &le; 0.47<br/>gini = 0.36<br/>samples = 17<br/>value = [13, 4]<br/>class = Não Usuario>, fillcolor="#eda876"] ;
226 -> 232 ;
233 [label=<BuscaPorExperiencias &le; 0.261<br/>gini = 0.5<br/>samples = 6<br/>value = [3, 3]<br/>class = Não Usuario>, fillcolor="#ffffff"] ;
232 -> 233 ;
234 [label=<gini = 0.0<br/>samples = 3<br/>value = [0, 3]<br/>class = Usuario>, fillcolor="#399de5"] ;
233 -> 234 ;
235 [label=<gini = 0.0<br/>samples = 3<br/>value = [3, 0]<br/>class = Não Usuario>, fillcolor="#e58139"] ;
233 -> 235 ;
236 [label=<Agradabilidade &le; 0.49<br/>gini = 0.165<br/>samples = 11<br/>value = [10, 1]<br/>class = Não Usuario>, fillcolor="#e88e4d"] ;
232 -> 236 ;
237 [label=<gini = 0.0<br/>samples = 8<br/>value = [8, 0]<br/>class = Não Usuario>, fillcolor="#e58139"] ;
236 -> 237 ;
238 [label=<BuscaPorExperiencias &le; 0.35<br/>gini = 0.444<br/>samples = 3<br/>value = [2, 1]<br/>class = Não Usuario>, fillcolor="#f2c09c"] ;
236 -> 238 ;
239 [label=<gini = 0.0<br/>samples = 2<br/>value = [2, 0]<br/>class = Não Usuario>, fillcolor="#e58139"] ;
238 -> 239 ;
240 [label=<gini = 0.0<br/>samples = 1<br/>value = [0, 1]<br/>class = Usuario>, fillcolor="#399de5"] ;
238 -> 240 ;
241 [label=<Extroversao &le; 0.593<br/>gini = 0.375<br/>samples = 4<br/>value = [1, 3]<br/>class = Usuario>, fillcolor="#7bbeee"] ;
223 -> 241 ;
242 [label=<gini = 0.0<br/>samples = 1<br/>value = [1, 0]<br/>class = Não Usuario>, fillcolor="#e58139"] ;
241 -> 242 ;
243 [label=<gini = 0.0<br/>samples = 3<br/>value = [0, 3]<br/>class = Usuario>, fillcolor="#399de5"] ;
241 -> 243 ;
244 [label=<gini = 0.0<br/>samples = 3<br/>value = [0, 3]<br/>class = Usuario>, fillcolor="#399de5"] ;
222 -> 244 ;
245 [label=<gini = 0.0<br/>samples = 17<br/>value = [0, 17]<br/>class = Usuario>, fillcolor="#399de5"] ;
221 -> 245 ;
246 [label=<Agradabilidade &le; 0.524<br/>gini = 0.219<br/>samples = 48<br/>value = [42, 6]<br/>class = Não Usuario>, fillcolor="#e99355"] ;
220 -> 246 ;
247 [label=<AberturaExperiencia &le; 0.567<br/>gini = 0.19<br/>samples = 47<br/>value = [42, 5]<br/>class = Não Usuario>, fillcolor="#e89051"] ;
246 -> 247 ;
248 [label=<Impulsividade &le; 0.5<br/>gini = 0.064<br/>samples = 30<br/>value = [29, 1]<br/>class = Não Usuario>, fillcolor="#e68540"] ;
247 -> 248 ;
249 [label=<gini = 0.0<br/>samples = 27<br/>value = [27, 0]<br/>class = Não Usuario>, fillcolor="#e58139"] ;
248 -> 249 ;
250 [label=<BuscaPorExperiencias &le; 0.55<br/>gini = 0.444<br/>samples = 3<br/>value = [2, 1]<br/>class = Não Usuario>, fillcolor="#f2c09c"] ;
248 -> 250 ;
251 [label=<gini = 0.0<br/>samples = 2<br/>value = [2, 0]<br/>class = Não Usuario>, fillcolor="#e58139"] ;
250 -> 251 ;
252 [label=<gini = 0.0<br/>samples = 1<br/>value = [0, 1]<br/>class = Usuario>, fillcolor="#399de5"] ;
250 -> 252 ;
253 [label=<Extroversao &le; 0.528<br/>gini = 0.36<br/>samples = 17<br/>value = [13, 4]<br/>class = Não Usuario>, fillcolor="#eda876"] ;
247 -> 253 ;
254 [label=<BuscaPorExperiencias &le; 0.463<br/>gini = 0.444<br/>samples = 3<br/>value = [1, 2]<br/>class = Usuario>, fillcolor="#9ccef2"] ;
253 -> 254 ;
255 [label=<gini = 0.0<br/>samples = 2<br/>value = [0, 2]<br/>class = Usuario>, fillcolor="#399de5"] ;
254 -> 255 ;
256 [label=<gini = 0.0<br/>samples = 1<br/>value = [1, 0]<br/>class = Não Usuario>, fillcolor="#e58139"] ;
254 -> 256 ;
257 [label=<Conscienciosidade &le; 0.49<br/>gini = 0.245<br/>samples = 14<br/>value = [12, 2]<br/>class = Não Usuario>, fillcolor="#e9965a"] ;
253 -> 257 ;
258 [label=<Conscienciosidade &le; 0.44<br/>gini = 0.5<br/>samples = 2<br/>value = [1, 1]<br/>class = Não Usuario>, fillcolor="#ffffff"] ;
257 -> 258 ;
259 [label=<gini = 0.0<br/>samples = 1<br/>value = [1, 0]<br/>class = Não Usuario>, fillcolor="#e58139"] ;
258 -> 259 ;
260 [label=<gini = 0.0<br/>samples = 1<br/>value = [0, 1]<br/>class = Usuario>, fillcolor="#399de5"] ;
258 -> 260 ;
261 [label=<Extroversao &le; 0.646<br/>gini = 0.153<br/>samples = 12<br/>value = [11, 1]<br/>class = Não Usuario>, fillcolor="#e78c4b"] ;
257 -> 261 ;
262 [label=<BuscaPorExperiencias &le; 0.42<br/>gini = 0.444<br/>samples = 3<br/>value = [2, 1]<br/>class = Não Usuario>, fillcolor="#f2c09c"] ;
261 -> 262 ;
263 [label=<gini = 0.0<br/>samples = 1<br/>value = [0, 1]<br/>class = Usuario>, fillcolor="#399de5"] ;
262 -> 263 ;
264 [label=<gini = 0.0<br/>samples = 2<br/>value = [2, 0]<br/>class = Não Usuario>, fillcolor="#e58139"] ;
262 -> 264 ;
265 [label=<gini = 0.0<br/>samples = 9<br/>value = [9, 0]<br/>class = Não Usuario>, fillcolor="#e58139"] ;
261 -> 265 ;
266 [label=<gini = 0.0<br/>samples = 1<br/>value = [0, 1]<br/>class = Usuario>, fillcolor="#399de5"] ;
246 -> 266 ;
267 [label=<Conscienciosidade &le; 0.881<br/>gini = 0.244<br/>samples = 260<br/>value = [223, 37]<br/>class = Não Usuario>, fillcolor="#e9965a"] ;
219 -> 267 ;
268 [label=<Conscienciosidade &le; 0.6<br/>gini = 0.213<br/>samples = 247<br/>value = [217, 30]<br/>class = Não Usuario>, fillcolor="#e99254"] ;
267 -> 268 ;
269 [label=<Extroversao &le; 0.539<br/>gini = 0.05<br/>samples = 78<br/>value = [76, 2]<br/>class = Não Usuario>, fillcolor="#e6843e"] ;
268 -> 269 ;
270 [label=<Agradabilidade &le; 0.614<br/>gini = 0.375<br/>samples = 4<br/>value = [3, 1]<br/>class = Não Usuario>, fillcolor="#eeab7b"] ;
269 -> 270 ;
271 [label=<gini = 0.0<br/>samples = 3<br/>value = [3, 0]<br/>class = Não Usuario>, fillcolor="#e58139"] ;
270 -> 271 ;
272 [label=<gini = 0.0<br/>samples = 1<br/>value = [0, 1]<br/>class = Usuario>, fillcolor="#399de5"] ;
270 -> 272 ;
273 [label=<Extroversao &le; 0.84<br/>gini = 0.027<br/>samples = 74<br/>value = [73, 1]<br/>class = Não Usuario>, fillcolor="#e5833c"] ;
269 -> 273 ;
274 [label=<gini = 0.0<br/>samples = 61<br/>value = [61, 0]<br/>class = Não Usuario>, fillcolor="#e58139"] ;
273 -> 274 ;
275 [label=<InstabilidadeEmocional &le; 0.75<br/>gini = 0.142<br/>samples = 13<br/>value = [12, 1]<br/>class = Não Usuario>, fillcolor="#e78c49"] ;
273 -> 275 ;
276 [label=<InstabilidadeEmocional &le; 0.725<br/>gini = 0.375<br/>samples = 4<br/>value = [3, 1]<br/>class = Não Usuario>, fillcolor="#eeab7b"] ;
275 -> 276 ;
277 [label=<gini = 0.0<br/>samples = 3<br/>value = [3, 0]<br/>class = Não Usuario>, fillcolor="#e58139"] ;
276 -> 277 ;
278 [label=<gini = 0.0<br/>samples = 1<br/>value = [0, 1]<br/>class = Usuario>, fillcolor="#399de5"] ;
276 -> 278 ;
279 [label=<gini = 0.0<br/>samples = 9<br/>value = [9, 0]<br/>class = Não Usuario>, fillcolor="#e58139"] ;
275 -> 279 ;
280 [label=<Conscienciosidade &le; 0.617<br/>gini = 0.276<br/>samples = 169<br/>value = [141, 28]<br/>class = Não Usuario>, fillcolor="#ea9a60"] ;
268 -> 280 ;
281 [label=<gini = 0.0<br/>samples = 2<br/>value = [0, 2]<br/>class = Usuario>, fillcolor="#399de5"] ;
280 -> 281 ;
282 [label=<AberturaExperiencia &le; 0.637<br/>gini = 0.263<br/>samples = 167<br/>value = [141, 26]<br/>class = Não Usuario>, fillcolor="#ea985e"] ;
280 -> 282 ;
283 [label=<Agradabilidade &le; 0.843<br/>gini = 0.309<br/>samples = 136<br/>value = [110, 26]<br/>class = Não Usuario>, fillcolor="#eb9f68"] ;
282 -> 283 ;
284 [label=<AberturaExperiencia &le; 0.3<br/>gini = 0.294<br/>samples = 134<br/>value = [110, 24]<br/>class = Não Usuario>, fillcolor="#eb9c64"] ;
283 -> 284 ;
285 [label=<gini = 0.0<br/>samples = 25<br/>value = [25, 0]<br/>class = Não Usuario>, fillcolor="#e58139"] ;
284 -> 285 ;
286 [label=<Extroversao &le; 0.725<br/>gini = 0.343<br/>samples = 109<br/>value = [85, 24]<br/>class = Não Usuario>, fillcolor="#eca571"] ;
284 -> 286 ;
287 [label=<Agradabilidade &le; 0.691<br/>gini = 0.415<br/>samples = 68<br/>value = [48, 20]<br/>class = Não Usuario>, fillcolor="#f0b58b"] ;
286 -> 287 ;
288 [label=<Impulsividade &le; 0.319<br/>gini = 0.315<br/>samples = 51<br/>value = [41, 10]<br/>class = Não Usuario>, fillcolor="#eba069"] ;
287 -> 288 ;
289 [label=<Agradabilidade &le; 0.618<br/>gini = 0.435<br/>samples = 25<br/>value = [17, 8]<br/>class = Não Usuario>, fillcolor="#f1bc96"] ;
288 -> 289 ;
290 [label=<Extroversao &le; 0.585<br/>gini = 0.497<br/>samples = 13<br/>value = [7, 6]<br/>class = Não Usuario>, fillcolor="#fbede3"] ;
289 -> 290 ;
291 [label=<gini = 0.0<br/>samples = 4<br/>value = [4, 0]<br/>class = Não Usuario>, fillcolor="#e58139"] ;
290 -> 291 ;
292 [label=<AberturaExperiencia &le; 0.57<br/>gini = 0.444<br/>samples = 9<br/>value = [3, 6]<br/>class = Usuario>, fillcolor="#9ccef2"] ;
290 -> 292 ;
293 [label=<BuscaPorExperiencias &le; 0.05<br/>gini = 0.278<br/>samples = 6<br/>value = [1, 5]<br/>class = Usuario>, fillcolor="#61b1ea"] ;
292 -> 293 ;
294 [label=<gini = 0.0<br/>samples = 1<br/>value = [1, 0]<br/>class = Não Usuario>, fillcolor="#e58139"] ;
293 -> 294 ;
295 [label=<gini = 0.0<br/>samples = 5<br/>value = [0, 5]<br/>class = Usuario>, fillcolor="#399de5"] ;
293 -> 295 ;
296 [label=<Extroversao &le; 0.658<br/>gini = 0.444<br/>samples = 3<br/>value = [2, 1]<br/>class = Não Usuario>, fillcolor="#f2c09c"] ;
292 -> 296 ;
297 [label=<gini = 0.0<br/>samples = 1<br/>value = [0, 1]<br/>class = Usuario>, fillcolor="#399de5"] ;
296 -> 297 ;
298 [label=<gini = 0.0<br/>samples = 2<br/>value = [2, 0]<br/>class = Não Usuario>, fillcolor="#e58139"] ;
296 -> 298 ;
299 [label=<Impulsividade &le; 0.264<br/>gini = 0.278<br/>samples = 12<br/>value = [10, 2]<br/>class = Não Usuario>, fillcolor="#ea9a61"] ;
289 -> 299 ;
300 [label=<AberturaExperiencia &le; 0.56<br/>gini = 0.165<br/>samples = 11<br/>value = [10, 1]<br/>class = Não Usuario>, fillcolor="#e88e4d"] ;
299 -> 300 ;
301 [label=<gini = 0.0<br/>samples = 8<br/>value = [8, 0]<br/>class = Não Usuario>, fillcolor="#e58139"] ;
300 -> 301 ;
302 [label=<Conscienciosidade &le; 0.7<br/>gini = 0.444<br/>samples = 3<br/>value = [2, 1]<br/>class = Não Usuario>, fillcolor="#f2c09c"] ;
300 -> 302 ;
303 [label=<gini = 0.0<br/>samples = 1<br/>value = [0, 1]<br/>class = Usuario>, fillcolor="#399de5"] ;
302 -> 303 ;
304 [label=<gini = 0.0<br/>samples = 2<br/>value = [2, 0]<br/>class = Não Usuario>, fillcolor="#e58139"] ;
302 -> 304 ;
305 [label=<gini = 0.0<br/>samples = 1<br/>value = [0, 1]<br/>class = Usuario>, fillcolor="#399de5"] ;
299 -> 305 ;
306 [label=<Impulsividade &le; 0.725<br/>gini = 0.142<br/>samples = 26<br/>value = [24, 2]<br/>class = Não Usuario>, fillcolor="#e78c49"] ;
288 -> 306 ;
307 [label=<Agradabilidade &le; 0.66<br/>gini = 0.08<br/>samples = 24<br/>value = [23, 1]<br/>class = Não Usuario>, fillcolor="#e68642"] ;
306 -> 307 ;
308 [label=<gini = 0.0<br/>samples = 20<br/>value = [20, 0]<br/>class = Não Usuario>, fillcolor="#e58139"] ;
307 -> 308 ;
309 [label=<AberturaExperiencia &le; 0.59<br/>gini = 0.375<br/>samples = 4<br/>value = [3, 1]<br/>class = Não Usuario>, fillcolor="#eeab7b"] ;
307 -> 309 ;
310 [label=<gini = 0.0<br/>samples = 3<br/>value = [3, 0]<br/>class = Não Usuario>, fillcolor="#e58139"] ;
309 -> 310 ;
311 [label=<gini = 0.0<br/>samples = 1<br/>value = [0, 1]<br/>class = Usuario>, fillcolor="#399de5"] ;
309 -> 311 ;
312 [label=<InstabilidadeEmocional &le; 0.7<br/>gini = 0.5<br/>samples = 2<br/>value = [1, 1]<br/>class = Não Usuario>, fillcolor="#ffffff"] ;
306 -> 312 ;
313 [label=<gini = 0.0<br/>samples = 1<br/>value = [0, 1]<br/>class = Usuario>, fillcolor="#399de5"] ;
312 -> 313 ;
314 [label=<gini = 0.0<br/>samples = 1<br/>value = [1, 0]<br/>class = Não Usuario>, fillcolor="#e58139"] ;
312 -> 314 ;
315 [label=<Agradabilidade &le; 0.76<br/>gini = 0.484<br/>samples = 17<br/>value = [7, 10]<br/>class = Usuario>, fillcolor="#c4e2f7"] ;
287 -> 315 ;
316 [label=<InstabilidadeEmocional &le; 0.675<br/>gini = 0.355<br/>samples = 13<br/>value = [3, 10]<br/>class = Usuario>, fillcolor="#74baed"] ;
315 -> 316 ;
317 [label=<gini = 0.0<br/>samples = 3<br/>value = [3, 0]<br/>class = Não Usuario>, fillcolor="#e58139"] ;
316 -> 317 ;
318 [label=<gini = 0.0<br/>samples = 10<br/>value = [0, 10]<br/>class = Usuario>, fillcolor="#399de5"] ;
316 -> 318 ;
319 [label=<gini = 0.0<br/>samples = 4<br/>value = [4, 0]<br/>class = Não Usuario>, fillcolor="#e58139"] ;
315 -> 319 ;
320 [label=<Agradabilidade &le; 0.55<br/>gini = 0.176<br/>samples = 41<br/>value = [37, 4]<br/>class = Não Usuario>, fillcolor="#e88f4e"] ;
286 -> 320 ;
321 [label=<Conscienciosidade &le; 0.7<br/>gini = 0.444<br/>samples = 3<br/>value = [1, 2]<br/>class = Usuario>, fillcolor="#9ccef2"] ;
320 -> 321 ;
322 [label=<gini = 0.0<br/>samples = 1<br/>value = [1, 0]<br/>class = Não Usuario>, fillcolor="#e58139"] ;
321 -> 322 ;
323 [label=<gini = 0.0<br/>samples = 2<br/>value = [0, 2]<br/>class = Usuario>, fillcolor="#399de5"] ;
321 -> 323 ;
324 [label=<Conscienciosidade &le; 0.795<br/>gini = 0.1<br/>samples = 38<br/>value = [36, 2]<br/>class = Não Usuario>, fillcolor="#e68844"] ;
320 -> 324 ;
325 [label=<gini = 0.0<br/>samples = 28<br/>value = [28, 0]<br/>class = Não Usuario>, fillcolor="#e58139"] ;
324 -> 325 ;
326 [label=<Conscienciosidade &le; 0.815<br/>gini = 0.32<br/>samples = 10<br/>value = [8, 2]<br/>class = Não Usuario>, fillcolor="#eca06a"] ;
324 -> 326 ;
327 [label=<gini = 0.0<br/>samples = 1<br/>value = [0, 1]<br/>class = Usuario>, fillcolor="#399de5"] ;
326 -> 327 ;
328 [label=<InstabilidadeEmocional &le; 0.732<br/>gini = 0.198<br/>samples = 9<br/>value = [8, 1]<br/>class = Não Usuario>, fillcolor="#e89152"] ;
326 -> 328 ;
329 [label=<BuscaPorExperiencias &le; 0.4<br/>gini = 0.5<br/>samples = 2<br/>value = [1, 1]<br/>class = Não Usuario>, fillcolor="#ffffff"] ;
328 -> 329 ;
330 [label=<gini = 0.0<br/>samples = 1<br/>value = [0, 1]<br/>class = Usuario>, fillcolor="#399de5"] ;
329 -> 330 ;
331 [label=<gini = 0.0<br/>samples = 1<br/>value = [1, 0]<br/>class = Não Usuario>, fillcolor="#e58139"] ;
329 -> 331 ;
332 [label=<gini = 0.0<br/>samples = 7<br/>value = [7, 0]<br/>class = Não Usuario>, fillcolor="#e58139"] ;
328 -> 332 ;
333 [label=<gini = 0.0<br/>samples = 2<br/>value = [0, 2]<br/>class = Usuario>, fillcolor="#399de5"] ;
283 -> 333 ;
334 [label=<gini = 0.0<br/>samples = 31<br/>value = [31, 0]<br/>class = Não Usuario>, fillcolor="#e58139"] ;
282 -> 334 ;
335 [label=<InstabilidadeEmocional &le; 0.726<br/>gini = 0.497<br/>samples = 13<br/>value = [6, 7]<br/>class = Usuario>, fillcolor="#e3f1fb"] ;
267 -> 335 ;
336 [label=<gini = 0.0<br/>samples = 6<br/>value = [0, 6]<br/>class = Usuario>, fillcolor="#399de5"] ;
335 -> 336 ;
337 [label=<InstabilidadeEmocional &le; 0.86<br/>gini = 0.245<br/>samples = 7<br/>value = [6, 1]<br/>class = Não Usuario>, fillcolor="#e9965a"] ;
335 -> 337 ;
338 [label=<gini = 0.0<br/>samples = 6<br/>value = [6, 0]<br/>class = Não Usuario>, fillcolor="#e58139"] ;
337 -> 338 ;
339 [label=<gini = 0.0<br/>samples = 1<br/>value = [0, 1]<br/>class = Usuario>, fillcolor="#399de5"] ;
337 -> 339 ;
340 [label=<BuscaPorExperiencias &le; 0.7<br/>gini = 0.452<br/>samples = 1056<br/>value = [365, 691]<br/>class = Usuario>, fillcolor="#a2d1f3"] ;
0 -> 340 [labeldistance=2.5, labelangle=-45, headlabel="False"] ;
341 [label=<gini = 0.0<br/>samples = 70<br/>value = [0, 70]<br/>class = Usuario>, fillcolor="#399de5"] ;
340 -> 341 ;
342 [label=<Conscienciosidade &le; 0.71<br/>gini = 0.466<br/>samples = 986<br/>value = [365, 621]<br/>class = Usuario>, fillcolor="#add7f4"] ;
340 -> 342 ;
343 [label=<BuscaPorExperiencias &le; 0.702<br/>gini = 0.5<br/>samples = 305<br/>value = [154, 151]<br/>class = Não Usuario>, fillcolor="#fefdfb"] ;
342 -> 343 ;
344 [label=<InstabilidadeEmocional &le; 0.56<br/>gini = 0.381<br/>samples = 82<br/>value = [61, 21]<br/>class = Não Usuario>, fillcolor="#eeac7d"] ;
343 -> 344 ;
345 [label=<InstabilidadeEmocional &le; 0.37<br/>gini = 0.46<br/>samples = 39<br/>value = [25, 14]<br/>class = Não Usuario>, fillcolor="#f4c8a8"] ;
344 -> 345 ;
346 [label=<Extroversao &le; 0.81<br/>gini = 0.153<br/>samples = 12<br/>value = [11, 1]<br/>class = Não Usuario>, fillcolor="#e78c4b"] ;
345 -> 346 ;
347 [label=<gini = 0.0<br/>samples = 10<br/>value = [10, 0]<br/>class = Não Usuario>, fillcolor="#e58139"] ;
346 -> 347 ;
348 [label=<Impulsividade &le; 0.555<br/>gini = 0.5<br/>samples = 2<br/>value = [1, 1]<br/>class = Não Usuario>, fillcolor="#ffffff"] ;
346 -> 348 ;
349 [label=<gini = 0.0<br/>samples = 1<br/>value = [1, 0]<br/>class = Não Usuario>, fillcolor="#e58139"] ;
348 -> 349 ;
350 [label=<gini = 0.0<br/>samples = 1<br/>value = [0, 1]<br/>class = Usuario>, fillcolor="#399de5"] ;
348 -> 350 ;
351 [label=<Conscienciosidade &le; 0.57<br/>gini = 0.499<br/>samples = 27<br/>value = [14, 13]<br/>class = Não Usuario>, fillcolor="#fdf6f1"] ;
345 -> 351 ;
352 [label=<gini = 0.0<br/>samples = 6<br/>value = [6, 0]<br/>class = Não Usuario>, fillcolor="#e58139"] ;
351 -> 352 ;
353 [label=<AberturaExperiencia &le; 0.388<br/>gini = 0.472<br/>samples = 21<br/>value = [8, 13]<br/>class = Usuario>, fillcolor="#b3d9f5"] ;
351 -> 353 ;
354 [label=<gini = 0.0<br/>samples = 6<br/>value = [0, 6]<br/>class = Usuario>, fillcolor="#399de5"] ;
353 -> 354 ;
355 [label=<AberturaExperiencia &le; 0.7<br/>gini = 0.498<br/>samples = 15<br/>value = [8, 7]<br/>class = Não Usuario>, fillcolor="#fcefe6"] ;
353 -> 355 ;
356 [label=<InstabilidadeEmocional &le; 0.535<br/>gini = 0.444<br/>samples = 12<br/>value = [8, 4]<br/>class = Não Usuario>, fillcolor="#f2c09c"] ;
355 -> 356 ;
357 [label=<Impulsividade &le; 0.835<br/>gini = 0.397<br/>samples = 11<br/>value = [8, 3]<br/>class = Não Usuario>, fillcolor="#efb083"] ;
356 -> 357 ;
358 [label=<Extroversao &le; 0.665<br/>gini = 0.32<br/>samples = 10<br/>value = [8, 2]<br/>class = Não Usuario>, fillcolor="#eca06a"] ;
357 -> 358 ;
359 [label=<gini = 0.0<br/>samples = 5<br/>value = [5, 0]<br/>class = Não Usuario>, fillcolor="#e58139"] ;
358 -> 359 ;
360 [label=<Impulsividade &le; 0.385<br/>gini = 0.48<br/>samples = 5<br/>value = [3, 2]<br/>class = Não Usuario>, fillcolor="#f6d5bd"] ;
358 -> 360 ;
361 [label=<gini = 0.0<br/>samples = 2<br/>value = [2, 0]<br/>class = Não Usuario>, fillcolor="#e58139"] ;
360 -> 361 ;
362 [label=<Agradabilidade &le; 0.675<br/>gini = 0.444<br/>samples = 3<br/>value = [1, 2]<br/>class = Usuario>, fillcolor="#9ccef2"] ;
360 -> 362 ;
363 [label=<gini = 0.0<br/>samples = 2<br/>value = [0, 2]<br/>class = Usuario>, fillcolor="#399de5"] ;
362 -> 363 ;
364 [label=<gini = 0.0<br/>samples = 1<br/>value = [1, 0]<br/>class = Não Usuario>, fillcolor="#e58139"] ;
362 -> 364 ;
365 [label=<gini = 0.0<br/>samples = 1<br/>value = [0, 1]<br/>class = Usuario>, fillcolor="#399de5"] ;
357 -> 365 ;
366 [label=<gini = 0.0<br/>samples = 1<br/>value = [0, 1]<br/>class = Usuario>, fillcolor="#399de5"] ;
356 -> 366 ;
367 [label=<gini = 0.0<br/>samples = 3<br/>value = [0, 3]<br/>class = Usuario>, fillcolor="#399de5"] ;
355 -> 367 ;
368 [label=<Agradabilidade &le; 0.59<br/>gini = 0.273<br/>samples = 43<br/>value = [36, 7]<br/>class = Não Usuario>, fillcolor="#ea9a5f"] ;
344 -> 368 ;
369 [label=<gini = 0.0<br/>samples = 19<br/>value = [19, 0]<br/>class = Não Usuario>, fillcolor="#e58139"] ;
368 -> 369 ;
370 [label=<AberturaExperiencia &le; 0.58<br/>gini = 0.413<br/>samples = 24<br/>value = [17, 7]<br/>class = Não Usuario>, fillcolor="#f0b58b"] ;
368 -> 370 ;
371 [label=<Conscienciosidade &le; 0.659<br/>gini = 0.475<br/>samples = 18<br/>value = [11, 7]<br/>class = Não Usuario>, fillcolor="#f6d1b7"] ;
370 -> 371 ;
372 [label=<AberturaExperiencia &le; 0.53<br/>gini = 0.298<br/>samples = 11<br/>value = [9, 2]<br/>class = Não Usuario>, fillcolor="#eb9d65"] ;
371 -> 372 ;
373 [label=<gini = 0.0<br/>samples = 8<br/>value = [8, 0]<br/>class = Não Usuario>, fillcolor="#e58139"] ;
372 -> 373 ;
374 [label=<Extroversao &le; 0.75<br/>gini = 0.444<br/>samples = 3<br/>value = [1, 2]<br/>class = Usuario>, fillcolor="#9ccef2"] ;
372 -> 374 ;
375 [label=<gini = 0.0<br/>samples = 2<br/>value = [0, 2]<br/>class = Usuario>, fillcolor="#399de5"] ;
374 -> 375 ;
376 [label=<gini = 0.0<br/>samples = 1<br/>value = [1, 0]<br/>class = Não Usuario>, fillcolor="#e58139"] ;
374 -> 376 ;
377 [label=<Agradabilidade &le; 0.656<br/>gini = 0.408<br/>samples = 7<br/>value = [2, 5]<br/>class = Usuario>, fillcolor="#88c4ef"] ;
371 -> 377 ;
378 [label=<gini = 0.0<br/>samples = 4<br/>value = [0, 4]<br/>class = Usuario>, fillcolor="#399de5"] ;
377 -> 378 ;
379 [label=<AberturaExperiencia &le; 0.345<br/>gini = 0.444<br/>samples = 3<br/>value = [2, 1]<br/>class = Não Usuario>, fillcolor="#f2c09c"] ;
377 -> 379 ;
380 [label=<gini = 0.0<br/>samples = 2<br/>value = [2, 0]<br/>class = Não Usuario>, fillcolor="#e58139"] ;
379 -> 380 ;
381 [label=<gini = 0.0<br/>samples = 1<br/>value = [0, 1]<br/>class = Usuario>, fillcolor="#399de5"] ;
379 -> 381 ;
382 [label=<gini = 0.0<br/>samples = 6<br/>value = [6, 0]<br/>class = Não Usuario>, fillcolor="#e58139"] ;
370 -> 382 ;
383 [label=<BuscaPorExperiencias &le; 0.8<br/>gini = 0.486<br/>samples = 223<br/>value = [93, 130]<br/>class = Usuario>, fillcolor="#c7e3f8"] ;
343 -> 383 ;
384 [label=<gini = 0.0<br/>samples = 27<br/>value = [0, 27]<br/>class = Usuario>, fillcolor="#399de5"] ;
383 -> 384 ;
385 [label=<BuscaPorExperiencias &le; 0.802<br/>gini = 0.499<br/>samples = 196<br/>value = [93, 103]<br/>class = Usuario>, fillcolor="#ecf5fc"] ;
383 -> 385 ;
386 [label=<Agradabilidade &le; 0.72<br/>gini = 0.43<br/>samples = 67<br/>value = [46, 21]<br/>class = Não Usuario>, fillcolor="#f1bb93"] ;
385 -> 386 ;
387 [label=<InstabilidadeEmocional &le; 0.7<br/>gini = 0.366<br/>samples = 54<br/>value = [41, 13]<br/>class = Não Usuario>, fillcolor="#eda978"] ;
386 -> 387 ;
388 [label=<InstabilidadeEmocional &le; 0.3<br/>gini = 0.282<br/>samples = 47<br/>value = [39, 8]<br/>class = Não Usuario>, fillcolor="#ea9b62"] ;
387 -> 388 ;
389 [label=<Impulsividade &le; 0.615<br/>gini = 0.444<br/>samples = 6<br/>value = [2, 4]<br/>class = Usuario>, fillcolor="#9ccef2"] ;
388 -> 389 ;
390 [label=<gini = 0.0<br/>samples = 2<br/>value = [2, 0]<br/>class = Não Usuario>, fillcolor="#e58139"] ;
389 -> 390 ;
391 [label=<gini = 0.0<br/>samples = 4<br/>value = [0, 4]<br/>class = Usuario>, fillcolor="#399de5"] ;
389 -> 391 ;
392 [label=<Agradabilidade &le; 0.25<br/>gini = 0.176<br/>samples = 41<br/>value = [37, 4]<br/>class = Não Usuario>, fillcolor="#e88f4e"] ;
388 -> 392 ;
393 [label=<gini = 0.0<br/>samples = 1<br/>value = [0, 1]<br/>class = Usuario>, fillcolor="#399de5"] ;
392 -> 393 ;
394 [label=<Extroversao &le; 0.68<br/>gini = 0.139<br/>samples = 40<br/>value = [37, 3]<br/>class = Não Usuario>, fillcolor="#e78b49"] ;
392 -> 394 ;
395 [label=<Agradabilidade &le; 0.66<br/>gini = 0.056<br/>samples = 35<br/>value = [34, 1]<br/>class = Não Usuario>, fillcolor="#e6853f"] ;
394 -> 395 ;
396 [label=<gini = 0.0<br/>samples = 28<br/>value = [28, 0]<br/>class = Não Usuario>, fillcolor="#e58139"] ;
395 -> 396 ;
397 [label=<Impulsividade &le; 0.385<br/>gini = 0.245<br/>samples = 7<br/>value = [6, 1]<br/>class = Não Usuario>, fillcolor="#e9965a"] ;
395 -> 397 ;
398 [label=<gini = 0.0<br/>samples = 1<br/>value = [0, 1]<br/>class = Usuario>, fillcolor="#399de5"] ;
397 -> 398 ;
399 [label=<gini = 0.0<br/>samples = 6<br/>value = [6, 0]<br/>class = Não Usuario>, fillcolor="#e58139"] ;
397 -> 399 ;
400 [label=<AberturaExperiencia &le; 0.43<br/>gini = 0.48<br/>samples = 5<br/>value = [3, 2]<br/>class = Não Usuario>, fillcolor="#f6d5bd"] ;
394 -> 400 ;
401 [label=<gini = 0.0<br/>samples = 2<br/>value = [0, 2]<br/>class = Usuario>, fillcolor="#399de5"] ;
400 -> 401 ;
402 [label=<gini = 0.0<br/>samples = 3<br/>value = [3, 0]<br/>class = Não Usuario>, fillcolor="#e58139"] ;
400 -> 402 ;
403 [label=<Impulsividade &le; 0.615<br/>gini = 0.408<br/>samples = 7<br/>value = [2, 5]<br/>class = Usuario>, fillcolor="#88c4ef"] ;
387 -> 403 ;
404 [label=<gini = 0.0<br/>samples = 4<br/>value = [0, 4]<br/>class = Usuario>, fillcolor="#399de5"] ;
403 -> 404 ;
405 [label=<AberturaExperiencia &le; 0.28<br/>gini = 0.444<br/>samples = 3<br/>value = [2, 1]<br/>class = Não Usuario>, fillcolor="#f2c09c"] ;
403 -> 405 ;
406 [label=<gini = 0.0<br/>samples = 1<br/>value = [0, 1]<br/>class = Usuario>, fillcolor="#399de5"] ;
405 -> 406 ;
407 [label=<gini = 0.0<br/>samples = 2<br/>value = [2, 0]<br/>class = Não Usuario>, fillcolor="#e58139"] ;
405 -> 407 ;
408 [label=<InstabilidadeEmocional &le; 0.655<br/>gini = 0.473<br/>samples = 13<br/>value = [5, 8]<br/>class = Usuario>, fillcolor="#b5daf5"] ;
386 -> 408 ;
409 [label=<Impulsividade &le; 0.78<br/>gini = 0.32<br/>samples = 10<br/>value = [2, 8]<br/>class = Usuario>, fillcolor="#6ab6ec"] ;
408 -> 409 ;
410 [label=<gini = 0.0<br/>samples = 8<br/>value = [0, 8]<br/>class = Usuario>, fillcolor="#399de5"] ;
409 -> 410 ;
411 [label=<gini = 0.0<br/>samples = 2<br/>value = [2, 0]<br/>class = Não Usuario>, fillcolor="#e58139"] ;
409 -> 411 ;
412 [label=<gini = 0.0<br/>samples = 3<br/>value = [3, 0]<br/>class = Não Usuario>, fillcolor="#e58139"] ;
408 -> 412 ;
413 [label=<Impulsividade &le; 0.345<br/>gini = 0.463<br/>samples = 129<br/>value = [47, 82]<br/>class = Usuario>, fillcolor="#aad5f4"] ;
385 -> 413 ;
414 [label=<Agradabilidade &le; 0.69<br/>gini = 0.18<br/>samples = 10<br/>value = [9, 1]<br/>class = Não Usuario>, fillcolor="#e88f4f"] ;
413 -> 414 ;
415 [label=<gini = 0.0<br/>samples = 9<br/>value = [9, 0]<br/>class = Não Usuario>, fillcolor="#e58139"] ;
414 -> 415 ;
416 [label=<gini = 0.0<br/>samples = 1<br/>value = [0, 1]<br/>class = Usuario>, fillcolor="#399de5"] ;
414 -> 416 ;
417 [label=<AberturaExperiencia &le; 0.642<br/>gini = 0.435<br/>samples = 119<br/>value = [38, 81]<br/>class = Usuario>, fillcolor="#96cbf1"] ;
413 -> 417 ;
418 [label=<Agradabilidade &le; 0.72<br/>gini = 0.393<br/>samples = 108<br/>value = [29, 79]<br/>class = Usuario>, fillcolor="#82c1ef"] ;
417 -> 418 ;
419 [label=<Conscienciosidade &le; 0.483<br/>gini = 0.337<br/>samples = 98<br/>value = [21, 77]<br/>class = Usuario>, fillcolor="#6fb8ec"] ;
418 -> 419 ;
420 [label=<Impulsividade &le; 0.835<br/>gini = 0.32<br/>samples = 5<br/>value = [4, 1]<br/>class = Não Usuario>, fillcolor="#eca06a"] ;
419 -> 420 ;
421 [label=<gini = 0.0<br/>samples = 4<br/>value = [4, 0]<br/>class = Não Usuario>, fillcolor="#e58139"] ;
420 -> 421 ;
422 [label=<gini = 0.0<br/>samples = 1<br/>value = [0, 1]<br/>class = Usuario>, fillcolor="#399de5"] ;
420 -> 422 ;
423 [label=<Extroversao &le; 0.689<br/>gini = 0.299<br/>samples = 93<br/>value = [17, 76]<br/>class = Usuario>, fillcolor="#65b3eb"] ;
419 -> 423 ;
424 [label=<InstabilidadeEmocional &le; 0.63<br/>gini = 0.232<br/>samples = 82<br/>value = [11, 71]<br/>class = Usuario>, fillcolor="#58ace9"] ;
423 -> 424 ;
425 [label=<InstabilidadeEmocional &le; 0.25<br/>gini = 0.155<br/>samples = 71<br/>value = [6, 65]<br/>class = Usuario>, fillcolor="#4ba6e7"] ;
424 -> 425 ;
426 [label=<Agradabilidade &le; 0.45<br/>gini = 0.49<br/>samples = 7<br/>value = [3, 4]<br/>class = Usuario>, fillcolor="#cee6f8"] ;
425 -> 426 ;
427 [label=<gini = 0.0<br/>samples = 4<br/>value = [0, 4]<br/>class = Usuario>, fillcolor="#399de5"] ;
426 -> 427 ;
428 [label=<gini = 0.0<br/>samples = 3<br/>value = [3, 0]<br/>class = Não Usuario>, fillcolor="#e58139"] ;
426 -> 428 ;
429 [label=<Impulsividade &le; 0.945<br/>gini = 0.089<br/>samples = 64<br/>value = [3, 61]<br/>class = Usuario>, fillcolor="#43a2e6"] ;
425 -> 429 ;
430 [label=<AberturaExperiencia &le; 0.237<br/>gini = 0.061<br/>samples = 63<br/>value = [2, 61]<br/>class = Usuario>, fillcolor="#3fa0e6"] ;
429 -> 430 ;
431 [label=<Impulsividade &le; 0.725<br/>gini = 0.5<br/>samples = 2<br/>value = [1, 1]<br/>class = Não Usuario>, fillcolor="#ffffff"] ;
430 -> 431 ;
432 [label=<gini = 0.0<br/>samples = 1<br/>value = [0, 1]<br/>class = Usuario>, fillcolor="#399de5"] ;
431 -> 432 ;
433 [label=<gini = 0.0<br/>samples = 1<br/>value = [1, 0]<br/>class = Não Usuario>, fillcolor="#e58139"] ;
431 -> 433 ;
434 [label=<Conscienciosidade &le; 0.709<br/>gini = 0.032<br/>samples = 61<br/>value = [1, 60]<br/>class = Usuario>, fillcolor="#3c9fe5"] ;
430 -> 434 ;
435 [label=<gini = 0.0<br/>samples = 57<br/>value = [0, 57]<br/>class = Usuario>, fillcolor="#399de5"] ;
434 -> 435 ;
436 [label=<InstabilidadeEmocional &le; 0.405<br/>gini = 0.375<br/>samples = 4<br/>value = [1, 3]<br/>class = Usuario>, fillcolor="#7bbeee"] ;
434 -> 436 ;
437 [label=<gini = 0.0<br/>samples = 1<br/>value = [1, 0]<br/>class = Não Usuario>, fillcolor="#e58139"] ;
436 -> 437 ;
438 [label=<gini = 0.0<br/>samples = 3<br/>value = [0, 3]<br/>class = Usuario>, fillcolor="#399de5"] ;
436 -> 438 ;
439 [label=<gini = 0.0<br/>samples = 1<br/>value = [1, 0]<br/>class = Não Usuario>, fillcolor="#e58139"] ;
429 -> 439 ;
440 [label=<Extroversao &le; 0.561<br/>gini = 0.496<br/>samples = 11<br/>value = [5, 6]<br/>class = Usuario>, fillcolor="#deeffb"] ;
424 -> 440 ;
441 [label=<Extroversao &le; 0.49<br/>gini = 0.278<br/>samples = 6<br/>value = [5, 1]<br/>class = Não Usuario>, fillcolor="#ea9a61"] ;
440 -> 441 ;
442 [label=<InstabilidadeEmocional &le; 0.7<br/>gini = 0.5<br/>samples = 2<br/>value = [1, 1]<br/>class = Não Usuario>, fillcolor="#ffffff"] ;
441 -> 442 ;
443 [label=<gini = 0.0<br/>samples = 1<br/>value = [1, 0]<br/>class = Não Usuario>, fillcolor="#e58139"] ;
442 -> 443 ;
444 [label=<gini = 0.0<br/>samples = 1<br/>value = [0, 1]<br/>class = Usuario>, fillcolor="#399de5"] ;
442 -> 444 ;
445 [label=<gini = 0.0<br/>samples = 4<br/>value = [4, 0]<br/>class = Não Usuario>, fillcolor="#e58139"] ;
441 -> 445 ;
446 [label=<gini = 0.0<br/>samples = 5<br/>value = [0, 5]<br/>class = Usuario>, fillcolor="#399de5"] ;
440 -> 446 ;
447 [label=<InstabilidadeEmocional &le; 0.585<br/>gini = 0.496<br/>samples = 11<br/>value = [6, 5]<br/>class = Não Usuario>, fillcolor="#fbeade"] ;
423 -> 447 ;
448 [label=<gini = 0.0<br/>samples = 5<br/>value = [5, 0]<br/>class = Não Usuario>, fillcolor="#e58139"] ;
447 -> 448 ;
449 [label=<Extroversao &le; 0.8<br/>gini = 0.278<br/>samples = 6<br/>value = [1, 5]<br/>class = Usuario>, fillcolor="#61b1ea"] ;
447 -> 449 ;
450 [label=<gini = 0.0<br/>samples = 5<br/>value = [0, 5]<br/>class = Usuario>, fillcolor="#399de5"] ;
449 -> 450 ;
451 [label=<gini = 0.0<br/>samples = 1<br/>value = [1, 0]<br/>class = Não Usuario>, fillcolor="#e58139"] ;
449 -> 451 ;
452 [label=<Impulsividade &le; 0.615<br/>gini = 0.32<br/>samples = 10<br/>value = [8, 2]<br/>class = Não Usuario>, fillcolor="#eca06a"] ;
418 -> 452 ;
453 [label=<BuscaPorExperiencias &le; 0.95<br/>gini = 0.444<br/>samples = 3<br/>value = [1, 2]<br/>class = Usuario>, fillcolor="#9ccef2"] ;
452 -> 453 ;
454 [label=<gini = 0.0<br/>samples = 2<br/>value = [0, 2]<br/>class = Usuario>, fillcolor="#399de5"] ;
453 -> 454 ;
455 [label=<gini = 0.0<br/>samples = 1<br/>value = [1, 0]<br/>class = Não Usuario>, fillcolor="#e58139"] ;
453 -> 455 ;
456 [label=<gini = 0.0<br/>samples = 7<br/>value = [7, 0]<br/>class = Não Usuario>, fillcolor="#e58139"] ;
452 -> 456 ;
457 [label=<BuscaPorExperiencias &le; 0.893<br/>gini = 0.298<br/>samples = 11<br/>value = [9, 2]<br/>class = Não Usuario>, fillcolor="#eb9d65"] ;
417 -> 457 ;
458 [label=<gini = 0.0<br/>samples = 1<br/>value = [0, 1]<br/>class = Usuario>, fillcolor="#399de5"] ;
457 -> 458 ;
459 [label=<InstabilidadeEmocional &le; 0.775<br/>gini = 0.18<br/>samples = 10<br/>value = [9, 1]<br/>class = Não Usuario>, fillcolor="#e88f4f"] ;
457 -> 459 ;
460 [label=<gini = 0.0<br/>samples = 9<br/>value = [9, 0]<br/>class = Não Usuario>, fillcolor="#e58139"] ;
459 -> 460 ;
461 [label=<gini = 0.0<br/>samples = 1<br/>value = [0, 1]<br/>class = Usuario>, fillcolor="#399de5"] ;
459 -> 461 ;
462 [label=<Extroversao &le; 0.65<br/>gini = 0.428<br/>samples = 681<br/>value = [211, 470]<br/>class = Usuario>, fillcolor="#92c9f1"] ;
342 -> 462 ;
463 [label=<InstabilidadeEmocional &le; 0.241<br/>gini = 0.37<br/>samples = 392<br/>value = [96, 296]<br/>class = Usuario>, fillcolor="#79bded"] ;
462 -> 463 ;
464 [label=<AberturaExperiencia &le; 0.524<br/>gini = 0.32<br/>samples = 10<br/>value = [8, 2]<br/>class = Não Usuario>, fillcolor="#eca06a"] ;
463 -> 464 ;
465 [label=<Agradabilidade &le; 0.195<br/>gini = 0.198<br/>samples = 9<br/>value = [8, 1]<br/>class = Não Usuario>, fillcolor="#e89152"] ;
464 -> 465 ;
466 [label=<gini = 0.0<br/>samples = 1<br/>value = [0, 1]<br/>class = Usuario>, fillcolor="#399de5"] ;
465 -> 466 ;
467 [label=<gini = 0.0<br/>samples = 8<br/>value = [8, 0]<br/>class = Não Usuario>, fillcolor="#e58139"] ;
465 -> 467 ;
468 [label=<gini = 0.0<br/>samples = 1<br/>value = [0, 1]<br/>class = Usuario>, fillcolor="#399de5"] ;
464 -> 468 ;
469 [label=<Conscienciosidade &le; 0.97<br/>gini = 0.355<br/>samples = 382<br/>value = [88, 294]<br/>class = Usuario>, fillcolor="#74baed"] ;
463 -> 469 ;
470 [label=<Agradabilidade &le; 0.804<br/>gini = 0.346<br/>samples = 378<br/>value = [84, 294]<br/>class = Usuario>, fillcolor="#72b9ec"] ;
469 -> 470 ;
471 [label=<Agradabilidade &le; 0.333<br/>gini = 0.329<br/>samples = 366<br/>value = [76, 290]<br/>class = Usuario>, fillcolor="#6db7ec"] ;
470 -> 471 ;
472 [label=<Impulsividade &le; 0.385<br/>gini = 0.444<br/>samples = 9<br/>value = [6, 3]<br/>class = Não Usuario>, fillcolor="#f2c09c"] ;
471 -> 472 ;
473 [label=<gini = 0.0<br/>samples = 2<br/>value = [0, 2]<br/>class = Usuario>, fillcolor="#399de5"] ;
472 -> 473 ;
474 [label=<Agradabilidade &le; 0.208<br/>gini = 0.245<br/>samples = 7<br/>value = [6, 1]<br/>class = Não Usuario>, fillcolor="#e9965a"] ;
472 -> 474 ;
475 [label=<gini = 0.0<br/>samples = 1<br/>value = [0, 1]<br/>class = Usuario>, fillcolor="#399de5"] ;
474 -> 475 ;
476 [label=<gini = 0.0<br/>samples = 6<br/>value = [6, 0]<br/>class = Não Usuario>, fillcolor="#e58139"] ;
474 -> 476 ;
477 [label=<AberturaExperiencia &le; 0.787<br/>gini = 0.315<br/>samples = 357<br/>value = [70, 287]<br/>class = Usuario>, fillcolor="#69b5eb"] ;
471 -> 477 ;
478 [label=<AberturaExperiencia &le; 0.178<br/>gini = 0.289<br/>samples = 331<br/>value = [58, 273]<br/>class = Usuario>, fillcolor="#63b2eb"] ;
477 -> 478 ;
479 [label=<gini = 0.0<br/>samples = 2<br/>value = [2, 0]<br/>class = Não Usuario>, fillcolor="#e58139"] ;
478 -> 479 ;
480 [label=<BuscaPorExperiencias &le; 0.7<br/>gini = 0.282<br/>samples = 329<br/>value = [56, 273]<br/>class = Usuario>, fillcolor="#62b1ea"] ;
478 -> 480 ;
481 [label=<Conscienciosidade &le; 0.883<br/>gini = 0.398<br/>samples = 84<br/>value = [23, 61]<br/>class = Usuario>, fillcolor="#84c2ef"] ;
480 -> 481 ;
482 [label=<InstabilidadeEmocional &le; 0.777<br/>gini = 0.454<br/>samples = 66<br/>value = [23, 43]<br/>class = Usuario>, fillcolor="#a3d1f3"] ;
481 -> 482 ;
483 [label=<Impulsividade &le; 0.779<br/>gini = 0.425<br/>samples = 62<br/>value = [19, 43]<br/>class = Usuario>, fillcolor="#90c8f0"] ;
482 -> 483 ;
484 [label=<Extroversao &le; 0.429<br/>gini = 0.366<br/>samples = 54<br/>value = [13, 41]<br/>class = Usuario>, fillcolor="#78bced"] ;
483 -> 484 ;
485 [label=<Extroversao &le; 0.365<br/>gini = 0.444<br/>samples = 6<br/>value = [4, 2]<br/>class = Não Usuario>, fillcolor="#f2c09c"] ;
484 -> 485 ;
486 [label=<gini = 0.0<br/>samples = 2<br/>value = [0, 2]<br/>class = Usuario>, fillcolor="#399de5"] ;
485 -> 486 ;
487 [label=<gini = 0.0<br/>samples = 4<br/>value = [4, 0]<br/>class = Não Usuario>, fillcolor="#e58139"] ;
485 -> 487 ;
488 [label=<Agradabilidade &le; 0.77<br/>gini = 0.305<br/>samples = 48<br/>value = [9, 39]<br/>class = Usuario>, fillcolor="#67b4eb"] ;
484 -> 488 ;
489 [label=<InstabilidadeEmocional &le; 0.675<br/>gini = 0.282<br/>samples = 47<br/>value = [8, 39]<br/>class = Usuario>, fillcolor="#62b1ea"] ;
488 -> 489 ;
490 [label=<InstabilidadeEmocional &le; 0.581<br/>gini = 0.391<br/>samples = 30<br/>value = [8, 22]<br/>class = Usuario>, fillcolor="#81c1ee"] ;
489 -> 490 ;
491 [label=<Impulsividade &le; 0.656<br/>gini = 0.165<br/>samples = 22<br/>value = [2, 20]<br/>class = Usuario>, fillcolor="#4da7e8"] ;
490 -> 491 ;
492 [label=<gini = 0.0<br/>samples = 16<br/>value = [0, 16]<br/>class = Usuario>, fillcolor="#399de5"] ;
491 -> 492 ;
493 [label=<AberturaExperiencia &le; 0.35<br/>gini = 0.444<br/>samples = 6<br/>value = [2, 4]<br/>class = Usuario>, fillcolor="#9ccef2"] ;
491 -> 493 ;
494 [label=<gini = 0.0<br/>samples = 4<br/>value = [0, 4]<br/>class = Usuario>, fillcolor="#399de5"] ;
493 -> 494 ;
495 [label=<gini = 0.0<br/>samples = 2<br/>value = [2, 0]<br/>class = Não Usuario>, fillcolor="#e58139"] ;
493 -> 495 ;
496 [label=<Extroversao &le; 0.518<br/>gini = 0.375<br/>samples = 8<br/>value = [6, 2]<br/>class = Não Usuario>, fillcolor="#eeab7b"] ;
490 -> 496 ;
497 [label=<gini = 0.0<br/>samples = 2<br/>value = [0, 2]<br/>class = Usuario>, fillcolor="#399de5"] ;
496 -> 497 ;
498 [label=<gini = 0.0<br/>samples = 6<br/>value = [6, 0]<br/>class = Não Usuario>, fillcolor="#e58139"] ;
496 -> 498 ;
499 [label=<gini = 0.0<br/>samples = 17<br/>value = [0, 17]<br/>class = Usuario>, fillcolor="#399de5"] ;
489 -> 499 ;
500 [label=<gini = 0.0<br/>samples = 1<br/>value = [1, 0]<br/>class = Não Usuario>, fillcolor="#e58139"] ;
488 -> 500 ;
501 [label=<AberturaExperiencia &le; 0.36<br/>gini = 0.375<br/>samples = 8<br/>value = [6, 2]<br/>class = Não Usuario>, fillcolor="#eeab7b"] ;
483 -> 501 ;
502 [label=<Agradabilidade &le; 0.728<br/>gini = 0.444<br/>samples = 3<br/>value = [1, 2]<br/>class = Usuario>, fillcolor="#9ccef2"] ;
501 -> 502 ;
503 [label=<gini = 0.0<br/>samples = 2<br/>value = [0, 2]<br/>class = Usuario>, fillcolor="#399de5"] ;
502 -> 503 ;
504 [label=<gini = 0.0<br/>samples = 1<br/>value = [1, 0]<br/>class = Não Usuario>, fillcolor="#e58139"] ;
502 -> 504 ;
505 [label=<gini = 0.0<br/>samples = 5<br/>value = [5, 0]<br/>class = Não Usuario>, fillcolor="#e58139"] ;
501 -> 505 ;
506 [label=<gini = 0.0<br/>samples = 4<br/>value = [4, 0]<br/>class = Não Usuario>, fillcolor="#e58139"] ;
482 -> 506 ;
507 [label=<gini = 0.0<br/>samples = 18<br/>value = [0, 18]<br/>class = Usuario>, fillcolor="#399de5"] ;
481 -> 507 ;
508 [label=<BuscaPorExperiencias &le; 0.797<br/>gini = 0.233<br/>samples = 245<br/>value = [33, 212]<br/>class = Usuario>, fillcolor="#58ace9"] ;
480 -> 508 ;
509 [label=<gini = 0.0<br/>samples = 41<br/>value = [0, 41]<br/>class = Usuario>, fillcolor="#399de5"] ;
508 -> 509 ;
510 [label=<AberturaExperiencia &le; 0.502<br/>gini = 0.271<br/>samples = 204<br/>value = [33, 171]<br/>class = Usuario>, fillcolor="#5fb0ea"] ;
508 -> 510 ;
511 [label=<AberturaExperiencia &le; 0.419<br/>gini = 0.342<br/>samples = 114<br/>value = [25, 89]<br/>class = Usuario>, fillcolor="#71b9ec"] ;
510 -> 511 ;
512 [label=<Agradabilidade &le; 0.727<br/>gini = 0.182<br/>samples = 79<br/>value = [8, 71]<br/>class = Usuario>, fillcolor="#4fa8e8"] ;
511 -> 512 ;
513 [label=<Conscienciosidade &le; 0.865<br/>gini = 0.128<br/>samples = 73<br/>value = [5, 68]<br/>class = Usuario>, fillcolor="#48a4e7"] ;
512 -> 513 ;
514 [label=<Agradabilidade &le; 0.6<br/>gini = 0.061<br/>samples = 63<br/>value = [2, 61]<br/>class = Usuario>, fillcolor="#3fa0e6"] ;
513 -> 514 ;
515 [label=<InstabilidadeEmocional &le; 0.61<br/>gini = 0.159<br/>samples = 23<br/>value = [2, 21]<br/>class = Usuario>, fillcolor="#4ca6e7"] ;
514 -> 515 ;
516 [label=<AberturaExperiencia &le; 0.348<br/>gini = 0.087<br/>samples = 22<br/>value = [1, 21]<br/>class = Usuario>, fillcolor="#42a2e6"] ;
515 -> 516 ;
517 [label=<gini = 0.0<br/>samples = 16<br/>value = [0, 16]<br/>class = Usuario>, fillcolor="#399de5"] ;
516 -> 517 ;
518 [label=<Conscienciosidade &le; 0.734<br/>gini = 0.278<br/>samples = 6<br/>value = [1, 5]<br/>class = Usuario>, fillcolor="#61b1ea"] ;
516 -> 518 ;
519 [label=<gini = 0.0<br/>samples = 1<br/>value = [1, 0]<br/>class = Não Usuario>, fillcolor="#e58139"] ;
518 -> 519 ;
520 [label=<gini = 0.0<br/>samples = 5<br/>value = [0, 5]<br/>class = Usuario>, fillcolor="#399de5"] ;
518 -> 520 ;
521 [label=<gini = 0.0<br/>samples = 1<br/>value = [1, 0]<br/>class = Não Usuario>, fillcolor="#e58139"] ;
515 -> 521 ;
522 [label=<gini = 0.0<br/>samples = 40<br/>value = [0, 40]<br/>class = Usuario>, fillcolor="#399de5"] ;
514 -> 522 ;
523 [label=<Agradabilidade &le; 0.608<br/>gini = 0.42<br/>samples = 10<br/>value = [3, 7]<br/>class = Usuario>, fillcolor="#8ec7f0"] ;
513 -> 523 ;
524 [label=<gini = 0.0<br/>samples = 7<br/>value = [0, 7]<br/>class = Usuario>, fillcolor="#399de5"] ;
523 -> 524 ;
525 [label=<gini = 0.0<br/>samples = 3<br/>value = [3, 0]<br/>class = Não Usuario>, fillcolor="#e58139"] ;
523 -> 525 ;
526 [label=<Conscienciosidade &le; 0.82<br/>gini = 0.5<br/>samples = 6<br/>value = [3, 3]<br/>class = Não Usuario>, fillcolor="#ffffff"] ;
512 -> 526 ;
527 [label=<gini = 0.0<br/>samples = 3<br/>value = [3, 0]<br/>class = Não Usuario>, fillcolor="#e58139"] ;
526 -> 527 ;
528 [label=<gini = 0.0<br/>samples = 3<br/>value = [0, 3]<br/>class = Usuario>, fillcolor="#399de5"] ;
526 -> 528 ;
529 [label=<BuscaPorExperiencias &le; 0.804<br/>gini = 0.5<br/>samples = 35<br/>value = [17, 18]<br/>class = Usuario>, fillcolor="#f4fafe"] ;
511 -> 529 ;
530 [label=<Conscienciosidade &le; 0.74<br/>gini = 0.375<br/>samples = 12<br/>value = [9, 3]<br/>class = Não Usuario>, fillcolor="#eeab7b"] ;
529 -> 530 ;
531 [label=<gini = 0.0<br/>samples = 3<br/>value = [0, 3]<br/>class = Usuario>, fillcolor="#399de5"] ;
530 -> 531 ;
532 [label=<gini = 0.0<br/>samples = 9<br/>value = [9, 0]<br/>class = Não Usuario>, fillcolor="#e58139"] ;
530 -> 532 ;
533 [label=<Impulsividade &le; 0.848<br/>gini = 0.454<br/>samples = 23<br/>value = [8, 15]<br/>class = Usuario>, fillcolor="#a3d1f3"] ;
529 -> 533 ;
534 [label=<Agradabilidade &le; 0.756<br/>gini = 0.408<br/>samples = 21<br/>value = [6, 15]<br/>class = Usuario>, fillcolor="#88c4ef"] ;
533 -> 534 ;
535 [label=<BuscaPorExperiencias &le; 0.989<br/>gini = 0.332<br/>samples = 19<br/>value = [4, 15]<br/>class = Usuario>, fillcolor="#6eb7ec"] ;
534 -> 535 ;
536 [label=<Agradabilidade &le; 0.521<br/>gini = 0.231<br/>samples = 15<br/>value = [2, 13]<br/>class = Usuario>, fillcolor="#57ace9"] ;
535 -> 536 ;
537 [label=<gini = 0.0<br/>samples = 1<br/>value = [1, 0]<br/>class = Não Usuario>, fillcolor="#e58139"] ;
536 -> 537 ;
538 [label=<Extroversao &le; 0.39<br/>gini = 0.133<br/>samples = 14<br/>value = [1, 13]<br/>class = Usuario>, fillcolor="#48a5e7"] ;
536 -> 538 ;
539 [label=<Impulsividade &le; 0.586<br/>gini = 0.5<br/>samples = 2<br/>value = [1, 1]<br/>class = Não Usuario>, fillcolor="#ffffff"] ;
538 -> 539 ;
540 [label=<gini = 0.0<br/>samples = 1<br/>value = [1, 0]<br/>class = Não Usuario>, fillcolor="#e58139"] ;
539 -> 540 ;
541 [label=<gini = 0.0<br/>samples = 1<br/>value = [0, 1]<br/>class = Usuario>, fillcolor="#399de5"] ;
539 -> 541 ;
542 [label=<gini = 0.0<br/>samples = 12<br/>value = [0, 12]<br/>class = Usuario>, fillcolor="#399de5"] ;
538 -> 542 ;
543 [label=<Agradabilidade &le; 0.58<br/>gini = 0.5<br/>samples = 4<br/>value = [2, 2]<br/>class = Não Usuario>, fillcolor="#ffffff"] ;
535 -> 543 ;
544 [label=<gini = 0.0<br/>samples = 2<br/>value = [0, 2]<br/>class = Usuario>, fillcolor="#399de5"] ;
543 -> 544 ;
545 [label=<gini = 0.0<br/>samples = 2<br/>value = [2, 0]<br/>class = Não Usuario>, fillcolor="#e58139"] ;
543 -> 545 ;
546 [label=<gini = 0.0<br/>samples = 2<br/>value = [2, 0]<br/>class = Não Usuario>, fillcolor="#e58139"] ;
534 -> 546 ;
547 [label=<gini = 0.0<br/>samples = 2<br/>value = [2, 0]<br/>class = Não Usuario>, fillcolor="#e58139"] ;
533 -> 547 ;
548 [label=<Agradabilidade &le; 0.443<br/>gini = 0.162<br/>samples = 90<br/>value = [8, 82]<br/>class = Usuario>, fillcolor="#4ca7e8"] ;
510 -> 548 ;
549 [label=<AberturaExperiencia &le; 0.635<br/>gini = 0.49<br/>samples = 7<br/>value = [3, 4]<br/>class = Usuario>, fillcolor="#cee6f8"] ;
548 -> 549 ;
550 [label=<gini = 0.0<br/>samples = 4<br/>value = [0, 4]<br/>class = Usuario>, fillcolor="#399de5"] ;
549 -> 550 ;
551 [label=<gini = 0.0<br/>samples = 3<br/>value = [3, 0]<br/>class = Não Usuario>, fillcolor="#e58139"] ;
549 -> 551 ;
552 [label=<BuscaPorExperiencias &le; 0.997<br/>gini = 0.113<br/>samples = 83<br/>value = [5, 78]<br/>class = Usuario>, fillcolor="#46a3e7"] ;
548 -> 552 ;
553 [label=<Conscienciosidade &le; 0.937<br/>gini = 0.053<br/>samples = 73<br/>value = [2, 71]<br/>class = Usuario>, fillcolor="#3fa0e6"] ;
552 -> 553 ;
554 [label=<Agradabilidade &le; 0.522<br/>gini = 0.028<br/>samples = 71<br/>value = [1, 70]<br/>class = Usuario>, fillcolor="#3c9ee5"] ;
553 -> 554 ;
555 [label=<Agradabilidade &le; 0.519<br/>gini = 0.165<br/>samples = 11<br/>value = [1, 10]<br/>class = Usuario>, fillcolor="#4da7e8"] ;
554 -> 555 ;
556 [label=<gini = 0.0<br/>samples = 9<br/>value = [0, 9]<br/>class = Usuario>, fillcolor="#399de5"] ;
555 -> 556 ;
557 [label=<Impulsividade &le; 0.725<br/>gini = 0.5<br/>samples = 2<br/>value = [1, 1]<br/>class = Não Usuario>, fillcolor="#ffffff"] ;
555 -> 557 ;
558 [label=<gini = 0.0<br/>samples = 1<br/>value = [1, 0]<br/>class = Não Usuario>, fillcolor="#e58139"] ;
557 -> 558 ;
559 [label=<gini = 0.0<br/>samples = 1<br/>value = [0, 1]<br/>class = Usuario>, fillcolor="#399de5"] ;
557 -> 559 ;
560 [label=<gini = 0.0<br/>samples = 60<br/>value = [0, 60]<br/>class = Usuario>, fillcolor="#399de5"] ;
554 -> 560 ;
561 [label=<AberturaExperiencia &le; 0.608<br/>gini = 0.5<br/>samples = 2<br/>value = [1, 1]<br/>class = Não Usuario>, fillcolor="#ffffff"] ;
553 -> 561 ;
562 [label=<gini = 0.0<br/>samples = 1<br/>value = [0, 1]<br/>class = Usuario>, fillcolor="#399de5"] ;
561 -> 562 ;
563 [label=<gini = 0.0<br/>samples = 1<br/>value = [1, 0]<br/>class = Não Usuario>, fillcolor="#e58139"] ;
561 -> 563 ;
564 [label=<Extroversao &le; 0.568<br/>gini = 0.42<br/>samples = 10<br/>value = [3, 7]<br/>class = Usuario>, fillcolor="#8ec7f0"] ;
552 -> 564 ;
565 [label=<gini = 0.0<br/>samples = 3<br/>value = [3, 0]<br/>class = Não Usuario>, fillcolor="#e58139"] ;
564 -> 565 ;
566 [label=<gini = 0.0<br/>samples = 7<br/>value = [0, 7]<br/>class = Usuario>, fillcolor="#399de5"] ;
564 -> 566 ;
567 [label=<Extroversao &le; 0.49<br/>gini = 0.497<br/>samples = 26<br/>value = [12, 14]<br/>class = Usuario>, fillcolor="#e3f1fb"] ;
477 -> 567 ;
568 [label=<gini = 0.0<br/>samples = 7<br/>value = [0, 7]<br/>class = Usuario>, fillcolor="#399de5"] ;
567 -> 568 ;
569 [label=<InstabilidadeEmocional &le; 0.359<br/>gini = 0.465<br/>samples = 19<br/>value = [12, 7]<br/>class = Não Usuario>, fillcolor="#f4caac"] ;
567 -> 569 ;
570 [label=<gini = 0.0<br/>samples = 5<br/>value = [0, 5]<br/>class = Usuario>, fillcolor="#399de5"] ;
569 -> 570 ;
571 [label=<Agradabilidade &le; 0.784<br/>gini = 0.245<br/>samples = 14<br/>value = [12, 2]<br/>class = Não Usuario>, fillcolor="#e9965a"] ;
569 -> 571 ;
572 [label=<Impulsividade &le; 0.385<br/>gini = 0.142<br/>samples = 13<br/>value = [12, 1]<br/>class = Não Usuario>, fillcolor="#e78c49"] ;
571 -> 572 ;
573 [label=<gini = 0.0<br/>samples = 1<br/>value = [0, 1]<br/>class = Usuario>, fillcolor="#399de5"] ;
572 -> 573 ;
574 [label=<gini = 0.0<br/>samples = 12<br/>value = [12, 0]<br/>class = Não Usuario>, fillcolor="#e58139"] ;
572 -> 574 ;
575 [label=<gini = 0.0<br/>samples = 1<br/>value = [0, 1]<br/>class = Usuario>, fillcolor="#399de5"] ;
571 -> 575 ;
576 [label=<InstabilidadeEmocional &le; 0.57<br/>gini = 0.444<br/>samples = 12<br/>value = [8, 4]<br/>class = Não Usuario>, fillcolor="#f2c09c"] ;
470 -> 576 ;
577 [label=<AberturaExperiencia &le; 0.77<br/>gini = 0.5<br/>samples = 8<br/>value = [4, 4]<br/>class = Não Usuario>, fillcolor="#ffffff"] ;
576 -> 577 ;
578 [label=<AberturaExperiencia &le; 0.39<br/>gini = 0.32<br/>samples = 5<br/>value = [4, 1]<br/>class = Não Usuario>, fillcolor="#eca06a"] ;
577 -> 578 ;
579 [label=<gini = 0.0<br/>samples = 1<br/>value = [0, 1]<br/>class = Usuario>, fillcolor="#399de5"] ;
578 -> 579 ;
580 [label=<gini = 0.0<br/>samples = 4<br/>value = [4, 0]<br/>class = Não Usuario>, fillcolor="#e58139"] ;
578 -> 580 ;
581 [label=<gini = 0.0<br/>samples = 3<br/>value = [0, 3]<br/>class = Usuario>, fillcolor="#399de5"] ;
577 -> 581 ;
582 [label=<gini = 0.0<br/>samples = 4<br/>value = [4, 0]<br/>class = Não Usuario>, fillcolor="#e58139"] ;
576 -> 582 ;
583 [label=<gini = 0.0<br/>samples = 4<br/>value = [4, 0]<br/>class = Não Usuario>, fillcolor="#e58139"] ;
469 -> 583 ;
584 [label=<InstabilidadeEmocional &le; 0.704<br/>gini = 0.479<br/>samples = 289<br/>value = [115, 174]<br/>class = Usuario>, fillcolor="#bcdef6"] ;
462 -> 584 ;
585 [label=<Agradabilidade &le; 0.469<br/>gini = 0.461<br/>samples = 255<br/>value = [92, 163]<br/>class = Usuario>, fillcolor="#a9d4f4"] ;
584 -> 585 ;
586 [label=<InstabilidadeEmocional &le; 0.425<br/>gini = 0.397<br/>samples = 22<br/>value = [16, 6]<br/>class = Não Usuario>, fillcolor="#efb083"] ;
585 -> 586 ;
587 [label=<Conscienciosidade &le; 0.865<br/>gini = 0.375<br/>samples = 8<br/>value = [2, 6]<br/>class = Usuario>, fillcolor="#7bbeee"] ;
586 -> 587 ;
588 [label=<Agradabilidade &le; 0.45<br/>gini = 0.245<br/>samples = 7<br/>value = [1, 6]<br/>class = Usuario>, fillcolor="#5aade9"] ;
587 -> 588 ;
589 [label=<gini = 0.0<br/>samples = 6<br/>value = [0, 6]<br/>class = Usuario>, fillcolor="#399de5"] ;
588 -> 589 ;
590 [label=<gini = 0.0<br/>samples = 1<br/>value = [1, 0]<br/>class = Não Usuario>, fillcolor="#e58139"] ;
588 -> 590 ;
591 [label=<gini = 0.0<br/>samples = 1<br/>value = [1, 0]<br/>class = Não Usuario>, fillcolor="#e58139"] ;
587 -> 591 ;
592 [label=<gini = 0.0<br/>samples = 14<br/>value = [14, 0]<br/>class = Não Usuario>, fillcolor="#e58139"] ;
586 -> 592 ;
593 [label=<Extroversao &le; 0.65<br/>gini = 0.44<br/>samples = 233<br/>value = [76, 157]<br/>class = Usuario>, fillcolor="#99ccf2"] ;
585 -> 593 ;
594 [label=<Conscienciosidade &le; 0.84<br/>gini = 0.426<br/>samples = 13<br/>value = [9, 4]<br/>class = Não Usuario>, fillcolor="#f1b991"] ;
593 -> 594 ;
595 [label=<gini = 0.0<br/>samples = 8<br/>value = [8, 0]<br/>class = Não Usuario>, fillcolor="#e58139"] ;
594 -> 595 ;
596 [label=<BuscaPorExperiencias &le; 0.9<br/>gini = 0.32<br/>samples = 5<br/>value = [1, 4]<br/>class = Usuario>, fillcolor="#6ab6ec"] ;
594 -> 596 ;
597 [label=<gini = 0.0<br/>samples = 4<br/>value = [0, 4]<br/>class = Usuario>, fillcolor="#399de5"] ;
596 -> 597 ;
598 [label=<gini = 0.0<br/>samples = 1<br/>value = [1, 0]<br/>class = Não Usuario>, fillcolor="#e58139"] ;
596 -> 598 ;
599 [label=<Conscienciosidade &le; 0.918<br/>gini = 0.424<br/>samples = 220<br/>value = [67, 153]<br/>class = Usuario>, fillcolor="#90c8f0"] ;
593 -> 599 ;
600 [label=<Agradabilidade &le; 0.8<br/>gini = 0.38<br/>samples = 180<br/>value = [46, 134]<br/>class = Usuario>, fillcolor="#7dbfee"] ;
599 -> 600 ;
601 [label=<InstabilidadeEmocional &le; 0.52<br/>gini = 0.353<br/>samples = 166<br/>value = [38, 128]<br/>class = Usuario>, fillcolor="#74baed"] ;
600 -> 601 ;
602 [label=<BuscaPorExperiencias &le; 0.726<br/>gini = 0.456<br/>samples = 57<br/>value = [20, 37]<br/>class = Usuario>, fillcolor="#a4d2f3"] ;
601 -> 602 ;
603 [label=<InstabilidadeEmocional &le; 0.504<br/>gini = 0.219<br/>samples = 8<br/>value = [7, 1]<br/>class = Não Usuario>, fillcolor="#e99355"] ;
602 -> 603 ;
604 [label=<gini = 0.0<br/>samples = 7<br/>value = [7, 0]<br/>class = Não Usuario>, fillcolor="#e58139"] ;
603 -> 604 ;
605 [label=<gini = 0.0<br/>samples = 1<br/>value = [0, 1]<br/>class = Usuario>, fillcolor="#399de5"] ;
603 -> 605 ;
606 [label=<InstabilidadeEmocional &le; 0.311<br/>gini = 0.39<br/>samples = 49<br/>value = [13, 36]<br/>class = Usuario>, fillcolor="#80c0ee"] ;
602 -> 606 ;
607 [label=<gini = 0.0<br/>samples = 16<br/>value = [0, 16]<br/>class = Usuario>, fillcolor="#399de5"] ;
606 -> 607 ;
608 [label=<Extroversao &le; 0.68<br/>gini = 0.478<br/>samples = 33<br/>value = [13, 20]<br/>class = Usuario>, fillcolor="#baddf6"] ;
606 -> 608 ;
609 [label=<gini = 0.0<br/>samples = 6<br/>value = [0, 6]<br/>class = Usuario>, fillcolor="#399de5"] ;
608 -> 609 ;
610 [label=<Extroversao &le; 0.711<br/>gini = 0.499<br/>samples = 27<br/>value = [13, 14]<br/>class = Usuario>, fillcolor="#f1f8fd"] ;
608 -> 610 ;
611 [label=<Conscienciosidade &le; 0.727<br/>gini = 0.219<br/>samples = 8<br/>value = [7, 1]<br/>class = Não Usuario>, fillcolor="#e99355"] ;
610 -> 611 ;
612 [label=<gini = 0.0<br/>samples = 1<br/>value = [0, 1]<br/>class = Usuario>, fillcolor="#399de5"] ;
611 -> 612 ;
613 [label=<gini = 0.0<br/>samples = 7<br/>value = [7, 0]<br/>class = Não Usuario>, fillcolor="#e58139"] ;
611 -> 613 ;
614 [label=<Agradabilidade &le; 0.655<br/>gini = 0.432<br/>samples = 19<br/>value = [6, 13]<br/>class = Usuario>, fillcolor="#94caf1"] ;
610 -> 614 ;
615 [label=<InstabilidadeEmocional &le; 0.411<br/>gini = 0.305<br/>samples = 16<br/>value = [3, 13]<br/>class = Usuario>, fillcolor="#67b4eb"] ;
614 -> 615 ;
616 [label=<gini = 0.0<br/>samples = 3<br/>value = [3, 0]<br/>class = Não Usuario>, fillcolor="#e58139"] ;
615 -> 616 ;
617 [label=<gini = 0.0<br/>samples = 13<br/>value = [0, 13]<br/>class = Usuario>, fillcolor="#399de5"] ;
615 -> 617 ;
618 [label=<gini = 0.0<br/>samples = 3<br/>value = [3, 0]<br/>class = Não Usuario>, fillcolor="#e58139"] ;
614 -> 618 ;
619 [label=<Extroversao &le; 0.747<br/>gini = 0.276<br/>samples = 109<br/>value = [18, 91]<br/>class = Usuario>, fillcolor="#60b0ea"] ;
601 -> 619 ;
620 [label=<Impulsividade &le; 0.165<br/>gini = 0.14<br/>samples = 53<br/>value = [4, 49]<br/>class = Usuario>, fillcolor="#49a5e7"] ;
619 -> 620 ;
621 [label=<gini = 0.0<br/>samples = 1<br/>value = [1, 0]<br/>class = Não Usuario>, fillcolor="#e58139"] ;
620 -> 621 ;
622 [label=<Agradabilidade &le; 0.586<br/>gini = 0.109<br/>samples = 52<br/>value = [3, 49]<br/>class = Usuario>, fillcolor="#45a3e7"] ;
620 -> 622 ;
623 [label=<Agradabilidade &le; 0.574<br/>gini = 0.305<br/>samples = 16<br/>value = [3, 13]<br/>class = Usuario>, fillcolor="#67b4eb"] ;
622 -> 623 ;
624 [label=<gini = 0.0<br/>samples = 13<br/>value = [0, 13]<br/>class = Usuario>, fillcolor="#399de5"] ;
623 -> 624 ;
625 [label=<gini = 0.0<br/>samples = 3<br/>value = [3, 0]<br/>class = Não Usuario>, fillcolor="#e58139"] ;
623 -> 625 ;
626 [label=<gini = 0.0<br/>samples = 36<br/>value = [0, 36]<br/>class = Usuario>, fillcolor="#399de5"] ;
622 -> 626 ;
627 [label=<InstabilidadeEmocional &le; 0.62<br/>gini = 0.375<br/>samples = 56<br/>value = [14, 42]<br/>class = Usuario>, fillcolor="#7bbeee"] ;
619 -> 627 ;
628 [label=<Agradabilidade &le; 0.68<br/>gini = 0.499<br/>samples = 21<br/>value = [10, 11]<br/>class = Usuario>, fillcolor="#edf6fd"] ;
627 -> 628 ;
629 [label=<Agradabilidade &le; 0.558<br/>gini = 0.408<br/>samples = 14<br/>value = [10, 4]<br/>class = Não Usuario>, fillcolor="#efb388"] ;
628 -> 629 ;
630 [label=<gini = 0.0<br/>samples = 2<br/>value = [0, 2]<br/>class = Usuario>, fillcolor="#399de5"] ;
629 -> 630 ;
631 [label=<Impulsividade &le; 0.835<br/>gini = 0.278<br/>samples = 12<br/>value = [10, 2]<br/>class = Não Usuario>, fillcolor="#ea9a61"] ;
629 -> 631 ;
632 [label=<gini = 0.0<br/>samples = 10<br/>value = [10, 0]<br/>class = Não Usuario>, fillcolor="#e58139"] ;
631 -> 632 ;
633 [label=<gini = 0.0<br/>samples = 2<br/>value = [0, 2]<br/>class = Usuario>, fillcolor="#399de5"] ;
631 -> 633 ;
634 [label=<gini = 0.0<br/>samples = 7<br/>value = [0, 7]<br/>class = Usuario>, fillcolor="#399de5"] ;
628 -> 634 ;
635 [label=<Conscienciosidade &le; 0.76<br/>gini = 0.202<br/>samples = 35<br/>value = [4, 31]<br/>class = Usuario>, fillcolor="#53aae8"] ;
627 -> 635 ;
636 [label=<gini = 0.0<br/>samples = 1<br/>value = [1, 0]<br/>class = Não Usuario>, fillcolor="#e58139"] ;
635 -> 636 ;
637 [label=<Impulsividade &le; 0.436<br/>gini = 0.161<br/>samples = 34<br/>value = [3, 31]<br/>class = Usuario>, fillcolor="#4ca6e8"] ;
635 -> 637 ;
638 [label=<gini = 0.0<br/>samples = 22<br/>value = [0, 22]<br/>class = Usuario>, fillcolor="#399de5"] ;
637 -> 638 ;
639 [label=<Conscienciosidade &le; 0.898<br/>gini = 0.375<br/>samples = 12<br/>value = [3, 9]<br/>class = Usuario>, fillcolor="#7bbeee"] ;
637 -> 639 ;
640 [label=<BuscaPorExperiencias &le; 0.891<br/>gini = 0.298<br/>samples = 11<br/>value = [2, 9]<br/>class = Usuario>, fillcolor="#65b3eb"] ;
639 -> 640 ;
641 [label=<gini = 0.0<br/>samples = 6<br/>value = [0, 6]<br/>class = Usuario>, fillcolor="#399de5"] ;
640 -> 641 ;
642 [label=<AberturaExperiencia &le; 0.622<br/>gini = 0.48<br/>samples = 5<br/>value = [2, 3]<br/>class = Usuario>, fillcolor="#bddef6"] ;
640 -> 642 ;
643 [label=<InstabilidadeEmocional &le; 0.68<br/>gini = 0.444<br/>samples = 3<br/>value = [2, 1]<br/>class = Não Usuario>, fillcolor="#f2c09c"] ;
642 -> 643 ;
644 [label=<gini = 0.0<br/>samples = 2<br/>value = [2, 0]<br/>class = Não Usuario>, fillcolor="#e58139"] ;
643 -> 644 ;
645 [label=<gini = 0.0<br/>samples = 1<br/>value = [0, 1]<br/>class = Usuario>, fillcolor="#399de5"] ;
643 -> 645 ;
646 [label=<gini = 0.0<br/>samples = 2<br/>value = [0, 2]<br/>class = Usuario>, fillcolor="#399de5"] ;
642 -> 646 ;
647 [label=<gini = 0.0<br/>samples = 1<br/>value = [1, 0]<br/>class = Não Usuario>, fillcolor="#e58139"] ;
639 -> 647 ;
648 [label=<Extroversao &le; 0.77<br/>gini = 0.49<br/>samples = 14<br/>value = [8, 6]<br/>class = Não Usuario>, fillcolor="#f8e0ce"] ;
600 -> 648 ;
649 [label=<Agradabilidade &le; 0.84<br/>gini = 0.278<br/>samples = 6<br/>value = [5, 1]<br/>class = Não Usuario>, fillcolor="#ea9a61"] ;
648 -> 649 ;
650 [label=<gini = 0.0<br/>samples = 5<br/>value = [5, 0]<br/>class = Não Usuario>, fillcolor="#e58139"] ;
649 -> 650 ;
651 [label=<gini = 0.0<br/>samples = 1<br/>value = [0, 1]<br/>class = Usuario>, fillcolor="#399de5"] ;
649 -> 651 ;
652 [label=<Extroversao &le; 0.828<br/>gini = 0.469<br/>samples = 8<br/>value = [3, 5]<br/>class = Usuario>, fillcolor="#b0d8f5"] ;
648 -> 652 ;
653 [label=<gini = 0.0<br/>samples = 4<br/>value = [0, 4]<br/>class = Usuario>, fillcolor="#399de5"] ;
652 -> 653 ;
654 [label=<AberturaExperiencia &le; 0.575<br/>gini = 0.375<br/>samples = 4<br/>value = [3, 1]<br/>class = Não Usuario>, fillcolor="#eeab7b"] ;
652 -> 654 ;
655 [label=<gini = 0.0<br/>samples = 3<br/>value = [3, 0]<br/>class = Não Usuario>, fillcolor="#e58139"] ;
654 -> 655 ;
656 [label=<gini = 0.0<br/>samples = 1<br/>value = [0, 1]<br/>class = Usuario>, fillcolor="#399de5"] ;
654 -> 656 ;
657 [label=<Conscienciosidade &le; 0.923<br/>gini = 0.499<br/>samples = 40<br/>value = [21, 19]<br/>class = Não Usuario>, fillcolor="#fdf3ec"] ;
599 -> 657 ;
658 [label=<gini = 0.0<br/>samples = 10<br/>value = [10, 0]<br/>class = Não Usuario>, fillcolor="#e58139"] ;
657 -> 658 ;
659 [label=<Impulsividade &le; 0.555<br/>gini = 0.464<br/>samples = 30<br/>value = [11, 19]<br/>class = Usuario>, fillcolor="#acd6f4"] ;
657 -> 659 ;
660 [label=<gini = 0.0<br/>samples = 4<br/>value = [4, 0]<br/>class = Não Usuario>, fillcolor="#e58139"] ;
659 -> 660 ;
661 [label=<Impulsividade &le; 0.856<br/>gini = 0.393<br/>samples = 26<br/>value = [7, 19]<br/>class = Usuario>, fillcolor="#82c1ef"] ;
659 -> 661 ;
662 [label=<AberturaExperiencia &le; 0.409<br/>gini = 0.287<br/>samples = 23<br/>value = [4, 19]<br/>class = Usuario>, fillcolor="#63b2ea"] ;
661 -> 662 ;
663 [label=<gini = 0.0<br/>samples = 1<br/>value = [1, 0]<br/>class = Não Usuario>, fillcolor="#e58139"] ;
662 -> 663 ;
664 [label=<Conscienciosidade &le; 0.99<br/>gini = 0.236<br/>samples = 22<br/>value = [3, 19]<br/>class = Usuario>, fillcolor="#58ace9"] ;
662 -> 664 ;
665 [label=<BuscaPorExperiencias &le; 0.989<br/>gini = 0.18<br/>samples = 20<br/>value = [2, 18]<br/>class = Usuario>, fillcolor="#4fa8e8"] ;
664 -> 665 ;
666 [label=<Conscienciosidade &le; 0.943<br/>gini = 0.111<br/>samples = 17<br/>value = [1, 16]<br/>class = Usuario>, fillcolor="#45a3e7"] ;
665 -> 666 ;
667 [label=<InstabilidadeEmocional &le; 0.56<br/>gini = 0.375<br/>samples = 4<br/>value = [1, 3]<br/>class = Usuario>, fillcolor="#7bbeee"] ;
666 -> 667 ;
668 [label=<gini = 0.0<br/>samples = 3<br/>value = [0, 3]<br/>class = Usuario>, fillcolor="#399de5"] ;
667 -> 668 ;
669 [label=<gini = 0.0<br/>samples = 1<br/>value = [1, 0]<br/>class = Não Usuario>, fillcolor="#e58139"] ;
667 -> 669 ;
670 [label=<gini = 0.0<br/>samples = 13<br/>value = [0, 13]<br/>class = Usuario>, fillcolor="#399de5"] ;
666 -> 670 ;
671 [label=<Conscienciosidade &le; 0.95<br/>gini = 0.444<br/>samples = 3<br/>value = [1, 2]<br/>class = Usuario>, fillcolor="#9ccef2"] ;
665 -> 671 ;
672 [label=<gini = 0.0<br/>samples = 2<br/>value = [0, 2]<br/>class = Usuario>, fillcolor="#399de5"] ;
671 -> 672 ;
673 [label=<gini = 0.0<br/>samples = 1<br/>value = [1, 0]<br/>class = Não Usuario>, fillcolor="#e58139"] ;
671 -> 673 ;
674 [label=<InstabilidadeEmocional &le; 0.545<br/>gini = 0.5<br/>samples = 2<br/>value = [1, 1]<br/>class = Não Usuario>, fillcolor="#ffffff"] ;
664 -> 674 ;
675 [label=<gini = 0.0<br/>samples = 1<br/>value = [0, 1]<br/>class = Usuario>, fillcolor="#399de5"] ;
674 -> 675 ;
676 [label=<gini = 0.0<br/>samples = 1<br/>value = [1, 0]<br/>class = Não Usuario>, fillcolor="#e58139"] ;
674 -> 676 ;
677 [label=<gini = 0.0<br/>samples = 3<br/>value = [3, 0]<br/>class = Não Usuario>, fillcolor="#e58139"] ;
661 -> 677 ;
678 [label=<Conscienciosidade &le; 0.856<br/>gini = 0.438<br/>samples = 34<br/>value = [23, 11]<br/>class = Não Usuario>, fillcolor="#f1bd98"] ;
584 -> 678 ;
679 [label=<Extroversao &le; 0.66<br/>gini = 0.095<br/>samples = 20<br/>value = [19, 1]<br/>class = Não Usuario>, fillcolor="#e68843"] ;
678 -> 679 ;
680 [label=<gini = 0.0<br/>samples = 1<br/>value = [0, 1]<br/>class = Usuario>, fillcolor="#399de5"] ;
679 -> 680 ;
681 [label=<gini = 0.0<br/>samples = 19<br/>value = [19, 0]<br/>class = Não Usuario>, fillcolor="#e58139"] ;
679 -> 681 ;
682 [label=<Agradabilidade &le; 0.773<br/>gini = 0.408<br/>samples = 14<br/>value = [4, 10]<br/>class = Usuario>, fillcolor="#88c4ef"] ;
678 -> 682 ;
683 [label=<Extroversao &le; 0.653<br/>gini = 0.198<br/>samples = 9<br/>value = [1, 8]<br/>class = Usuario>, fillcolor="#52a9e8"] ;
682 -> 683 ;
684 [label=<gini = 0.0<br/>samples = 1<br/>value = [1, 0]<br/>class = Não Usuario>, fillcolor="#e58139"] ;
683 -> 684 ;
685 [label=<gini = 0.0<br/>samples = 8<br/>value = [0, 8]<br/>class = Usuario>, fillcolor="#399de5"] ;
683 -> 685 ;
686 [label=<Impulsividade &le; 0.445<br/>gini = 0.48<br/>samples = 5<br/>value = [3, 2]<br/>class = Não Usuario>, fillcolor="#f6d5bd"] ;
682 -> 686 ;
687 [label=<AberturaExperiencia &le; 0.641<br/>gini = 0.444<br/>samples = 3<br/>value = [1, 2]<br/>class = Usuario>, fillcolor="#9ccef2"] ;
686 -> 687 ;
688 [label=<gini = 0.0<br/>samples = 2<br/>value = [0, 2]<br/>class = Usuario>, fillcolor="#399de5"] ;
687 -> 688 ;
689 [label=<gini = 0.0<br/>samples = 1<br/>value = [1, 0]<br/>class = Não Usuario>, fillcolor="#e58139"] ;
687 -> 689 ;
690 [label=<gini = 0.0<br/>samples = 2<br/>value = [2, 0]<br/>class = Não Usuario>, fillcolor="#e58139"] ;
686 -> 690 ;
}